svm_type c_svc
kernel_type polynomial
degree 2
gamma 0.5
coef0 0
nr_class 2
total_sv 1117
rho -1.00133
label 0 1
nr_sv 575 542
SV
10 1:0.44413086 2:-5.4968125 
10 1:0.12304297 2:-0.707875 
10 1:0.11385937 2:-0.931375 
10 1:0.10228125 2:-0.3788125 
10 1:0.14896484 2:-0.9749375 
10 1:0.37638086 2:-6.194875 
6.661991236726713 1:0.42530273 2:-3.6656875 
10 1:0.47179688 2:-4.263875 
10 1:0.13327539 2:-0.8525 
10 1:0.40496289 2:-6.0150625 
10 1:0.39301562 2:-4.5141875 
10 1:0.29694531 2:-3.1875 
10 1:0.39408398 2:-5.8528125 
10 1:0.39188867 2:-5.9671875 
10 1:0.093220703 2:-0.5623125 
10 1:0.1327793 2:-0.6373125 
10 1:0.34135156 2:-3.9849375 
10 1:0.51370117 2:-4.112625 
10 1:0.13370312 2:-0.8206875 
10 1:0.10354883 2:-0.8704375 
10 1:0.13164844 2:-0.6746875 
10 1:0.13310156 2:-0.8990625 
10 1:0.10353711 2:-0.32425 
10 1:0.11791602 2:-0.928125 
10 1:0.44555664 2:-2.8524375 
2.023828318806709e-05 1:0.37451172 2:-5.1918125 
10 1:0.36505469 2:-6.3261875 
10 1:0.29344141 2:-5.347125 
10 1:0.44478125 2:-4.250625 
10 1:0.32865234 2:-6.080125 
10 1:0.090535156 2:-0.549875 
10 1:0.36351563 2:-4.783125 
10 1:0.13386133 2:-1.2381875 
10 1:0.14582422 2:-0.899875 
10 1:0.11248828 2:-0.94625 
10 1:0.40533789 2:-6.4565 
10 1:0.11981641 2:-0.8105625 
10 1:0.10238867 2:-0.5438125 
10 1:0.11116211 2:-0.5193125 
10 1:0.42903711 2:-5.4879375 
10 1:0.14158398 2:-1.0695625 
10 1:0.10040625 2:-0.363125 
10 1:0.38066602 2:-7.1104375 
10 1:0.36164258 2:-6.250875 
10 1:0.11766797 2:-0.6435 
10 1:0.13987891 2:-0.900375 
10 1:0.1466582 2:-0.7234375 
10 1:0.098416016 2:-0.5598125 
10 1:0.10675781 2:-0.5901875 
10 1:0.31731445 2:-4.57025 
10 1:0.13518945 2:-1.040625 
10 1:0.10128711 2:-0.4778125 
10 1:0.15054688 2:-0.7015 
10 1:0.41410156 2:-6.125625 
10 1:0.42115039 2:-5.187125 
10 1:0.47751758 2:-4.1559375 
10 1:0.40051758 2:-6.0948125 
10 1:0.4319082 2:-4.9931875 
10 1:0.42663086 2:-3.637125 
10 1:0.46158789 2:-6.3245 
10 1:0.12100586 2:-0.6644375 
10 1:0.37860742 2:-5.246875 
10 1:0.39942773 2:-6.0199375 
10 1:0.45618164 2:-6.5829375 
10 1:0.41484961 2:-3.875875 
10 1:0.37671289 2:-6.0123125 
10 1:0.52801953 2:-5.481 
10 1:0.097367187 2:-0.3933125 
10 1:0.39329102 2:-2.96975 
10 1:0.45111328 2:-4.638 
10 1:0.11413086 2:-0.477125 
10 1:0.4534043 2:-3.5765625 
10 1:0.10926758 2:-0.602625 
10 1:0.35138672 2:-6.545875 
10 1:0.41430469 2:-6.158625 
10 1:0.10433789 2:-0.7885625 
10 1:0.37476758 2:-6.0885625 
10 1:0.30496484 2:-3.691125 
10 1:0.12355664 2:-0.64775 
10 1:0.082808594 2:-0.74025 
10 1:0.14485938 2:-0.651875 
10 1:0.46312695 2:-4.068625 
10 1:0.084984375 2:-0.5738125 
10 1:0.10628906 2:-0.8430625 
10 1:0.11067187 2:-0.37425 
10 1:0.14517578 2:-1.09425 
10 1:0.33836133 2:-3.841 
10 1:0.10826172 2:-1.0439375 
10 1:0.37692773 2:-6.066 
10 1:0.13022852 2:-0.74225 
8.303394173233327 1:0.11771094 2:-0.544125 
10 1:0.098625 2:-0.66875 
10 1:0.12187695 2:-0.573875 
10 1:0.45625781 2:-3.9156875 
10 1:0.49548828 2:-3.364375 
10 1:0.35889258 2:-6.5419375 
10 1:0.43245703 2:-6.32425 
10 1:0.35253906 2:-2.61525 
10 1:0.3979668 2:-6.434375 
10 1:0.12307812 2:-0.750125 
10 1:0.071806641 2:-0.5965625 
10 1:0.11905273 2:-0.72825 
0.04779068528527604 1:0.28708789 2:-2.5873125 
9.234562934911581 1:0.13659961 2:-1.093125 
10 1:0.27905078 2:-4.1588125 
10 1:0.4747207 2:-3.821125 
10 1:0.3599668 2:-4.7544375 
10 1:0.45795313 2:-3.3419375 
10 1:0.098914062 2:-0.388625 
2.852246327460313 1:0.29102539 2:-2.3373125 
10 1:0.12799414 2:-0.743125 
10 1:0.42236523 2:-3.9070625 
10 1:0.13647852 2:-0.844625 
10 1:0.11047852 2:-0.599625 
0.07684739943749855 1:0.1419707 2:-0.6945625 
10 1:0.40152148 2:-3.35125 
10 1:0.085785156 2:-0.5461875 
10 1:0.094929688 2:-0.6895 
10 1:0.093216797 2:-0.45825 
10 1:0.11014062 2:-0.635375 
10 1:0.41219531 2:-7.08375 
10 1:0.091390625 2:-0.3915625 
1.852343619618994 1:0.16712305 2:-0.8416875 
10 1:0.46001953 2:-3.562375 
10 1:0.33484766 2:-6.761375 
10 1:0.10192383 2:-0.33725 
10 1:0.10512695 2:-0.3761875 
10 1:0.11716797 2:-0.493375 
10 1:0.092326172 2:-0.365625 
10 1:0.39625195 2:-5.7065625 
10 1:0.47209961 2:-4.102375 
10 1:0.0925 2:-0.405875 
10 1:0.13383789 2:-0.706375 
10 1:0.11671289 2:-0.85325 
8.878758273924721 1:0.15686523 2:-0.94725 
10 1:0.16303125 2:-1.1005625 
10 1:0.14702148 2:-1.28975 
10 1:0.12066406 2:-0.7008125 
10 1:0.095267578 2:-0.5049375 
10 1:0.39258008 2:-5.3465 
10 1:0.13883789 2:-0.8361875 
10 1:0.40448242 2:-3.771 
10 1:0.10207617 2:-1.067 
10 1:0.40561133 2:-5.3205 
10 1:0.11921875 2:-0.508875 
10 1:0.12054883 2:-0.5316875 
10 1:0.41668164 2:-5.924875 
1.128203033566812 1:0.43040625 2:-3.1189375 
10 1:0.32481836 2:-6.3535 
10 1:0.090236328 2:-0.73775 
10 1:0.40140625 2:-4.0538125 
10 1:0.52707617 2:-4.68575 
10 1:0.35478711 2:-6.158125 
10 1:0.096822266 2:-0.44275 
10 1:0.099722656 2:-0.31875 
10 1:0.15209375 2:-0.8670625 
10 1:0.090865234 2:-0.7323125 
0.1866129304220756 1:0.19461914 2:-1.3445625 
10 1:0.10781641 2:-0.6705 
10 1:0.096380859 2:-0.32325 
10 1:0.38126953 2:-4.8755625 
10 1:0.10585156 2:-0.4585 
10 1:0.073541016 2:-0.704625 
10 1:0.40841602 2:-5.890375 
10 1:0.48122461 2:-4.6288125 
10 1:0.13424609 2:-1.040625 
10 1:0.10086328 2:-0.3555 
10 1:0.089394531 2:-0.407625 
10 1:0.077960938 2:-0.51175 
10 1:0.12149023 2:-0.6396875 
2.911452234936944 1:0.4121875 2:-4.211 
10 1:0.4871875 2:-3.887125 
1.780736735058808 1:0.16695508 2:-1.788625 
10 1:0.47977344 2:-3.13125 
10 1:0.093222656 2:-0.914125 
10 1:0.079640625 2:-0.79925 
5.540797537613089 1:0.13176172 2:-0.646875 
10 1:0.12444727 2:-0.638875 
10 1:0.11802539 2:-0.5254375 
7.087178577961848 1:0.13932031 2:-1.2410625 
10 1:0.45036328 2:-3.8025 
10 1:0.46235742 2:-5.634125 
10 1:0.21296484 2:-1.6684375 
10 1:0.089236328 2:-0.6251875 
10 1:0.46525391 2:-4.268125 
10 1:0.36124023 2:-3.3540625 
10 1:0.091064453 2:-0.33625 
10 1:0.45269336 2:-4.4751875 
10 1:0.12742188 2:-0.7746875 
10 1:0.33461719 2:-6.2285 
10 1:0.3902207 2:-3.342375 
10 1:0.39567969 2:-3.775375 
10 1:0.10491016 2:-0.7456875 
10 1:0.38185937 2:-5.7153125 
10 1:0.44405469 2:-4.3299375 
10 1:0.14100391 2:-0.72 
10 1:0.44163867 2:-4.752125 
10 1:0.091367187 2:-0.4304375 
10 1:0.11755859 2:-0.546625 
0.3270680424355815 1:0.33994922 2:-5.904125 
10 1:0.060169922 2:-0.6791875 
10 1:0.38608203 2:-5.83775 
10 1:0.093611328 2:-0.458625 
10 1:0.40891211 2:-5.9803125 
10 1:0.36463672 2:-5.2138125 
10 1:0.11691992 2:-0.5206875 
10 1:0.33986133 2:-5.56675 
10 1:0.16531836 2:-0.9685 
10 1:0.37031445 2:-6.1486875 
0.006045830263543131 1:0.27653711 2:-3.3175625 
1.426224699541522 1:0.12993359 2:-1.4123125 
10 1:0.1147207 2:-0.7149375 
10 1:0.39774414 2:-6.05375 
10 1:0.11771484 2:-0.616875 
10 1:0.094763672 2:-0.387625 
3.162712487492049 1:0.10303711 2:-0.8368125 
0.383284082142782 1:0.095126953 2:-1.0759375 
10 1:0.09196875 2:-0.3141875 
10 1:0.39798438 2:-6.242 
10 1:0.11716797 2:-0.513625 
7.841189149295058 1:0.39798828 2:-2.7364375 
10 1:0.10148242 2:-0.4575 
10 1:0.091589844 2:-0.5614375 
10 1:0.39248828 2:-3.027875 
10 1:0.12712305 2:-0.6914375 
10 1:0.42236328 2:-6.1394375 
10 1:0.13571484 2:-1.0553125 
10 1:0.083164063 2:-0.5235 
10 1:0.38089258 2:-4.9790625 
10 1:0.18621875 2:-1.0839375 
10 1:0.3770293 2:-6.11475 
10 1:0.38122656 2:-3.5826875 
10 1:0.1249668 2:-0.989125 
10 1:0.33624023 2:-6.860125 
10 1:0.35126758 2:-4.4229375 
10 1:0.42924219 2:-6.279125 
10 1:0.11262109 2:-0.8276875 
9.434457041374653 1:0.20761914 2:-1.4529375 
10 1:0.49133984 2:-4.1626875 
10 1:0.40123242 2:-5.4555625 
0.001453598289122424 1:0.19701367 2:-2.13925 
2.065287227551022 1:0.31833008 2:-2.2700625 
10 1:0.11569922 2:-0.68975 
10 1:0.23971289 2:-2.3139375 
10 1:0.38610742 2:-6.1371875 
10 1:0.098894531 2:-0.3690625 
10 1:0.38570117 2:-6.1624375 
10 1:0.49560547 2:-4.876 
10 1:0.46247266 2:-6.5006875 
10 1:0.49461523 2:-4.0245625 
10 1:0.10248438 2:-0.7654375 
0.8303948079632093 1:0.13388281 2:-0.929875 
10 1:0.12610742 2:-0.953125 
10 1:0.36661328 2:-6.022 
10 1:0.36959961 2:-5.9623125 
10 1:0.13112695 2:-0.6868125 
10 1:0.39117773 2:-4.3866875 
10 1:0.4509043 2:-6.5925625 
10 1:0.38269531 2:-4.839625 
10 1:0.41826953 2:-5.916375 
10 1:0.41155273 2:-6.8126875 
10 1:0.090236328 2:-0.5974375 
9.803220017404486 1:0.1505293 2:-1.2823125 
10 1:0.13116602 2:-0.756125 
10 1:0.11962891 2:-0.4805625 
10 1:0.42748242 2:-5.4629375 
10 1:0.37933789 2:-3.19475 
10 1:0.1970332 2:-1.14525 
10 1:0.094730469 2:-0.640625 
3.421485123949868 1:0.14380469 2:-0.87225 
10 1:0.1048457 2:-0.404 
10 1:0.10165625 2:-0.324625 
10 1:0.081716797 2:-0.5680625 
10 1:0.089660156 2:-0.3435 
10 1:0.35353711 2:-6.4664375 
10 1:0.40830859 2:-5.9036875 
10 1:0.11088867 2:-0.5460625 
10 1:0.44185156 2:-3.6235 
10 1:0.11741211 2:-0.589875 
10 1:0.11374805 2:-0.61875 
10 1:0.11228125 2:-0.635 
10 1:0.12333398 2:-0.8314375 
10 1:0.3229082 2:-6.2829375 
10 1:0.39990039 2:-5.5281875 
10 1:0.46808789 2:-4.909125 
10 1:0.10788672 2:-0.7638125 
10 1:0.11741602 2:-0.7308125 
1.03673523351163 1:0.15686523 2:-1.1291875 
10 1:0.082171875 2:-0.5553125 
10 1:0.09196875 2:-0.3166875 
10 1:0.10485156 2:-0.66725 
10 1:0.1204668 2:-0.5898125 
10 1:0.10866797 2:-0.5028125 
10 1:0.098341797 2:-0.499875 
10 1:0.10531641 2:-0.38825 
10 1:0.13151758 2:-0.8149375 
10 1:0.098625 2:-0.7690625 
10 1:0.45997461 2:-6.2921875 
3.435256206599127 1:0.43209766 2:-2.5886875 
4.975025959031618 1:0.32398437 2:-5.519 
10 1:0.10131836 2:-0.49875 
10 1:0.12868945 2:-0.7908125 
10 1:0.10248828 2:-0.332125 
10 1:0.094980469 2:-0.3855 
0.4803671790614886 1:0.273875 2:-5.762125 
10 1:0.48474609 2:-6.674125 
10 1:0.094044922 2:-0.4548125 
10 1:0.089603516 2:-0.2883125 
10 1:0.12841406 2:-0.606875 
2.090133093352139 1:0.26445117 2:-4.8659375 
10 1:0.10089258 2:-0.755375 
10 1:0.45030664 2:-4.5109375 
10 1:0.082208984 2:-0.7716875 
10 1:0.27932617 2:-4.1611875 
10 1:0.10423633 2:-0.6513125 
10 1:0.10682617 2:-0.819125 
6.678988037046183 1:0.39370703 2:-3.9125 
10 1:0.10151172 2:-0.2658125 
10 1:0.087685547 2:-0.4531875 
10 1:0.35580078 2:-6.299125 
10 1:0.37291602 2:-5.604 
10 1:0.44792773 2:-5.903 
10 1:0.090515625 2:-0.3639375 
10 1:0.13136719 2:-0.8565625 
10 1:0.35527734 2:-2.8031875 
10 1:0.39452734 2:-5.0855 
10 1:0.51403125 2:-6.2425 
10 1:0.095197266 2:-0.3486875 
10 1:0.094089844 2:-0.35575 
10 1:0.099154297 2:-0.773875 
10 1:0.36563477 2:-3.1015 
10 1:0.34985547 2:-5.783125 
10 1:0.36413867 2:-6.3994375 
10 1:0.35045508 2:-5.5129375 
10 1:0.4079668 2:-3.6353125 
10 1:0.10687305 2:-0.574 
10 1:0.12254492 2:-0.5324375 
10 1:0.12725781 2:-0.9393125 
10 1:0.1196875 2:-0.91925 
10 1:0.38785547 2:-6.0408125 
10 1:0.088017578 2:-0.839125 
10 1:0.35314844 2:-5.3280625 
10 1:0.41433789 2:-4.3966875 
10 1:0.0866875 2:-0.53075 
10 1:0.076007812 2:-0.794375 
10 1:0.37899609 2:-6.203375 
10 1:0.43064648 2:-5.9849375 
10 1:0.40867188 2:-3.7954375 
10 1:0.37616406 2:-3.7056875 
10 1:0.54441992 2:-4.3748125 
10 1:0.45663086 2:-6.1100625 
10 1:0.10266602 2:-0.3030625 
10 1:0.44498437 2:-3.3908125 
10 1:0.10920508 2:-0.5159375 
10 1:0.10847266 2:-0.7294375 
10 1:0.10000977 2:-0.54025 
10 1:0.11242773 2:-0.6503125 
10 1:0.099580078 2:-0.4653125 
10 1:0.13085352 2:-0.681625 
10 1:0.38377344 2:-6.2124375 
10 1:0.094498047 2:-0.5005 
10 1:0.076214844 2:-0.8195 
10 1:0.43593359 2:-4.35875 
10 1:0.44400781 2:-5.9770625 
10 1:0.38823047 2:-3.969 
10 1:0.21253711 2:-1.875875 
10 1:0.1101543 2:-0.4315625 
10 1:0.10205469 2:-0.46125 
10 1:0.088183594 2:-0.51125 
10 1:0.09271875 2:-0.50975 
10 1:0.18491797 2:-1.406 
10 1:0.12977539 2:-0.7744375 
10 1:0.1299668 2:-0.6614375 
2.392994821284861 1:0.43492188 2:-5.8491875 
10 1:0.16407031 2:-0.9909375 
10 1:0.11247852 2:-0.70775 
10 1:0.11146289 2:-0.525625 
9.874219774539226 1:0.38302539 2:-3.317625 
10 1:0.090832031 2:-0.413625 
10 1:0.092617187 2:-0.48525 
10 1:0.10375 2:-0.3034375 
10 1:0.076640625 2:-0.559 
10 1:0.082849609 2:-0.51425 
10 1:0.097117188 2:-0.2763125 
10 1:0.088917969 2:-0.41075 
10 1:0.47303906 2:-4.5331875 
10 1:0.4128457 2:-5.946 
10 1:0.3845 2:-6.7055 
10 1:0.33051172 2:-3.44125 
10 1:0.34606445 2:-6.244125 
10 1:0.096857422 2:-0.671 
10 1:0.11336719 2:-0.547625 
10 1:0.44727148 2:-5.6630625 
10 1:0.44730469 2:-5.969375 
10 1:0.082671875 2:-0.6861875 
10 1:0.39750977 2:-6.3005625 
10 1:0.14311133 2:-0.8130625 
10 1:0.11179687 2:-0.3708125 
10 1:0.094185547 2:-0.5078125 
0.3377306563185166 1:0.30577734 2:-2.7071875 
10 1:0.434875 2:-4.560125 
10 1:0.40568945 2:-3.4481875 
0.1016432757818456 1:0.15147266 2:-0.878625 
10 1:0.46249414 2:-4.082 
10 1:0.42033008 2:-5.502875 
10 1:0.38048438 2:-5.484625 
10 1:0.15340039 2:-0.8690625 
10 1:0.14018359 2:-0.7805 
10 1:0.12050781 2:-0.4821875 
10 1:0.10791797 2:-0.749875 
10 1:0.099896484 2:-0.499875 
10 1:0.10293945 2:-0.3921875 
10 1:0.091978516 2:-0.4714375 
10 1:0.12050391 2:-0.5638125 
10 1:0.098892578 2:-0.6958125 
10 1:0.11540039 2:-0.835625 
10 1:0.094371094 2:-0.669875 
10 1:0.10129297 2:-0.3945 
10 1:0.12153516 2:-0.538125 
10 1:0.096521484 2:-0.7900625 
10 1:0.10144727 2:-0.3619375 
10 1:0.12051562 2:-0.6193125 
10 1:0.11148242 2:-0.46475 
10 1:0.12692578 2:-0.5176875 
10 1:0.1220293 2:-0.50725 
7.688180161739293 1:0.073650391 2:-1.0048125 
10 1:0.097087891 2:-0.6216875 
10 1:0.089023438 2:-0.5033125 
10 1:0.17530078 2:-0.9114375 
10 1:0.39655859 2:-4.51775 
3.052863946578817 1:0.36598633 2:-2.9008125 
10 1:0.39713867 2:-5.9639375 
10 1:0.40342578 2:-6.348125 
10 1:0.11324219 2:-0.802375 
10 1:0.39936523 2:-5.981625 
10 1:0.11850391 2:-0.650625 
10 1:0.47109961 2:-4.566125 
10 1:0.47638086 2:-5.2835625 
10 1:0.13012695 2:-0.6781875 
10 1:0.094574219 2:-0.393375 
10 1:0.38733984 2:-6.4479375 
10 1:0.10214453 2:-0.3369375 
10 1:0.096841797 2:-0.3508125 
10 1:0.12479883 2:-0.6433125 
10 1:0.37748242 2:-5.4595 
10 1:0.40545312 2:-6.2274375 
10 1:0.39028711 2:-4.6720625 
10 1:0.13950586 2:-0.9530625 
10 1:0.45595703 2:-5.719625 
10 1:0.15374805 2:-1.035875 
10 1:0.40119336 2:-7.3266875 
1.761867767045772 1:0.42158008 2:-4.9910625 
10 1:0.38989063 2:-2.975 
10 1:0.16394531 2:-1.220625 
10 1:0.30524609 2:-3.7535625 
10 1:0.13239258 2:-0.7931875 
0.01854018689104414 1:0.16663672 2:-1.2071875 
3.087523013842363 1:0.30795703 2:-6.1831875 
10 1:0.42124023 2:-5.3928125 
10 1:0.099923828 2:-0.4315 
10 1:0.35097461 2:-5.6483125 
10 1:0.11803906 2:-0.4515625 
10 1:0.11346094 2:-0.9969375 
10 1:0.087550781 2:-0.7065 
10 1:0.35628711 2:-6.539625 
10 1:0.39371289 2:-5.3565 
10 1:0.41813477 2:-4.671875 
10 1:0.12651562 2:-0.575875 
10 1:0.15716602 2:-1.198625 
10 1:0.43663086 2:-4.5245 
10 1:0.37595117 2:-6.845625 
10 1:0.35535352 2:-5.9386875 
10 1:0.12094922 2:-0.8600625 
10 1:0.099724609 2:-0.323875 
10 1:0.13491797 2:-0.6651875 
10 1:0.11064453 2:-0.701125 
10 1:0.11556836 2:-0.6775625 
10 1:0.095435547 2:-0.3585 
10 1:0.17983594 2:-1.146625 
10 1:0.10081836 2:-0.3579375 
10 1:0.10748437 2:-0.9036875 
10 1:0.46446094 2:-3.1174375 
10 1:0.50749414 2:-4.0415625 
10 1:0.42561328 2:-5.0830625 
10 1:0.36618555 2:-6.76 
10 1:0.1055293 2:-0.610375 
10 1:0.10492383 2:-0.9184375 
10 1:0.13449609 2:-0.8108125 
10 1:0.080568359 2:-0.575125 
10 1:0.092001953 2:-0.715875 
10 1:0.13867969 2:-0.859 
10 1:0.1173418 2:-0.5135 
10 1:0.43722656 2:-4.279375 
10 1:0.12603711 2:-0.642625 
10 1:0.41069727 2:-6.33175 
2.965935081426609 1:0.12719922 2:-0.9071875 
10 1:0.11253125 2:-0.847 
10 1:0.11959766 2:-0.6028125 
10 1:0.5255957 2:-5.70775 
10 1:0.13027148 2:-1.22175 
2.732097745701154 1:0.15344531 2:-0.9359375 
10 1:0.12721289 2:-1.0301875 
10 1:0.14204102 2:-0.9299375 
10 1:0.42770703 2:-5.0911875 
10 1:0.094205078 2:-0.4821875 
10 1:0.099089844 2:-0.5843125 
10 1:0.47537305 2:-4.7585 
10 1:0.12242383 2:-0.682625 
10 1:0.22610742 2:-1.3413125 
10 1:0.36239258 2:-5.0970625 
10 1:0.39016797 2:-4.9833125 
10 1:0.37181836 2:-4.92175 
10 1:0.37275586 2:-7.081375 
10 1:0.35354297 2:-7.0851875 
10 1:0.35895703 2:-6.632125 
10 1:0.30747852 2:-5.424875 
0.03210679601390162 1:0.33358203 2:-3.0415 
10 1:0.37255273 2:-4.0279375 
10 1:0.11418945 2:-0.9640625 
10 1:0.41917187 2:-5.483375 
10 1:0.36936914 2:-3.5874375 
0.6238555199219241 1:0.47980859 2:-3.3043125 
10 1:0.15311328 2:-1.0805 
10 1:0.068048828 2:-0.315 
10 1:0.37524414 2:-5.9794375 
10 1:0.093871094 2:-0.28325 
10 1:0.089751953 2:-0.562625 
10 1:0.42212695 2:-5.196375 
9.594488674189702 1:0.093728516 2:-0.86875 
9.99909030415324 1:0.11825195 2:-0.527125 
10 1:0.41708984 2:-7.1114375 
10 1:0.35033594 2:-2.7564375 
0.01319670837493924 1:0.12673438 2:-0.627125 
10 1:0.46533398 2:-3.3760625 
10 1:0.42836523 2:-3.6604375 
10 1:0.36837695 2:-6.2575 
10 1:0.51585742 2:-6.6545 
10 1:0.38552344 2:-4.6464375 
10 1:0.43723828 2:-7.1905 
7.435446443913051 1:0.10912695 2:-1.035375 
10 1:0.10581641 2:-0.5499375 
10 1:0.3703457 2:-6.1079375 
10 1:0.44803711 2:-4.523 
10 1:0.105125 2:-0.7613125 
10 1:0.43280273 2:-3.691 
10 1:0.13683008 2:-0.8329375 
10 1:0.10494922 2:-0.7160625 
10 1:0.40974609 2:-6.5911875 
10 1:0.10458203 2:-0.34025 
10 1:0.41186133 2:-5.304625 
10 1:0.13350781 2:-0.791375 
10 1:0.34483398 2:-3.801125 
10 1:0.29625195 2:-4.1665 
10 1:0.11573047 2:-0.8244375 
10 1:0.49850195 2:-4.2493125 
10 1:0.43819336 2:-6.483 
10 1:0.43186914 2:-3.553875 
10 1:0.40304883 2:-4.162625 
10 1:0.35510156 2:-5.9024375 
10 1:0.11901953 2:-0.52775 
4.455680368294688 1:0.48453711 2:-3.700375 
9.890274999242736 1:0.46163086 2:-3.4993125 
10 1:0.5193418 2:-3.74275 
10 1:0.10489844 2:-0.33525 
10 1:0.10010156 2:-0.3700625 
10 1:0.34450977 2:-3.534625 
10 1:0.14058203 2:-0.764375 
10 1:0.098832031 2:-0.55675 
10 1:0.40981836 2:-7.1111875 
10 1:0.39318359 2:-3.0641875 
10 1:0.16342383 2:-1.017125 
10 1:0.365375 2:-2.8435 
10 1:0.54072852 2:-4.29325 
10 1:0.44399023 2:-4.749625 
10 1:0.48939844 2:-4.644625 
-10 1:0.44066992 2:-4.3504375 
-10 1:0.27822461 2:-4.0888125 
-10 1:0.28741406 2:-4.3654375 
-10 1:0.18921094 2:-3.328375 
-10 1:0.34156641 2:-4.8388125 
-10 1:0.28816211 2:-3.75325 
-10 1:0.42295508 2:-4.58325 
-10 1:0.35011133 2:-4.5961875 
-10 1:0.30645703 2:-2.082 
-10 1:0.33792773 2:-3.1846875 
-10 1:0.41233789 2:-5.5705 
-10 1:0.35138672 2:-4.4420625 
-10 1:0.24904883 2:-4.0290625 
-10 1:0.26214258 2:-4.100125 
-10 1:0.27826172 2:-4.4676875 
-10 1:0.33248828 2:-2.502 
-10 1:0.36280664 2:-5.8456875 
-10 1:0.35701172 2:-4.0114375 
-10 1:0.33430859 2:-3.2810625 
-10 1:0.29611523 2:-5.2068125 
-10 1:0.32277539 2:-3.7033125 
-10 1:0.33418555 2:-2.956375 
-10 1:0.16690234 2:-2.8409375 
-10 1:0.33725781 2:-3.869 
-10 1:0.25451758 2:-1.7416875 
-10 1:0.30048633 2:-3.50575 
-10 1:0.24953906 2:-2.5758125 
-10 1:0.2707207 2:-4.2679375 
-10 1:0.37868359 2:-4.4215 
-10 1:0.22776367 2:-2.785125 
-10 1:0.33098047 2:-2.8483125 
-10 1:0.39789844 2:-2.9333125 
-10 1:0.31657031 2:-3.592375 
-10 1:0.21885156 2:-1.7906875 
-10 1:0.31800195 2:-2.7066875 
-10 1:0.19188281 2:-2.0279375 
-10 1:0.17126758 2:-2.6516875 
-10 1:0.29497461 2:-2.2556875 
-10 1:0.28387305 2:-3.2044375 
-10 1:0.40943945 2:-2.8265625 
-10 1:0.20573242 2:-2.702 
-10 1:0.34373047 2:-3.911375 
-10 1:0.24505859 2:-3.2475 
-10 1:0.26678516 2:-2.513375 
-10 1:0.25408203 2:-4.2065 
-10 1:0.3456543 2:-3.2239375 
-10 1:0.24648828 2:-3.09025 
-10 1:0.19146289 2:-3.1794375 
-10 1:0.32058789 2:-2.162375 
-10 1:0.343625 2:-3.1510625 
-10 1:0.30064063 2:-4.62675 
-10 1:0.25929492 2:-3.3233125 
-10 1:0.23530273 2:-1.1014375 
-10 1:0.28984375 2:-4.7261875 
-10 1:0.25291602 2:-4.2434375 
-10 1:0.20922266 2:-2.4875625 
-10 1:0.18249414 2:-3.0206875 
-10 1:0.2452207 2:-4.069625 
-10 1:0.47007031 2:-3.4156875 
-10 1:0.25875391 2:-3.735125 
-10 1:0.25331055 2:-5.259125 
-10 1:0.33484375 2:-4.3180625 
-10 1:0.19809375 2:-3.069 
-10 1:0.23054297 2:-3.08525 
-10 1:0.22968555 2:-4.1193125 
-10 1:0.39870508 2:-6.2614375 
-10 1:0.33263477 2:-5.3505 
-10 1:0.25126563 2:-2.5884375 
-10 1:0.28254102 2:-2.7315 
-10 1:0.24461719 2:-3.759875 
-10 1:0.30981836 2:-2.747 
-10 1:0.25489844 2:-3.386625 
-10 1:0.28346094 2:-1.1570625 
-10 1:0.26345898 2:-4.1485 
-10 1:0.28462109 2:-2.889125 
-10 1:0.1962832 2:-2.790375 
-10 1:0.16263086 2:-2.6108125 
-10 1:0.17793555 2:-1.9318125 
-10 1:0.28441602 2:-4.591875 
-10 1:0.29831641 2:-1.8839375 
-10 1:0.32322461 2:-4.9383125 
-10 1:0.22491602 2:-2.3835 
-10 1:0.29147852 2:-2.597125 
-10 1:0.19753516 2:-3.424375 
-10 1:0.27897461 2:-2.5580625 
-10 1:0.43238867 2:-2.8535625 
-10 1:0.32033984 2:-3.4545625 
-10 1:0.27245117 2:-3.922625 
-10 1:0.12591406 2:-1.9669375 
-10 1:0.23814258 2:-3.4095 
-10 1:0.3985957 2:-4.82175 
-10 1:0.24329297 2:-3.091 
-10 1:0.25313672 2:-2.7315 
-10 1:0.27132227 2:-3.500875 
-10 1:0.35445117 2:-2.0418125 
-10 1:0.31777148 2:-5.3259375 
-10 1:0.41664844 2:-5.8334375 
-10 1:0.37456445 2:-3.8265 
-10 1:0.29933008 2:-3.1620625 
-10 1:0.17382031 2:-1.9191875 
-10 1:0.16448242 2:-2.1161875 
-10 1:0.37798242 2:-5.36075 
-10 1:0.35523242 2:-5.1198125 
-10 1:0.2519707 2:-2.6255625 
-10 1:0.30011328 2:-3.26075 
-10 1:0.2056543 2:-2.8788125 
-10 1:0.2994707 2:-3.6604375 
-10 1:0.28832227 2:-3.2866875 
-10 1:0.12416602 2:-2.0903125 
-10 1:0.11805469 2:-2.27 
-10 1:0.17107227 2:-1.879375 
-10 1:0.26833398 2:-4.8129375 
-10 1:0.17469141 2:-2.1999375 
-10 1:0.18063281 2:-1.7966875 
-10 1:0.15491016 2:-3.04925 
-10 1:0.23418945 2:-3.1060625 
-10 1:0.34679102 2:-4.3859375 
-10 1:0.18732031 2:-3.1871875 
-10 1:0.24810742 2:-2.2230625 
-10 1:0.20545117 2:-3.250625 
-10 1:0.20155859 2:-2.3331875 
-10 1:0.34156445 2:-3.5378125 
-10 1:0.37650977 2:-3.31375 
-10 1:0.35983789 2:-4.137 
-10 1:0.18253516 2:-3.388375 
-10 1:0.31178516 2:-2.6841875 
-10 1:0.28626953 2:-2.63325 
-10 1:0.3564082 2:-4.6351875 
-10 1:0.29650781 2:-3.8868125 
-10 1:0.31982812 2:-5.0585 
-10 1:0.30227734 2:-2.2331875 
-10 1:0.28037109 2:-1.59875 
-10 1:0.21647656 2:-1.9361875 
-10 1:0.24942188 2:-1.6803125 
-10 1:0.25853125 2:-4.44175 
-10 1:0.21929688 2:-1.9210625 
-10 1:0.3401875 2:-1.4686875 
-10 1:0.32116602 2:-1.6766875 
-10 1:0.23394336 2:-2.904 
-10 1:0.2692793 2:-4.3863125 
-10 1:0.28656836 2:-5.2745 
-10 1:0.34270508 2:-2.6396875 
-10 1:0.22915234 2:-1.374375 
-10 1:0.33480664 2:-2.5214375 
-10 1:0.27562891 2:-3.6761875 
-10 1:0.28976953 2:-3.163375 
-10 1:0.34318555 2:-4.044125 
-10 1:0.26531055 2:-4.804 
-10 1:0.26812109 2:-3.9265625 
-10 1:0.241125 2:-3.359 
-10 1:0.35424609 2:-4.1588125 
-10 1:0.1582793 2:-2.42875 
-10 1:0.2905 2:-5.1194375 
-10 1:0.20248633 2:-1.470125 
-10 1:0.21135742 2:-2.489 
-10 1:0.31603125 2:-3.776875 
-10 1:0.23958398 2:-2.7159375 
-10 1:0.34157617 2:-4.2260625 
-10 1:0.36369141 2:-2.1930625 
-10 1:0.32398242 2:-3.5039375 
-10 1:0.20150586 2:-2.223875 
-10 1:0.21023242 2:-3.081125 
-10 1:0.38706445 2:-4.7500625 
-10 1:0.25750977 2:-2.2086875 
-10 1:0.3180957 2:-4.3368125 
-10 1:0.31791016 2:-3.7708125 
-10 1:0.48707422 2:-3.45225 
-10 1:0.3085 2:-4.161875 
-10 1:0.26771875 2:-2.972875 
-10 1:0.22813086 2:-2.677875 
-10 1:0.40599219 2:-2.685625 
-10 1:0.27122852 2:-3.7273125 
-10 1:0.20182617 2:-3.198125 
-10 1:0.24357227 2:-2.9170625 
-10 1:0.42968359 2:-4.415625 
-10 1:0.27746094 2:-4.6858125 
-10 1:0.16998047 2:-2.7985625 
-10 1:0.11469336 2:-1.1860625 
-10 1:0.34663867 2:-2.43325 
-10 1:0.30842383 2:-5.3401875 
-10 1:0.30995703 2:-2.99925 
-10 1:0.36791797 2:-1.7798125 
-10 1:0.38985742 2:-2.2789375 
-10 1:0.32626953 2:-3.5511875 
-10 1:0.2986543 2:-4.975125 
-10 1:0.1933457 2:-2.478125 
-10 1:0.19559961 2:-2.8805625 
-10 1:0.22288086 2:-0.879125 
-10 1:0.22076758 2:-3.50925 
-10 1:0.44749609 2:-3.6575625 
-10 1:0.18795117 2:-2.6435 
-10 1:0.21619336 2:-3.8670625 
-10 1:0.16503906 2:-2.1281875 
-10 1:0.27644531 2:-2.738125 
-10 1:0.21367188 2:-3.5629375 
-10 1:0.22887305 2:-3.4574375 
-10 1:0.23996094 2:-4.4979375 
-10 1:0.34984961 2:-4.391 
-10 1:0.29217773 2:-3.0855625 
-10 1:0.45689844 2:-4.434625 
-10 1:0.43435742 2:-3.4658125 
-10 1:0.18168164 2:-1.866875 
-10 1:0.1979668 2:-3.116375 
-10 1:0.20913672 2:-3.9043125 
-10 1:0.20894531 2:-4.481875 
-10 1:0.22959961 2:-2.5274375 
-10 1:0.24679883 2:-3.1264375 
-10 1:0.27471484 2:-2.5206875 
-10 1:0.32786133 2:-4.434 
-10 1:0.30963086 2:-2.8083125 
-10 1:0.38985547 2:-3.799625 
-10 1:0.21798437 2:-2.28275 
-10 1:0.26881055 2:-3.0364375 
-10 1:0.20781641 2:-1.73425 
-10 1:0.32364258 2:-0.9266875 
-10 1:0.18230469 2:-3.516875 
-10 1:0.20025195 2:-2.91475 
-10 1:0.19434375 2:-2.10675 
-10 1:0.17934961 2:-4.0168125 
-10 1:0.23202734 2:-1.8263125 
-10 1:0.29225195 2:-2.52325 
-10 1:0.19449023 2:-2.5605 
-10 1:0.22368359 2:-2.012125 
-10 1:0.20332227 2:-4.2685625 
-10 1:0.22722266 2:-2.2946875 
-10 1:0.26252344 2:-3.743625 
-10 1:0.17598047 2:-3.4860625 
-10 1:0.29560156 2:-2.88125 
-10 1:0.33454297 2:-4.7880625 
-10 1:0.33392969 2:-4.0231875 
-10 1:0.30508789 2:-5.8201875 
-10 1:0.26403125 2:-4.804125 
-10 1:0.19893359 2:-3.0593125 
-10 1:0.25470508 2:-0.922875 
-10 1:0.42402148 2:-4.7025625 
-10 1:0.38944922 2:-2.8925625 
-10 1:0.26929297 2:-2.8614375 
-10 1:0.27592773 2:-3.5386875 
-10 1:0.26537109 2:-3.0890625 
-10 1:0.38280273 2:-4.365125 
-10 1:0.23808984 2:-4.31375 
-10 1:0.22843164 2:-2.9856875 
-10 1:0.33358984 2:-2.0735 
-10 1:0.47258203 2:-5.1478125 
-10 1:0.27886328 2:-2.8150625 
-10 1:0.33678711 2:-3.9640625 
-10 1:0.24440234 2:-2.9349375 
-10 1:0.29697656 2:-3.7760625 
-10 1:0.25325586 2:-2.34125 
-10 1:0.23811523 2:-3.25 
-10 1:0.25968164 2:-4.701 
-10 1:0.25855664 2:-4.6235625 
-10 1:0.19732812 2:-3.4299375 
-10 1:0.39165625 2:-3.201875 
-10 1:0.23148828 2:-3.603875 
-10 1:0.38961328 2:-2.5674375 
-10 1:0.53747656 2:-5.9125 
-10 1:0.49851172 2:-4.012375 
-10 1:0.34680664 2:-2.6586875 
-10 1:0.32651172 2:-2.089 
-10 1:0.23910742 2:-3.884375 
-10 1:0.22402539 2:-2.560375 
-10 1:0.19187109 2:-2.8835625 
-10 1:0.25475977 2:-3.0795 
-10 1:0.34861719 2:-3.627625 
-10 1:0.26051563 2:-3.0916875 
-10 1:0.26091406 2:-2.994125 
-10 1:0.18579297 2:-1.535625 
-10 1:0.27365625 2:-5.3413125 
-10 1:0.4163418 2:-3.113875 
-10 1:0.25458203 2:-3.885375 
-10 1:0.17887109 2:-3.1995625 
-10 1:0.16845703 2:-3.3035 
-10 1:0.1959375 2:-2.11625 
-10 1:0.23158594 2:-3.2494375 
-10 1:0.11993555 2:-1.763125 
-10 1:0.19563672 2:-3.308 
-10 1:0.34460352 2:-4.310625 
-10 1:0.27666992 2:-2.86875 
-10 1:0.18776562 2:-4.5545625 
-10 1:0.22798828 2:-2.3349375 
-10 1:0.22554688 2:-3.4891875 
-10 1:0.20121484 2:-2.59925 
-10 1:0.20608203 2:-3.458125 
-10 1:0.20105078 2:-2.6285625 
-10 1:0.30475 2:-3.782375 
-10 1:0.30993359 2:-4.1353125 
-10 1:0.26016406 2:-4.3838125 
-10 1:0.2137168 2:-3.3163125 
-10 1:0.4074082 2:-3.9875 
-10 1:0.25452539 2:-1.412375 
-10 1:0.27808203 2:-3.8909375 
-10 1:0.24561719 2:-2.2079375 
-10 1:0.28167578 2:-4.304125 
-10 1:0.27562695 2:-4.340375 
-10 1:0.24125 2:-3.3565 
-10 1:0.23192383 2:-3.22575 
-10 1:0.28276953 2:-4.7361875 
-10 1:0.34100781 2:-3.5708125 
-10 1:0.23352539 2:-3.975125 
-10 1:0.34244141 2:-3.0976875 
-10 1:0.13290039 2:-2.3090625 
-10 1:0.36560547 2:-4.0115625 
-10 1:0.25330078 2:-2.620125 
-10 1:0.21359375 2:-2.771125 
-10 1:0.32594336 2:-3.5015 
-10 1:0.33538281 2:-3.271875 
-10 1:0.27471094 2:-5.619875 
-10 1:0.24695898 2:-2.8726875 
-10 1:0.25708008 2:-4.588 
-10 1:0.17051563 2:-3.0683125 
-10 1:0.19397852 2:-3.848375 
-10 1:0.19169922 2:-3.3955 
-10 1:0.27269141 2:-2.4061875 
-10 1:0.24682813 2:-3.020875 
-10 1:0.21110352 2:-3.1179375 
-10 1:0.31226367 2:-3.6335625 
-10 1:0.3218125 2:-4.0596875 
-10 1:0.34258594 2:-4.0031875 
-10 1:0.3360625 2:-5.0768125 
-10 1:0.18131836 2:-2.6103125 
-10 1:0.16165234 2:-2.727625 
-10 1:0.2047832 2:-4.6410625 
-10 1:0.20130273 2:-2.4938125 
-10 1:0.252875 2:-4.820875 
-10 1:0.28405273 2:-2.7609375 
-10 1:0.20524805 2:-3.2940625 
-10 1:0.23007227 2:-3.1764375 
-10 1:0.22306445 2:-2.1304375 
-10 1:0.26711914 2:-3.2993125 
-10 1:0.24388867 2:-4.0931875 
-10 1:0.28783594 2:-4.0601875 
-10 1:0.15414062 2:-2.2021875 
-10 1:0.22633984 2:-2.71225 
-10 1:0.24400781 2:-3.856625 
-10 1:0.23644727 2:-3.2451875 
-10 1:0.29218359 2:-3.6641875 
-10 1:0.28443359 2:-2.0958125 
-10 1:0.23073047 2:-1.6185625 
-10 1:0.36822461 2:-3.207625 
-10 1:0.2292832 2:-3.793375 
-10 1:0.23611133 2:-4.131375 
-10 1:0.43701758 2:-4.488375 
-10 1:0.38616211 2:-3.214625 
-10 1:0.31565234 2:-4.6780625 
-10 1:0.19752148 2:-2.3913125 
-10 1:0.22680664 2:-3.8293125 
-10 1:0.17201758 2:-2.700875 
-10 1:0.30742383 2:-3.268875 
-10 1:0.27598047 2:-3.708 
-10 1:0.29252734 2:-2.577 
-10 1:0.27103711 2:-3.3648125 
-10 1:0.32322656 2:-3.5009375 
-10 1:0.22158984 2:-3.21225 
-10 1:0.23028906 2:-4.82625 
-10 1:0.17536328 2:-3.52325 
-10 1:0.24296484 2:-4.9265625 
-10 1:0.20635547 2:-3.31375 
-10 1:0.20316992 2:-3.5863125 
-10 1:0.34807617 2:-3.3745 
-10 1:0.23117383 2:-1.6263125 
-10 1:0.17340039 2:-2.8970625 
-10 1:0.1824375 2:-2.253375 
-10 1:0.22170898 2:-2.994125 
-10 1:0.2059375 2:-3.43675 
-10 1:0.18333789 2:-2.972125 
-10 1:0.32995703 2:-5.0885625 
-10 1:0.34518164 2:-3.089625 
-10 1:0.21728125 2:-3.6040625 
-10 1:0.24790234 2:-2.0054375 
-10 1:0.24279883 2:-4.3206875 
-10 1:0.16273437 2:-3.362 
-10 1:0.14829883 2:-3.12725 
-10 1:0.28289062 2:-4.6854375 
-10 1:0.29769922 2:-3.3219375 
-10 1:0.26974414 2:-2.4686875 
-10 1:0.41063281 2:-3.0335 
-10 1:0.27291406 2:-4.54875 
-10 1:0.33769336 2:-4.9349375 
-10 1:0.37672852 2:-2.83925 
-10 1:0.27688086 2:-3.00525 
-10 1:0.34779297 2:-3.0171875 
-10 1:0.23342188 2:-3.4863125 
-10 1:0.28263867 2:-4.5860625 
-10 1:0.3217832 2:-2.419625 
-10 1:0.39533594 2:-6.7176875 
-10 1:0.28213672 2:-5.9331875 
-10 1:0.32939453 2:-4.4934375 
-10 1:0.32936133 2:-2.6848125 
-10 1:0.32199414 2:-3.3899375 
-10 1:0.21166602 2:-4.4863125 
-10 1:0.28295508 2:-0.9159375 
-10 1:0.28249219 2:-5.382 
-10 1:0.37358398 2:-1.4289375 
-10 1:0.45644531 2:-5.909 
-10 1:0.28070703 2:-3.386625 
-10 1:0.40866992 2:-6.1975625 
-10 1:0.25119922 2:-4.5901875 
-10 1:0.35639844 2:-5.66275 
-10 1:0.29777344 2:-3.685375 
-10 1:0.21851953 2:-2.33275 
-10 1:0.32717578 2:-3.737625 
-10 1:0.28992578 2:-2.24675 
-10 1:0.35313672 2:-3.7525625 
-10 1:0.24664258 2:-2.0425625 
-10 1:0.38183594 2:-2.5176875 
-10 1:0.36061719 2:-4.7583125 
-10 1:0.24798438 2:-1.645375 
-10 1:0.26118359 2:-3.87125 
-10 1:0.16975977 2:-3.0816875 
-10 1:0.33693945 2:-3.259875 
-10 1:0.25019141 2:-3.5898125 
-10 1:0.29958203 2:-3.055375 
-10 1:0.23005273 2:-3.1355625 
-10 1:0.26474414 2:-4.135375 
-10 1:0.39456641 2:-5.40375 
-10 1:0.33640234 2:-3.262875 
-10 1:0.31878516 2:-2.9740625 
-10 1:0.19802344 2:-3.217 
-10 1:0.18999219 2:-2.8030625 
-10 1:0.48124219 2:-4.2619375 
-10 1:0.39850391 2:-5.1421875 
-10 1:0.29498828 2:-3.6255 
-10 1:0.22382227 2:-3.1024375 
-10 1:0.63630273 2:-3.811125 
-10 1:0.39998242 2:-5.83025 
-10 1:0.30944727 2:-4.920875 
-10 1:0.38100195 2:-4.0913125 
-10 1:0.19657227 2:-2.5599375 
-10 1:0.28523633 2:-5.0523125 
-10 1:0.30372656 2:-3.7325 
-10 1:0.34957617 2:-4.8681875 
-10 1:0.22933008 2:-1.4585 
-10 1:0.20953125 2:-2.31975 
-10 1:0.33252148 2:-2.671125 
-10 1:0.33732617 2:-2.0031875 
-10 1:0.24621484 2:-2.1268125 
-10 1:0.26848047 2:-2.389375 
-10 1:0.20867188 2:-2.972625 
-10 1:0.26129297 2:-3.4439375 
-10 1:0.36631055 2:-4.4484375 
-10 1:0.21107031 2:-2.5110625 
-10 1:0.24078906 2:-3.714875 
-10 1:0.36097656 2:-4.47375 
-10 1:0.22273828 2:-3.67025 
-10 1:0.21485938 2:-2.81125 
-10 1:0.15041211 2:-2.840125 
-10 1:0.26586328 2:-1.8378125 
-10 1:0.16663672 2:-0.9226875 
-10 1:0.33104102 2:-2.396 
-10 1:0.24013281 2:-3.9851875 
-10 1:0.29282812 2:-3.0000625 
-10 1:0.21201367 2:-2.6100625 
-10 1:0.25363281 2:-2.1921875 
-10 1:0.31439063 2:-1.372 
-10 1:0.32114258 2:-3.879125 
-10 1:0.34213672 2:-2.21525 
-10 1:0.31833984 2:-3.9101875 
-10 1:0.18915625 2:-2.730375 
-10 1:0.2424082 2:-4.52975 
-10 1:0.12989258 2:-2.002875 
-10 1:0.16420898 2:-2.2751875 
-10 1:0.35279102 2:-1.1444375 
-10 1:0.37254492 2:-3.54475 
-10 1:0.32970117 2:-4.3779375 
-10 1:0.32062891 2:-3.608625 
-10 1:0.23587695 2:-3.104625 
-10 1:0.20524414 2:-2.742625 
-10 1:0.34828516 2:-4.4009375 
-10 1:0.4075293 2:-3.602375 
-10 1:0.27020117 2:-4.633875 
-10 1:0.34442578 2:-4.14075 
-10 1:0.28167188 2:-1.3150625 
-10 1:0.33244727 2:-5.4505 
-10 1:0.25854297 2:-1.9469375 
-10 1:0.28335937 2:-5.64725 
-10 1:0.21907617 2:-2.309 
-10 1:0.20453516 2:-2.7575 
-10 1:0.24589844 2:-2.381375 
-10 1:0.38547461 2:-3.8594375 
-10 1:0.18537305 2:-2.150125 
-10 1:0.2485918 2:-3.072625 
-10 1:0.2670332 2:-4.2991875 
-10 1:0.32821484 2:-3.377375 
-10 1:0.27573242 2:-2.024875 
-10 1:0.27304883 2:-2.7235625 
-10 1:0.35416211 2:-5.13225 
-10 1:0.2853125 2:-2.308875 
-10 1:0.35437891 2:-3.67175 
-10 1:0.48145117 2:-3.388 
-10 1:0.27879883 2:-4.7460625 
-10 1:0.19296289 2:-2.1853125 
-10 1:0.27455664 2:-1.5620625 
-10 1:0.24530078 2:-2.4893125 
-10 1:0.31470898 2:-5.022375 
-10 1:0.37425977 2:-6.9378125 
-10 1:0.18386523 2:-2.3635 
-10 1:0.22955859 2:-3.2878125 
-10 1:0.20196094 2:-2.5460625 
-10 1:0.19316602 2:-1.945125 
-10 1:0.24685352 2:-3.0428125 
-10 1:0.24696484 2:-2.446625 
-10 1:0.26777344 2:-3.47225 
-10 1:0.25980469 2:-4.1055 
-10 1:0.17983789 2:-2.21075 
-10 1:0.44936328 2:-4.8013125 
-10 1:0.41378516 2:-2.7640625 
-10 1:0.3052793 2:-3.3136875 
-10 1:0.20828906 2:-3.446375 
-10 1:0.16669336 2:-3.11175 
-10 1:0.24243945 2:-2.4279375 
-10 1:0.55966797 2:-2.449125 
-10 1:0.27969727 2:-5.0708125 
-10 1:0.34248828 2:-3.007375 
-10 1:0.26470703 2:-3.743375 
-10 1:0.2560957 2:-3.5296875 
-10 1:0.21010352 2:-2.54275 
-10 1:0.33385547 2:-3.1575 
-10 1:0.22311914 2:-3.4271875 
-10 1:0.40074023 2:-6.8451875 
-10 1:0.16269141 2:-2.1070625 
-10 1:0.33954297 2:-2.632375 
-10 1:0.25723242 2:-3.903625 
-10 1:0.41551562 2:-4.2259375 
-10 1:0.2454043 2:-2.608125 
-10 1:0.16996094 2:-2.7726875 
-10 1:0.27501172 2:-4.4645625 
-10 1:0.33283984 2:-3.3153125 
-10 1:0.30686133 2:-6.5006875 
-10 1:0.26757422 2:-3.5734375 
-10 1:0.27630664 2:-2.03475 
-10 1:0.30235937 2:-5.8390625 
-10 1:0.24019922 2:-3.4763125 
-10 1:0.4194082 2:-4.9998125 
-10 1:0.28808594 2:-2.365375 
-10 1:0.3371582 2:-3.8149375 
-10 1:0.29001562 2:-3.314 
-10 1:0.29567383 2:-3.2821875 
-10 1:0.2689082 2:-3.412375 
-10 1:0.24613477 2:-3.1555 
-10 1:0.14553125 2:-1.92825 
-10 1:0.25189063 2:-3.2545 
