svm_type c_svc
kernel_type polynomial
degree 2
gamma 0.5
coef0 0
nr_class 2
total_sv 1102
rho -1.03315
label 0 1
nr_sv 560 542
SV
1000 1:0.44413086 2:-5.4968125 
1000 1:0.12304297 2:-0.707875 
1000 1:0.33150781 2:-1.9401875 
1000 1:0.11537109 2:-0.386 
1000 1:0.10228125 2:-0.3788125 
40.63733063203083 1:0.12889648 2:-0.521625 
1000 1:0.40496289 2:-6.0150625 
1000 1:0.34718164 2:-5.0629375 
1000 1:0.093220703 2:-0.5623125 
1000 1:0.1327793 2:-0.6373125 
1000 1:0.51370117 2:-4.112625 
1000 1:0.13911328 2:-0.42825 
1000 1:0.13164844 2:-0.6746875 
957.5138822314548 1:0.14570117 2:-0.6723125 
1000 1:0.13310156 2:-0.8990625 
1000 1:0.10353711 2:-0.32425 
610.7231497635192 1:0.44555664 2:-2.8524375 
1000 1:0.14062305 2:-0.4494375 
1000 1:0.36505469 2:-6.3261875 
1000 1:0.29344141 2:-5.347125 
1000 1:0.46189453 2:-4.7460625 
1000 1:0.33945508 2:-5.1548125 
1000 1:0.090535156 2:-0.549875 
1000 1:0.35733008 2:-5.43475 
1000 1:0.13248242 2:-0.472 
1000 1:0.10238867 2:-0.5438125 
1000 1:0.11116211 2:-0.5193125 
1000 1:0.42903711 2:-5.4879375 
1000 1:0.10040625 2:-0.363125 
1000 1:0.35856055 2:-4.7313125 
1000 1:0.34364453 2:-4.4915 
1000 1:0.13340625 2:-0.3335625 
1000 1:0.11766797 2:-0.6435 
1000 1:0.11714258 2:-0.2729375 
1000 1:0.13987891 2:-0.900375 
1000 1:0.098416016 2:-0.5598125 
1000 1:0.11626172 2:-0.3598125 
1000 1:0.35225586 2:-5.7073125 
1000 1:0.10675781 2:-0.5901875 
1000 1:0.10128711 2:-0.4778125 
1000 1:0.12871094 2:-0.45625 
1000 1:0.15054688 2:-0.7015 
1000 1:0.32707617 2:-5.3795 
1000 1:0.35706836 2:-5.6120625 
1000 1:0.41410156 2:-6.125625 
1000 1:0.42115039 2:-5.187125 
1000 1:0.47751758 2:-4.1559375 
1000 1:0.50326758 2:-2.3361875 
1000 1:0.40051758 2:-6.0948125 
1000 1:0.4319082 2:-4.9931875 
1000 1:0.46158789 2:-6.3245 
1000 1:0.37860742 2:-5.246875 
1000 1:0.37238281 2:-5.6673125 
1000 1:0.13105469 2:-0.5008125 
1000 1:0.45618164 2:-6.5829375 
1000 1:0.4695332 2:-3.23875 
1000 1:0.41484961 2:-3.875875 
1000 1:0.52801953 2:-5.481 
1000 1:0.097367187 2:-0.3933125 
1000 1:0.11523828 2:-0.337875 
1000 1:0.45111328 2:-4.638 
1000 1:0.11413086 2:-0.477125 
1000 1:0.4534043 2:-3.5765625 
1000 1:0.13545703 2:-0.464375 
1000 1:0.10926758 2:-0.602625 
1000 1:0.459 2:-5.2013125 
1000 1:0.3195957 2:-4.8738125 
1000 1:0.14485938 2:-0.651875 
1000 1:0.42146484 2:-5.1829375 
1000 1:0.084984375 2:-0.5738125 
1000 1:0.11067187 2:-0.37425 
1000 1:0.40318555 2:-5.302875 
372.0454558355027 1:0.22533789 2:-4.357625 
1000 1:0.13186523 2:-0.550625 
1000 1:0.13156836 2:-0.504875 
1000 1:0.098625 2:-0.66875 
1000 1:0.37054687 2:-5.4014375 
1000 1:0.40097656 2:-4.777375 
1000 1:0.40899219 2:-5.5123125 
1000 1:0.43245703 2:-6.32425 
1000 1:0.071806641 2:-0.5965625 
1000 1:0.10868945 2:-0.1948125 
1000 1:0.1243418 2:-0.2868125 
1000 1:0.3255625 2:-6.09575 
1000 1:0.13354297 2:-0.4223125 
1000 1:0.37187109 2:-5.5975 
1000 1:0.3599668 2:-4.7544375 
1000 1:0.45795313 2:-3.3419375 
1000 1:0.098914062 2:-0.388625 
1000 1:0.42236523 2:-3.9070625 
1000 1:0.11047852 2:-0.599625 
1000 1:0.11149023 2:-0.2650625 
794.5466454788483 1:0.1419707 2:-0.6945625 
1000 1:0.10350977 2:-0.1501875 
1000 1:0.085785156 2:-0.5461875 
1000 1:0.094929688 2:-0.6895 
1000 1:0.11340039 2:-0.3565625 
1000 1:0.1297207 2:-0.468625 
1000 1:0.093216797 2:-0.45825 
1000 1:0.12647656 2:-0.446 
151.2986048331181 1:0.11014062 2:-0.635375 
1000 1:0.30117969 2:-5.2889375 
1000 1:0.41219531 2:-7.08375 
1000 1:0.41662305 2:-5.1686875 
1000 1:0.091390625 2:-0.3915625 
581.4164278890461 1:0.46001953 2:-3.562375 
1000 1:0.12116602 2:-0.2950625 
1000 1:0.10192383 2:-0.33725 
1000 1:0.10512695 2:-0.3761875 
1000 1:0.11716797 2:-0.493375 
1000 1:0.092326172 2:-0.365625 
1000 1:0.39625195 2:-5.7065625 
1000 1:0.47209961 2:-4.102375 
1000 1:0.0925 2:-0.405875 
20.51959987811512 1:0.14753516 2:-0.62325 
1000 1:0.13383789 2:-0.706375 
1000 1:0.10614258 2:-0.2461875 
1000 1:0.12066406 2:-0.7008125 
1000 1:0.095267578 2:-0.5049375 
1000 1:0.39258008 2:-5.3465 
1000 1:0.12764062 2:-0.390375 
1000 1:0.52552539 2:-3.46175 
1000 1:0.48716016 2:-4.86025 
1000 1:0.11573242 2:-0.4068125 
1000 1:0.50982422 2:-2.602875 
1000 1:0.10803516 2:-0.1565625 
105.5924268069821 1:0.40448242 2:-3.771 
1000 1:0.40561133 2:-5.3205 
1000 1:0.11921875 2:-0.508875 
1000 1:0.12054883 2:-0.5316875 
1000 1:0.41668164 2:-5.924875 
1000 1:0.12649023 2:-0.3653125 
1000 1:0.34758984 2:-4.6420625 
1000 1:0.10305469 2:-0.2403125 
1000 1:0.52707617 2:-4.68575 
1000 1:0.096822266 2:-0.44275 
1000 1:0.099722656 2:-0.31875 
1000 1:0.13455859 2:-0.41975 
1000 1:0.090865234 2:-0.7323125 
1000 1:0.096380859 2:-0.32325 
1000 1:0.11195312 2:-0.3650625 
1000 1:0.10279687 2:-0.2023125 
1000 1:0.38126953 2:-4.8755625 
1000 1:0.10585156 2:-0.4585 
886.6118322772893 1:0.073541016 2:-0.704625 
1000 1:0.12032031 2:-0.275875 
1000 1:0.12021484 2:-0.266625 
1000 1:0.12619336 2:-0.4399375 
1000 1:0.45636133 2:-5.3300625 
1000 1:0.48122461 2:-4.6288125 
1000 1:0.10086328 2:-0.3555 
1000 1:0.089394531 2:-0.407625 
1000 1:0.077960938 2:-0.51175 
1000 1:0.10139063 2:-0.265875 
1000 1:0.10471094 2:-0.235125 
1000 1:0.4121875 2:-4.211 
1000 1:0.4871875 2:-3.887125 
1000 1:0.47977344 2:-3.13125 
1000 1:0.13176172 2:-0.646875 
1000 1:0.12444727 2:-0.638875 
1000 1:0.11802539 2:-0.5254375 
1000 1:0.38022852 2:-5.2323125 
1000 1:0.46235742 2:-5.634125 
959.0148269232122 1:0.21296484 2:-1.6684375 
34.47759313795469 1:0.089236328 2:-0.6251875 
1000 1:0.3807207 2:-4.4460625 
1000 1:0.091064453 2:-0.33625 
1000 1:0.36457422 2:-5.483875 
1000 1:0.45269336 2:-4.4751875 
1000 1:0.11264648 2:-0.2361875 
1000 1:0.15667773 2:-0.576625 
1000 1:0.13757031 2:-0.627 
737.5103238863064 1:0.13386328 2:-0.4603125 
1000 1:0.13016797 2:-0.4386875 
1000 1:0.38185937 2:-5.7153125 
1000 1:0.12403711 2:-0.45925 
1000 1:0.091367187 2:-0.4304375 
1000 1:0.11755859 2:-0.546625 
1000 1:0.33994922 2:-5.904125 
1000 1:0.35743555 2:-5.2845 
1000 1:0.44303906 2:-2.2975625 
1000 1:0.36860742 2:-5.2060625 
1000 1:0.10736719 2:-0.22725 
1000 1:0.12208984 2:-0.3139375 
1000 1:0.093611328 2:-0.458625 
1000 1:0.40891211 2:-5.9803125 
1000 1:0.14385742 2:-0.716375 
1000 1:0.36463672 2:-5.2138125 
1000 1:0.31567578 2:-5.128625 
1000 1:0.11691992 2:-0.5206875 
127.2906976025512 1:0.14119141 2:-0.4194375 
1000 1:0.094763672 2:-0.387625 
1000 1:0.09196875 2:-0.3141875 
1000 1:0.39798438 2:-6.242 
1000 1:0.13530078 2:-0.444875 
1000 1:0.32144727 2:-5.7114375 
1000 1:0.11716797 2:-0.513625 
1000 1:0.13424219 2:-0.5000625 
392.3617510599448 1:0.44216406 2:-4.5275 
1000 1:0.10148242 2:-0.4575 
1000 1:0.091589844 2:-0.5614375 
1000 1:0.12712305 2:-0.6914375 
1000 1:0.13001367 2:-0.53625 
1000 1:0.42236328 2:-6.1394375 
1000 1:0.083164063 2:-0.5235 
1000 1:0.16033008 2:-0.694875 
1000 1:0.10375391 2:-0.212 
1000 1:0.38089258 2:-4.9790625 
1000 1:0.3780293 2:-5.445875 
1000 1:0.29078711 2:-2.114 
1000 1:0.36425586 2:-4.5600625 
1000 1:0.29023828 2:-4.9870625 
1000 1:0.36369922 2:-5.36625 
1000 1:0.49133984 2:-4.1626875 
1000 1:0.40123242 2:-5.4555625 
1000 1:0.31833008 2:-2.2700625 
1000 1:0.11748828 2:-0.4265 
1000 1:0.11569922 2:-0.68975 
1000 1:0.38610742 2:-6.1371875 
1000 1:0.13530273 2:-0.4311875 
1000 1:0.098894531 2:-0.3690625 
1000 1:0.10410156 2:-0.1661875 
1000 1:0.35900977 2:-5.2805 
1000 1:0.49560547 2:-4.876 
1000 1:0.46247266 2:-6.5006875 
1000 1:0.13804688 2:-0.4255 
1000 1:0.11643945 2:-0.48 
1000 1:0.36661328 2:-6.022 
1000 1:0.36959961 2:-5.9623125 
1000 1:0.13112695 2:-0.6868125 
1000 1:0.4509043 2:-6.5925625 
1000 1:0.38269531 2:-4.839625 
1000 1:0.41826953 2:-5.916375 
1000 1:0.41155273 2:-6.8126875 
1000 1:0.090236328 2:-0.5974375 
1000 1:0.32937891 2:-1.713375 
1000 1:0.11962891 2:-0.4805625 
1000 1:0.42748242 2:-5.4629375 
1000 1:0.41975 2:-5.11875 
1000 1:0.094730469 2:-0.640625 
1000 1:0.13998437 2:-0.4235 
1000 1:0.1048457 2:-0.404 
1000 1:0.10165625 2:-0.324625 
1000 1:0.1357207 2:-0.4694375 
1000 1:0.081716797 2:-0.5680625 
1000 1:0.089660156 2:-0.3435 
1000 1:0.40830859 2:-5.9036875 
1000 1:0.32594531 2:-4.93 
1000 1:0.11088867 2:-0.5460625 
1000 1:0.44185156 2:-3.6235 
1000 1:0.12200781 2:-0.4491875 
1000 1:0.11741211 2:-0.589875 
1000 1:0.11374805 2:-0.61875 
1000 1:0.38156445 2:-5.0653125 
1000 1:0.33039648 2:-5.4395 
1000 1:0.35174805 2:-4.259375 
1000 1:0.39990039 2:-5.5281875 
1000 1:0.46808789 2:-4.909125 
1000 1:0.11741602 2:-0.7308125 
1000 1:0.32179492 2:-5.032375 
915.4135554579876 1:0.13519727 2:-0.3946875 
1000 1:0.13360547 2:-0.4934375 
1000 1:0.37999023 2:-5.022125 
1000 1:0.082171875 2:-0.5553125 
1000 1:0.099912109 2:-0.2281875 
1000 1:0.09196875 2:-0.3166875 
1000 1:0.1179082 2:-0.281875 
1000 1:0.10485156 2:-0.66725 
1000 1:0.1204668 2:-0.5898125 
1000 1:0.13850195 2:-0.655 
1000 1:0.10866797 2:-0.5028125 
1000 1:0.098341797 2:-0.499875 
1000 1:0.10531641 2:-0.38825 
1000 1:0.11030664 2:-0.315125 
1000 1:0.45997461 2:-6.2921875 
1000 1:0.32398437 2:-5.519 
1000 1:0.10131836 2:-0.49875 
1000 1:0.31517969 2:-4.672375 
1000 1:0.10248828 2:-0.332125 
1000 1:0.35369141 2:-5.0035 
1000 1:0.094980469 2:-0.3855 
1000 1:0.35058203 2:-5.5184375 
1000 1:0.48227734 2:-4.33475 
1000 1:0.48474609 2:-6.674125 
1000 1:0.42489258 2:-5.367 
1000 1:0.094044922 2:-0.4548125 
1000 1:0.089603516 2:-0.2883125 
1000 1:0.12512305 2:-0.399 
1000 1:0.12841406 2:-0.606875 
1000 1:0.26445117 2:-4.8659375 
1000 1:0.42405469 2:-2.2151875 
1000 1:0.45030664 2:-4.5109375 
671.432024528222 1:0.10682617 2:-0.819125 
1000 1:0.12527344 2:-0.50725 
1000 1:0.12323242 2:-0.380125 
1000 1:0.4214707 2:-4.5469375 
982.4798861415431 1:0.13646875 2:-0.7035 
1000 1:0.12008008 2:-0.25775 
1000 1:0.10151172 2:-0.2658125 
1000 1:0.087685547 2:-0.4531875 
1000 1:0.35580078 2:-6.299125 
1000 1:0.37291602 2:-5.604 
1000 1:0.44792773 2:-5.903 
1000 1:0.090515625 2:-0.3639375 
101.6209509166473 1:0.1407793 2:-0.6819375 
1000 1:0.30444727 2:-5.1534375 
1000 1:0.39944727 2:-5.0774375 
1000 1:0.39452734 2:-5.0855 
1000 1:0.51403125 2:-6.2425 
1000 1:0.095197266 2:-0.3486875 
1000 1:0.094089844 2:-0.35575 
1000 1:0.38236328 2:-5.1270625 
1000 1:0.36563477 2:-3.1015 
1000 1:0.35045508 2:-5.5129375 
1000 1:0.10687305 2:-0.574 
1000 1:0.12254492 2:-0.5324375 
1000 1:0.11367188 2:-0.2075625 
1000 1:0.36211133 2:-5.380375 
1000 1:0.38785547 2:-6.0408125 
1000 1:0.12369336 2:-0.511125 
1000 1:0.35314844 2:-5.3280625 
1000 1:0.35810352 2:-5.0428125 
1000 1:0.41433789 2:-4.3966875 
1000 1:0.0866875 2:-0.53075 
1000 1:0.11025195 2:-0.245875 
1000 1:0.43064648 2:-5.9849375 
1000 1:0.40867188 2:-3.7954375 
1000 1:0.39866602 2:-5.4680625 
1000 1:0.12306641 2:-0.3733125 
1000 1:0.54441992 2:-4.3748125 
1000 1:0.45663086 2:-6.1100625 
1000 1:0.35650586 2:-5.135 
1000 1:0.35855859 2:-5.03625 
1000 1:0.10266602 2:-0.3030625 
1000 1:0.4066875 2:-5.1200625 
1000 1:0.12006641 2:-0.2590625 
1000 1:0.10920508 2:-0.5159375 
1000 1:0.13242773 2:-0.5873125 
1000 1:0.10000977 2:-0.54025 
1000 1:0.14422852 2:-0.453125 
1000 1:0.099580078 2:-0.4653125 
1000 1:0.38377344 2:-6.2124375 
1000 1:0.094498047 2:-0.5005 
1000 1:0.43593359 2:-4.35875 
1000 1:0.44400781 2:-5.9770625 
1000 1:0.38823047 2:-3.969 
1000 1:0.1101543 2:-0.4315625 
1000 1:0.10205469 2:-0.46125 
1000 1:0.088183594 2:-0.51125 
1000 1:0.09271875 2:-0.50975 
13.36298116791886 1:0.13844922 2:-0.5644375 
1000 1:0.12203125 2:-0.36325 
1000 1:0.36935156 2:-4.7301875 
1000 1:0.10953906 2:-0.2093125 
1000 1:0.4515 2:-5.3444375 
1000 1:0.1299668 2:-0.6614375 
1000 1:0.40020312 2:-5.3531875 
1000 1:0.43492188 2:-5.8491875 
1000 1:0.11247852 2:-0.70775 
1000 1:0.11146289 2:-0.525625 
1000 1:0.11013086 2:-0.2614375 
1000 1:0.35208008 2:-4.6825 
1000 1:0.090832031 2:-0.413625 
1000 1:0.092617187 2:-0.48525 
1000 1:0.10375 2:-0.3034375 
1000 1:0.076640625 2:-0.559 
1000 1:0.11448242 2:-0.395875 
1000 1:0.082849609 2:-0.51425 
1000 1:0.097117188 2:-0.2763125 
1000 1:0.088917969 2:-0.41075 
1000 1:0.47303906 2:-4.5331875 
1000 1:0.4128457 2:-5.946 
1000 1:0.41820312 2:-4.4476875 
1000 1:0.3845 2:-6.7055 
1000 1:0.13367773 2:-0.4679375 
1000 1:0.11336719 2:-0.547625 
1000 1:0.34149805 2:-4.603125 
1000 1:0.44727148 2:-5.6630625 
1000 1:0.11569922 2:-0.3685625 
1000 1:0.082671875 2:-0.6861875 
1000 1:0.35803711 2:-4.82725 
1000 1:0.11790625 2:-0.303625 
1000 1:0.12167188 2:-0.3645 
1000 1:0.10613281 2:-0.24175 
1000 1:0.11179687 2:-0.3708125 
1000 1:0.37115234 2:-5.0883125 
1000 1:0.11030664 2:-0.3095625 
1000 1:0.094185547 2:-0.5078125 
1000 1:0.14059961 2:-0.430375 
1000 1:0.13075781 2:-0.4119375 
1000 1:0.434875 2:-4.560125 
1000 1:0.12494922 2:-0.4011875 
1000 1:0.3091875 2:-5.107 
1000 1:0.2940332 2:-3.7155625 
1000 1:0.46249414 2:-4.082 
1000 1:0.42033008 2:-5.502875 
1000 1:0.40345508 2:-5.1710625 
1000 1:0.1204043 2:-0.27 
1000 1:0.11500781 2:-0.2405625 
1000 1:0.12050781 2:-0.4821875 
1000 1:0.10791797 2:-0.749875 
1000 1:0.099896484 2:-0.499875 
1000 1:0.10293945 2:-0.3921875 
1000 1:0.091978516 2:-0.4714375 
1000 1:0.12050391 2:-0.5638125 
1000 1:0.10688477 2:-0.239125 
1000 1:0.098892578 2:-0.6958125 
995.4387465511925 1:0.094371094 2:-0.669875 
1000 1:0.10129297 2:-0.3945 
1000 1:0.12153516 2:-0.538125 
1000 1:0.32304297 2:-5.7953125 
34.30611567269202 1:0.33344922 2:-4.6826875 
1000 1:0.12325977 2:-0.4654375 
1000 1:0.34460547 2:-4.783125 
1000 1:0.13203906 2:-0.3524375 
1000 1:0.10169141 2:-0.2866875 
1000 1:0.10144727 2:-0.3619375 
1000 1:0.12051562 2:-0.6193125 
1000 1:0.11148242 2:-0.46475 
1000 1:0.12692578 2:-0.5176875 
1000 1:0.1220293 2:-0.50725 
1000 1:0.097087891 2:-0.6216875 
1000 1:0.089023438 2:-0.5033125 
1000 1:0.11089844 2:-0.2035625 
1000 1:0.38675977 2:-4.5975 
1000 1:0.43275195 2:-5.0771875 
1000 1:0.39655859 2:-4.51775 
1000 1:0.46754492 2:-5.648125 
1000 1:0.42469531 2:-1.8178125 
1000 1:0.39775781 2:-5.4693125 
1000 1:0.43192969 2:-5.2444375 
1000 1:0.39713867 2:-5.9639375 
1000 1:0.39936523 2:-5.981625 
1000 1:0.11850391 2:-0.650625 
1000 1:0.47109961 2:-4.566125 
1000 1:0.47638086 2:-5.2835625 
1000 1:0.13012695 2:-0.6781875 
1000 1:0.094574219 2:-0.393375 
1000 1:0.38733984 2:-6.4479375 
1000 1:0.10168555 2:-0.2433125 
1000 1:0.10214453 2:-0.3369375 
1000 1:0.096841797 2:-0.3508125 
1000 1:0.37748242 2:-5.4595 
1000 1:0.39028711 2:-4.6720625 
1000 1:0.45595703 2:-5.719625 
1000 1:0.40119336 2:-7.3266875 
1000 1:0.42158008 2:-4.9910625 
1000 1:0.39239062 2:-5.2711875 
1000 1:0.35631055 2:-5.519 
1000 1:0.42124023 2:-5.3928125 
1000 1:0.10604102 2:-0.3180625 
1000 1:0.099923828 2:-0.4315 
1000 1:0.35097461 2:-5.6483125 
1000 1:0.11803906 2:-0.4515625 
1000 1:0.087550781 2:-0.7065 
1000 1:0.35628711 2:-6.539625 
1000 1:0.39371289 2:-5.3565 
1000 1:0.12651562 2:-0.575875 
1000 1:0.40289063 2:-5.0608125 
1000 1:0.43663086 2:-4.5245 
1000 1:0.37595117 2:-6.845625 
1000 1:0.099724609 2:-0.323875 
1000 1:0.36050586 2:-5.13925 
1000 1:0.30285156 2:-5.0973125 
981.4870134130585 1:0.11556836 2:-0.6775625 
1000 1:0.11764258 2:-0.402625 
1000 1:0.095435547 2:-0.3585 
1000 1:0.10081836 2:-0.3579375 
392.7848203803801 1:0.15078711 2:-0.7690625 
1000 1:0.42498437 2:-3.7625625 
144.4651257463232 1:0.10748437 2:-0.9036875 
1000 1:0.36478711 2:-5.8079375 
1000 1:0.42561328 2:-5.0830625 
1000 1:0.40423828 2:-5.0844375 
1000 1:0.1055293 2:-0.610375 
1000 1:0.080568359 2:-0.575125 
1000 1:0.092001953 2:-0.715875 
1000 1:0.1173418 2:-0.5135 
1000 1:0.41069727 2:-6.33175 
1000 1:0.11959766 2:-0.6028125 
1000 1:0.5255957 2:-5.70775 
1000 1:0.39397461 2:-5.0691875 
857.3122569470017 1:0.14048633 2:-0.548125 
1000 1:0.30623242 2:-5.047625 
1000 1:0.21825195 2:-3.4581875 
1000 1:0.1275957 2:-0.4744375 
1000 1:0.114125 2:-0.3439375 
1000 1:0.1231543 2:-0.2958125 
1000 1:0.42770703 2:-5.0911875 
1000 1:0.41218555 2:-5.1688125 
1000 1:0.094205078 2:-0.4821875 
1000 1:0.13792578 2:-0.669875 
1000 1:0.31008008 2:-5.411625 
1000 1:0.099089844 2:-0.5843125 
1000 1:0.47537305 2:-4.7585 
93.39120767782705 1:0.12496484 2:-0.490625 
1000 1:0.12242383 2:-0.682625 
174.8675520662642 1:0.22610742 2:-1.3413125 
1000 1:0.36239258 2:-5.0970625 
1000 1:0.32701953 2:-4.8238125 
1000 1:0.39016797 2:-4.9833125 
1000 1:0.30747852 2:-5.424875 
1000 1:0.11638867 2:-0.3818125 
566.8688153413736 1:0.33358203 2:-3.0415 
1000 1:0.37255273 2:-4.0279375 
1000 1:0.41917187 2:-5.483375 
1000 1:0.068048828 2:-0.315 
1000 1:0.29299805 2:-3.0075 
1000 1:0.37524414 2:-5.9794375 
1000 1:0.093871094 2:-0.28325 
1000 1:0.089751953 2:-0.562625 
1000 1:0.11033203 2:-0.3363125 
1000 1:0.42212695 2:-5.196375 
1000 1:0.11539648 2:-0.379 
1000 1:0.11825195 2:-0.527125 
1000 1:0.41708984 2:-7.1114375 
635.4135568911851 1:0.35033594 2:-2.7564375 
1000 1:0.108125 2:-0.338375 
1000 1:0.46533398 2:-3.3760625 
1000 1:0.13191211 2:-0.392625 
1000 1:0.36276172 2:-4.9273125 
1000 1:0.51585742 2:-6.6545 
1000 1:0.38552344 2:-4.6464375 
1000 1:0.43723828 2:-7.1905 
151.1518866589738 1:0.10581641 2:-0.5499375 
1000 1:0.40685938 2:-5.1049375 
1000 1:0.3703457 2:-6.1079375 
1000 1:0.44803711 2:-4.523 
1000 1:0.40037109 2:-2.33225 
1000 1:0.12449023 2:-0.4356875 
1000 1:0.10514258 2:-0.224 
1000 1:0.40974609 2:-6.5911875 
1000 1:0.12447852 2:-0.4695 
131.6334846177424 1:0.40747852 2:-2.684 
1000 1:0.10458203 2:-0.34025 
1000 1:0.36516211 2:-4.9870625 
1000 1:0.36582813 2:-4.68175 
1000 1:0.41186133 2:-5.304625 
1000 1:0.12068359 2:-0.45025 
1000 1:0.10584961 2:-0.2670625 
1000 1:0.49850195 2:-4.2493125 
1000 1:0.43819336 2:-6.483 
1000 1:0.45968945 2:-5.043375 
1000 1:0.56148633 2:-3.396 
1000 1:0.11901953 2:-0.52775 
1000 1:0.13374023 2:-0.63775 
1000 1:0.10489844 2:-0.33525 
1000 1:0.10010156 2:-0.3700625 
1000 1:0.23616016 2:-5.0321875 
1000 1:0.098832031 2:-0.55675 
1000 1:0.12051562 2:-0.2690625 
1000 1:0.40981836 2:-7.1111875 
1000 1:0.39318359 2:-3.0641875 
385.0094715877828 1:0.16342383 2:-1.017125 
1000 1:0.37423047 2:-5.276625 
1000 1:0.36796094 2:-5.66 
1000 1:0.38016016 2:-4.81675 
1000 1:0.54072852 2:-4.29325 
1000 1:0.44399023 2:-4.749625 
1000 1:0.48939844 2:-4.644625 
-1000 1:0.44066992 2:-4.3504375 
-1000 1:0.27822461 2:-4.0888125 
-1000 1:0.28741406 2:-4.3654375 
-1000 1:0.18921094 2:-3.328375 
-1000 1:0.34156641 2:-4.8388125 
-1000 1:0.28816211 2:-3.75325 
-1000 1:0.42295508 2:-4.58325 
-1000 1:0.35011133 2:-4.5961875 
-1000 1:0.30645703 2:-2.082 
-1000 1:0.33792773 2:-3.1846875 
-1000 1:0.41233789 2:-5.5705 
-1000 1:0.35138672 2:-4.4420625 
-1000 1:0.24904883 2:-4.0290625 
-1000 1:0.26214258 2:-4.100125 
-1000 1:0.27826172 2:-4.4676875 
-1000 1:0.33248828 2:-2.502 
-1000 1:0.36280664 2:-5.8456875 
-1000 1:0.35701172 2:-4.0114375 
-1000 1:0.33430859 2:-3.2810625 
-1000 1:0.29611523 2:-5.2068125 
-1000 1:0.32277539 2:-3.7033125 
-1000 1:0.33418555 2:-2.956375 
-1000 1:0.16690234 2:-2.8409375 
-1000 1:0.33725781 2:-3.869 
-1000 1:0.25451758 2:-1.7416875 
-1000 1:0.30048633 2:-3.50575 
-1000 1:0.24953906 2:-2.5758125 
-1000 1:0.2707207 2:-4.2679375 
-1000 1:0.37868359 2:-4.4215 
-1000 1:0.22776367 2:-2.785125 
-1000 1:0.33098047 2:-2.8483125 
-1000 1:0.39789844 2:-2.9333125 
-1000 1:0.31657031 2:-3.592375 
-1000 1:0.21885156 2:-1.7906875 
-1000 1:0.31800195 2:-2.7066875 
-1000 1:0.19188281 2:-2.0279375 
-1000 1:0.17126758 2:-2.6516875 
-1000 1:0.29497461 2:-2.2556875 
-1000 1:0.28387305 2:-3.2044375 
-1000 1:0.40943945 2:-2.8265625 
-1000 1:0.20573242 2:-2.702 
-1000 1:0.34373047 2:-3.911375 
-1000 1:0.24505859 2:-3.2475 
-1000 1:0.26678516 2:-2.513375 
-1000 1:0.25408203 2:-4.2065 
-1000 1:0.3456543 2:-3.2239375 
-1000 1:0.24648828 2:-3.09025 
-1000 1:0.19146289 2:-3.1794375 
-1000 1:0.32058789 2:-2.162375 
-1000 1:0.343625 2:-3.1510625 
-1000 1:0.30064063 2:-4.62675 
-1000 1:0.25929492 2:-3.3233125 
-1000 1:0.23530273 2:-1.1014375 
-1000 1:0.28984375 2:-4.7261875 
-1000 1:0.25291602 2:-4.2434375 
-1000 1:0.20922266 2:-2.4875625 
-1000 1:0.18249414 2:-3.0206875 
-1000 1:0.2452207 2:-4.069625 
-1000 1:0.47007031 2:-3.4156875 
-1000 1:0.25875391 2:-3.735125 
-1000 1:0.25331055 2:-5.259125 
-1000 1:0.33484375 2:-4.3180625 
-1000 1:0.19809375 2:-3.069 
-1000 1:0.23054297 2:-3.08525 
-1000 1:0.22968555 2:-4.1193125 
-1000 1:0.39870508 2:-6.2614375 
-1000 1:0.33263477 2:-5.3505 
-1000 1:0.25126563 2:-2.5884375 
-1000 1:0.28254102 2:-2.7315 
-1000 1:0.24461719 2:-3.759875 
-1000 1:0.30981836 2:-2.747 
-1000 1:0.25489844 2:-3.386625 
-1000 1:0.28346094 2:-1.1570625 
-1000 1:0.26345898 2:-4.1485 
-1000 1:0.28462109 2:-2.889125 
-1000 1:0.1962832 2:-2.790375 
-1000 1:0.16263086 2:-2.6108125 
-1000 1:0.17793555 2:-1.9318125 
-1000 1:0.28441602 2:-4.591875 
-1000 1:0.29831641 2:-1.8839375 
-1000 1:0.32322461 2:-4.9383125 
-1000 1:0.22491602 2:-2.3835 
-1000 1:0.29147852 2:-2.597125 
-1000 1:0.19753516 2:-3.424375 
-1000 1:0.27897461 2:-2.5580625 
-1000 1:0.43238867 2:-2.8535625 
-1000 1:0.32033984 2:-3.4545625 
-1000 1:0.27245117 2:-3.922625 
-1000 1:0.12591406 2:-1.9669375 
-1000 1:0.23814258 2:-3.4095 
-1000 1:0.3985957 2:-4.82175 
-1000 1:0.24329297 2:-3.091 
-1000 1:0.25313672 2:-2.7315 
-1000 1:0.27132227 2:-3.500875 
-1000 1:0.35445117 2:-2.0418125 
-1000 1:0.31777148 2:-5.3259375 
-1000 1:0.41664844 2:-5.8334375 
-1000 1:0.37456445 2:-3.8265 
-1000 1:0.29933008 2:-3.1620625 
-1000 1:0.17382031 2:-1.9191875 
-1000 1:0.16448242 2:-2.1161875 
-1000 1:0.37798242 2:-5.36075 
-1000 1:0.35523242 2:-5.1198125 
-1000 1:0.2519707 2:-2.6255625 
-1000 1:0.30011328 2:-3.26075 
-1000 1:0.2056543 2:-2.8788125 
-1000 1:0.2994707 2:-3.6604375 
-1000 1:0.28832227 2:-3.2866875 
-1000 1:0.12416602 2:-2.0903125 
-1000 1:0.11805469 2:-2.27 
-1000 1:0.17107227 2:-1.879375 
-1000 1:0.26833398 2:-4.8129375 
-1000 1:0.17469141 2:-2.1999375 
-1000 1:0.18063281 2:-1.7966875 
-1000 1:0.15491016 2:-3.04925 
-1000 1:0.23418945 2:-3.1060625 
-1000 1:0.34679102 2:-4.3859375 
-1000 1:0.18732031 2:-3.1871875 
-1000 1:0.24810742 2:-2.2230625 
-1000 1:0.20545117 2:-3.250625 
-1000 1:0.20155859 2:-2.3331875 
-1000 1:0.34156445 2:-3.5378125 
-1000 1:0.37650977 2:-3.31375 
-1000 1:0.35983789 2:-4.137 
-1000 1:0.18253516 2:-3.388375 
-1000 1:0.31178516 2:-2.6841875 
-1000 1:0.28626953 2:-2.63325 
-1000 1:0.3564082 2:-4.6351875 
-1000 1:0.29650781 2:-3.8868125 
-1000 1:0.31982812 2:-5.0585 
-1000 1:0.30227734 2:-2.2331875 
-1000 1:0.28037109 2:-1.59875 
-1000 1:0.21647656 2:-1.9361875 
-1000 1:0.24942188 2:-1.6803125 
-1000 1:0.25853125 2:-4.44175 
-1000 1:0.21929688 2:-1.9210625 
-1000 1:0.3401875 2:-1.4686875 
-1000 1:0.32116602 2:-1.6766875 
-1000 1:0.23394336 2:-2.904 
-1000 1:0.2692793 2:-4.3863125 
-1000 1:0.28656836 2:-5.2745 
-1000 1:0.34270508 2:-2.6396875 
-1000 1:0.22915234 2:-1.374375 
-1000 1:0.33480664 2:-2.5214375 
-1000 1:0.27562891 2:-3.6761875 
-1000 1:0.28976953 2:-3.163375 
-1000 1:0.34318555 2:-4.044125 
-1000 1:0.26531055 2:-4.804 
-1000 1:0.26812109 2:-3.9265625 
-1000 1:0.241125 2:-3.359 
-1000 1:0.35424609 2:-4.1588125 
-1000 1:0.1582793 2:-2.42875 
-1000 1:0.2905 2:-5.1194375 
-1000 1:0.20248633 2:-1.470125 
-1000 1:0.21135742 2:-2.489 
-1000 1:0.31603125 2:-3.776875 
-1000 1:0.23958398 2:-2.7159375 
-1000 1:0.34157617 2:-4.2260625 
-1000 1:0.36369141 2:-2.1930625 
-1000 1:0.32398242 2:-3.5039375 
-1000 1:0.20150586 2:-2.223875 
-1000 1:0.21023242 2:-3.081125 
-1000 1:0.38706445 2:-4.7500625 
-1000 1:0.25750977 2:-2.2086875 
-1000 1:0.3180957 2:-4.3368125 
-1000 1:0.31791016 2:-3.7708125 
-1000 1:0.48707422 2:-3.45225 
-1000 1:0.3085 2:-4.161875 
-1000 1:0.26771875 2:-2.972875 
-1000 1:0.22813086 2:-2.677875 
-1000 1:0.40599219 2:-2.685625 
-1000 1:0.27122852 2:-3.7273125 
-1000 1:0.20182617 2:-3.198125 
-1000 1:0.24357227 2:-2.9170625 
-1000 1:0.42968359 2:-4.415625 
-1000 1:0.27746094 2:-4.6858125 
-1000 1:0.16998047 2:-2.7985625 
-1000 1:0.11469336 2:-1.1860625 
-1000 1:0.34663867 2:-2.43325 
-1000 1:0.30842383 2:-5.3401875 
-1000 1:0.30995703 2:-2.99925 
-1000 1:0.36791797 2:-1.7798125 
-1000 1:0.38985742 2:-2.2789375 
-1000 1:0.32626953 2:-3.5511875 
-1000 1:0.2986543 2:-4.975125 
-1000 1:0.1933457 2:-2.478125 
-1000 1:0.19559961 2:-2.8805625 
-1000 1:0.22288086 2:-0.879125 
-1000 1:0.22076758 2:-3.50925 
-1000 1:0.44749609 2:-3.6575625 
-1000 1:0.18795117 2:-2.6435 
-1000 1:0.21619336 2:-3.8670625 
-1000 1:0.16503906 2:-2.1281875 
-1000 1:0.27644531 2:-2.738125 
-1000 1:0.21367188 2:-3.5629375 
-1000 1:0.22887305 2:-3.4574375 
-1000 1:0.23996094 2:-4.4979375 
-1000 1:0.34984961 2:-4.391 
-1000 1:0.29217773 2:-3.0855625 
-1000 1:0.45689844 2:-4.434625 
-1000 1:0.43435742 2:-3.4658125 
-1000 1:0.18168164 2:-1.866875 
-1000 1:0.1979668 2:-3.116375 
-1000 1:0.20913672 2:-3.9043125 
-1000 1:0.20894531 2:-4.481875 
-1000 1:0.22959961 2:-2.5274375 
-1000 1:0.24679883 2:-3.1264375 
-1000 1:0.27471484 2:-2.5206875 
-1000 1:0.32786133 2:-4.434 
-1000 1:0.30963086 2:-2.8083125 
-1000 1:0.38985547 2:-3.799625 
-1000 1:0.21798437 2:-2.28275 
-1000 1:0.26881055 2:-3.0364375 
-1000 1:0.20781641 2:-1.73425 
-1000 1:0.32364258 2:-0.9266875 
-1000 1:0.18230469 2:-3.516875 
-1000 1:0.20025195 2:-2.91475 
-1000 1:0.19434375 2:-2.10675 
-1000 1:0.17934961 2:-4.0168125 
-1000 1:0.23202734 2:-1.8263125 
-1000 1:0.29225195 2:-2.52325 
-1000 1:0.19449023 2:-2.5605 
-1000 1:0.22368359 2:-2.012125 
-1000 1:0.20332227 2:-4.2685625 
-1000 1:0.22722266 2:-2.2946875 
-1000 1:0.26252344 2:-3.743625 
-1000 1:0.17598047 2:-3.4860625 
-1000 1:0.29560156 2:-2.88125 
-1000 1:0.33454297 2:-4.7880625 
-1000 1:0.33392969 2:-4.0231875 
-1000 1:0.30508789 2:-5.8201875 
-1000 1:0.26403125 2:-4.804125 
-1000 1:0.19893359 2:-3.0593125 
-1000 1:0.25470508 2:-0.922875 
-1000 1:0.42402148 2:-4.7025625 
-1000 1:0.38944922 2:-2.8925625 
-1000 1:0.26929297 2:-2.8614375 
-1000 1:0.27592773 2:-3.5386875 
-1000 1:0.26537109 2:-3.0890625 
-1000 1:0.38280273 2:-4.365125 
-1000 1:0.23808984 2:-4.31375 
-1000 1:0.22843164 2:-2.9856875 
-1000 1:0.33358984 2:-2.0735 
-1000 1:0.47258203 2:-5.1478125 
-1000 1:0.27886328 2:-2.8150625 
-1000 1:0.33678711 2:-3.9640625 
-1000 1:0.24440234 2:-2.9349375 
-1000 1:0.29697656 2:-3.7760625 
-1000 1:0.25325586 2:-2.34125 
-1000 1:0.23811523 2:-3.25 
-1000 1:0.25968164 2:-4.701 
-1000 1:0.25855664 2:-4.6235625 
-1000 1:0.19732812 2:-3.4299375 
-1000 1:0.39165625 2:-3.201875 
-1000 1:0.23148828 2:-3.603875 
-1000 1:0.38961328 2:-2.5674375 
-1000 1:0.53747656 2:-5.9125 
-1000 1:0.49851172 2:-4.012375 
-1000 1:0.34680664 2:-2.6586875 
-1000 1:0.32651172 2:-2.089 
-1000 1:0.23910742 2:-3.884375 
-1000 1:0.22402539 2:-2.560375 
-1000 1:0.19187109 2:-2.8835625 
-1000 1:0.25475977 2:-3.0795 
-1000 1:0.34861719 2:-3.627625 
-1000 1:0.26051563 2:-3.0916875 
-1000 1:0.26091406 2:-2.994125 
-1000 1:0.18579297 2:-1.535625 
-1000 1:0.27365625 2:-5.3413125 
-1000 1:0.4163418 2:-3.113875 
-1000 1:0.25458203 2:-3.885375 
-1000 1:0.17887109 2:-3.1995625 
-1000 1:0.16845703 2:-3.3035 
-1000 1:0.1959375 2:-2.11625 
-1000 1:0.23158594 2:-3.2494375 
-1000 1:0.11993555 2:-1.763125 
-1000 1:0.19563672 2:-3.308 
-1000 1:0.34460352 2:-4.310625 
-1000 1:0.27666992 2:-2.86875 
-1000 1:0.18776562 2:-4.5545625 
-1000 1:0.22798828 2:-2.3349375 
-1000 1:0.22554688 2:-3.4891875 
-1000 1:0.20121484 2:-2.59925 
-1000 1:0.20608203 2:-3.458125 
-1000 1:0.20105078 2:-2.6285625 
-1000 1:0.30475 2:-3.782375 
-1000 1:0.30993359 2:-4.1353125 
-1000 1:0.26016406 2:-4.3838125 
-1000 1:0.2137168 2:-3.3163125 
-1000 1:0.4074082 2:-3.9875 
-1000 1:0.25452539 2:-1.412375 
-1000 1:0.27808203 2:-3.8909375 
-1000 1:0.24561719 2:-2.2079375 
-1000 1:0.28167578 2:-4.304125 
-1000 1:0.27562695 2:-4.340375 
-1000 1:0.24125 2:-3.3565 
-1000 1:0.23192383 2:-3.22575 
-1000 1:0.28276953 2:-4.7361875 
-1000 1:0.34100781 2:-3.5708125 
-1000 1:0.23352539 2:-3.975125 
-1000 1:0.34244141 2:-3.0976875 
-1000 1:0.13290039 2:-2.3090625 
-1000 1:0.36560547 2:-4.0115625 
-1000 1:0.25330078 2:-2.620125 
-1000 1:0.21359375 2:-2.771125 
-1000 1:0.32594336 2:-3.5015 
-1000 1:0.33538281 2:-3.271875 
-1000 1:0.27471094 2:-5.619875 
-1000 1:0.24695898 2:-2.8726875 
-1000 1:0.25708008 2:-4.588 
-1000 1:0.17051563 2:-3.0683125 
-1000 1:0.19397852 2:-3.848375 
-1000 1:0.19169922 2:-3.3955 
-1000 1:0.27269141 2:-2.4061875 
-1000 1:0.24682813 2:-3.020875 
-1000 1:0.21110352 2:-3.1179375 
-1000 1:0.31226367 2:-3.6335625 
-1000 1:0.3218125 2:-4.0596875 
-1000 1:0.34258594 2:-4.0031875 
-1000 1:0.3360625 2:-5.0768125 
-1000 1:0.18131836 2:-2.6103125 
-1000 1:0.16165234 2:-2.727625 
-1000 1:0.2047832 2:-4.6410625 
-1000 1:0.20130273 2:-2.4938125 
-1000 1:0.252875 2:-4.820875 
-1000 1:0.28405273 2:-2.7609375 
-1000 1:0.20524805 2:-3.2940625 
-1000 1:0.23007227 2:-3.1764375 
-1000 1:0.22306445 2:-2.1304375 
-1000 1:0.26711914 2:-3.2993125 
-1000 1:0.24388867 2:-4.0931875 
-1000 1:0.28783594 2:-4.0601875 
-1000 1:0.15414062 2:-2.2021875 
-1000 1:0.22633984 2:-2.71225 
-1000 1:0.24400781 2:-3.856625 
-1000 1:0.23644727 2:-3.2451875 
-1000 1:0.29218359 2:-3.6641875 
-1000 1:0.28443359 2:-2.0958125 
-1000 1:0.23073047 2:-1.6185625 
-1000 1:0.36822461 2:-3.207625 
-1000 1:0.2292832 2:-3.793375 
-1000 1:0.23611133 2:-4.131375 
-1000 1:0.43701758 2:-4.488375 
-1000 1:0.38616211 2:-3.214625 
-1000 1:0.31565234 2:-4.6780625 
-1000 1:0.19752148 2:-2.3913125 
-1000 1:0.22680664 2:-3.8293125 
-1000 1:0.17201758 2:-2.700875 
-1000 1:0.30742383 2:-3.268875 
-1000 1:0.27598047 2:-3.708 
-1000 1:0.29252734 2:-2.577 
-1000 1:0.27103711 2:-3.3648125 
-1000 1:0.32322656 2:-3.5009375 
-1000 1:0.22158984 2:-3.21225 
-1000 1:0.23028906 2:-4.82625 
-1000 1:0.17536328 2:-3.52325 
-1000 1:0.24296484 2:-4.9265625 
-1000 1:0.20635547 2:-3.31375 
-1000 1:0.20316992 2:-3.5863125 
-1000 1:0.34807617 2:-3.3745 
-1000 1:0.23117383 2:-1.6263125 
-1000 1:0.17340039 2:-2.8970625 
-1000 1:0.1824375 2:-2.253375 
-1000 1:0.22170898 2:-2.994125 
-1000 1:0.2059375 2:-3.43675 
-1000 1:0.18333789 2:-2.972125 
-1000 1:0.32995703 2:-5.0885625 
-1000 1:0.34518164 2:-3.089625 
-1000 1:0.21728125 2:-3.6040625 
-1000 1:0.24790234 2:-2.0054375 
-1000 1:0.24279883 2:-4.3206875 
-1000 1:0.16273437 2:-3.362 
-1000 1:0.14829883 2:-3.12725 
-1000 1:0.28289062 2:-4.6854375 
-1000 1:0.29769922 2:-3.3219375 
-1000 1:0.26974414 2:-2.4686875 
-1000 1:0.41063281 2:-3.0335 
-1000 1:0.27291406 2:-4.54875 
-1000 1:0.33769336 2:-4.9349375 
-1000 1:0.37672852 2:-2.83925 
-1000 1:0.27688086 2:-3.00525 
-1000 1:0.34779297 2:-3.0171875 
-1000 1:0.23342188 2:-3.4863125 
-1000 1:0.28263867 2:-4.5860625 
-1000 1:0.3217832 2:-2.419625 
-1000 1:0.39533594 2:-6.7176875 
-1000 1:0.28213672 2:-5.9331875 
-1000 1:0.32939453 2:-4.4934375 
-1000 1:0.32936133 2:-2.6848125 
-1000 1:0.32199414 2:-3.3899375 
-1000 1:0.21166602 2:-4.4863125 
-1000 1:0.28295508 2:-0.9159375 
-1000 1:0.28249219 2:-5.382 
-1000 1:0.37358398 2:-1.4289375 
-1000 1:0.45644531 2:-5.909 
-1000 1:0.28070703 2:-3.386625 
-1000 1:0.40866992 2:-6.1975625 
-1000 1:0.25119922 2:-4.5901875 
-1000 1:0.35639844 2:-5.66275 
-1000 1:0.29777344 2:-3.685375 
-1000 1:0.21851953 2:-2.33275 
-1000 1:0.32717578 2:-3.737625 
-1000 1:0.28992578 2:-2.24675 
-1000 1:0.35313672 2:-3.7525625 
-1000 1:0.24664258 2:-2.0425625 
-1000 1:0.38183594 2:-2.5176875 
-1000 1:0.36061719 2:-4.7583125 
-1000 1:0.24798438 2:-1.645375 
-1000 1:0.26118359 2:-3.87125 
-1000 1:0.16975977 2:-3.0816875 
-1000 1:0.33693945 2:-3.259875 
-1000 1:0.25019141 2:-3.5898125 
-1000 1:0.29958203 2:-3.055375 
-1000 1:0.23005273 2:-3.1355625 
-1000 1:0.26474414 2:-4.135375 
-1000 1:0.39456641 2:-5.40375 
-1000 1:0.33640234 2:-3.262875 
-1000 1:0.31878516 2:-2.9740625 
-1000 1:0.19802344 2:-3.217 
-1000 1:0.18999219 2:-2.8030625 
-1000 1:0.48124219 2:-4.2619375 
-1000 1:0.39850391 2:-5.1421875 
-1000 1:0.29498828 2:-3.6255 
-1000 1:0.22382227 2:-3.1024375 
-1000 1:0.63630273 2:-3.811125 
-1000 1:0.39998242 2:-5.83025 
-1000 1:0.30944727 2:-4.920875 
-1000 1:0.38100195 2:-4.0913125 
-1000 1:0.19657227 2:-2.5599375 
-1000 1:0.28523633 2:-5.0523125 
-1000 1:0.30372656 2:-3.7325 
-1000 1:0.34957617 2:-4.8681875 
-1000 1:0.22933008 2:-1.4585 
-1000 1:0.20953125 2:-2.31975 
-1000 1:0.33252148 2:-2.671125 
-1000 1:0.33732617 2:-2.0031875 
-1000 1:0.24621484 2:-2.1268125 
-1000 1:0.26848047 2:-2.389375 
-1000 1:0.20867188 2:-2.972625 
-1000 1:0.26129297 2:-3.4439375 
-1000 1:0.36631055 2:-4.4484375 
-1000 1:0.21107031 2:-2.5110625 
-1000 1:0.24078906 2:-3.714875 
-1000 1:0.36097656 2:-4.47375 
-1000 1:0.22273828 2:-3.67025 
-1000 1:0.21485938 2:-2.81125 
-1000 1:0.15041211 2:-2.840125 
-1000 1:0.26586328 2:-1.8378125 
-1000 1:0.16663672 2:-0.9226875 
-1000 1:0.33104102 2:-2.396 
-1000 1:0.24013281 2:-3.9851875 
-1000 1:0.29282812 2:-3.0000625 
-1000 1:0.21201367 2:-2.6100625 
-1000 1:0.25363281 2:-2.1921875 
-1000 1:0.31439063 2:-1.372 
-1000 1:0.32114258 2:-3.879125 
-1000 1:0.34213672 2:-2.21525 
-1000 1:0.31833984 2:-3.9101875 
-1000 1:0.18915625 2:-2.730375 
-1000 1:0.2424082 2:-4.52975 
-1000 1:0.12989258 2:-2.002875 
-1000 1:0.16420898 2:-2.2751875 
-1000 1:0.35279102 2:-1.1444375 
-1000 1:0.37254492 2:-3.54475 
-1000 1:0.32970117 2:-4.3779375 
-1000 1:0.32062891 2:-3.608625 
-1000 1:0.23587695 2:-3.104625 
-1000 1:0.20524414 2:-2.742625 
-1000 1:0.34828516 2:-4.4009375 
-1000 1:0.4075293 2:-3.602375 
-1000 1:0.27020117 2:-4.633875 
-1000 1:0.34442578 2:-4.14075 
-1000 1:0.28167188 2:-1.3150625 
-1000 1:0.33244727 2:-5.4505 
-1000 1:0.25854297 2:-1.9469375 
-1000 1:0.28335937 2:-5.64725 
-1000 1:0.21907617 2:-2.309 
-1000 1:0.20453516 2:-2.7575 
-1000 1:0.24589844 2:-2.381375 
-1000 1:0.38547461 2:-3.8594375 
-1000 1:0.18537305 2:-2.150125 
-1000 1:0.2485918 2:-3.072625 
-1000 1:0.2670332 2:-4.2991875 
-1000 1:0.32821484 2:-3.377375 
-1000 1:0.27573242 2:-2.024875 
-1000 1:0.27304883 2:-2.7235625 
-1000 1:0.35416211 2:-5.13225 
-1000 1:0.2853125 2:-2.308875 
-1000 1:0.35437891 2:-3.67175 
-1000 1:0.48145117 2:-3.388 
-1000 1:0.27879883 2:-4.7460625 
-1000 1:0.19296289 2:-2.1853125 
-1000 1:0.27455664 2:-1.5620625 
-1000 1:0.24530078 2:-2.4893125 
-1000 1:0.31470898 2:-5.022375 
-1000 1:0.37425977 2:-6.9378125 
-1000 1:0.18386523 2:-2.3635 
-1000 1:0.22955859 2:-3.2878125 
-1000 1:0.20196094 2:-2.5460625 
-1000 1:0.19316602 2:-1.945125 
-1000 1:0.24685352 2:-3.0428125 
-1000 1:0.24696484 2:-2.446625 
-1000 1:0.26777344 2:-3.47225 
-1000 1:0.25980469 2:-4.1055 
-1000 1:0.17983789 2:-2.21075 
-1000 1:0.44936328 2:-4.8013125 
-1000 1:0.41378516 2:-2.7640625 
-1000 1:0.3052793 2:-3.3136875 
-1000 1:0.20828906 2:-3.446375 
-1000 1:0.16669336 2:-3.11175 
-1000 1:0.24243945 2:-2.4279375 
-1000 1:0.55966797 2:-2.449125 
-1000 1:0.27969727 2:-5.0708125 
-1000 1:0.34248828 2:-3.007375 
-1000 1:0.26470703 2:-3.743375 
-1000 1:0.2560957 2:-3.5296875 
-1000 1:0.21010352 2:-2.54275 
-1000 1:0.33385547 2:-3.1575 
-1000 1:0.22311914 2:-3.4271875 
-1000 1:0.40074023 2:-6.8451875 
-1000 1:0.16269141 2:-2.1070625 
-1000 1:0.33954297 2:-2.632375 
-1000 1:0.25723242 2:-3.903625 
-1000 1:0.41551562 2:-4.2259375 
-1000 1:0.2454043 2:-2.608125 
-1000 1:0.16996094 2:-2.7726875 
-1000 1:0.27501172 2:-4.4645625 
-1000 1:0.33283984 2:-3.3153125 
-1000 1:0.30686133 2:-6.5006875 
-1000 1:0.26757422 2:-3.5734375 
-1000 1:0.27630664 2:-2.03475 
-1000 1:0.30235937 2:-5.8390625 
-1000 1:0.24019922 2:-3.4763125 
-1000 1:0.4194082 2:-4.9998125 
-1000 1:0.28808594 2:-2.365375 
-1000 1:0.3371582 2:-3.8149375 
-1000 1:0.29001562 2:-3.314 
-1000 1:0.29567383 2:-3.2821875 
-1000 1:0.2689082 2:-3.412375 
-1000 1:0.24613477 2:-3.1555 
-1000 1:0.14553125 2:-1.92825 
-1000 1:0.25189063 2:-3.2545 
