svm_type c_svc
kernel_type polynomial
degree 2
gamma 0.5
coef0 0
nr_class 2
total_sv 1084
rho -0.999907
label 0 1
nr_sv 542 542
SV
1e-05 1:0.11537109 2:-0.386 
1e-05 1:0.10228125 2:-0.3788125 
1e-05 1:0.1438125 2:-0.2509375 
1e-05 1:0.57900781 2:-2.849625 
1e-05 1:0.14866406 2:-0.3103125 
1e-05 1:0.37638086 2:-6.194875 
1e-05 1:0.13639648 2:-0.3523125 
1e-05 1:0.40496289 2:-6.0150625 
1e-05 1:0.50985352 2:-2.284 
1e-05 1:0.32455469 2:-6.3529375 
1e-05 1:0.4166543 2:-6.32025 
1e-05 1:0.52532227 2:-2.8126875 
1e-05 1:0.39188867 2:-5.9671875 
1e-05 1:0.34291211 2:-6.461375 
1e-05 1:0.51370117 2:-4.112625 
1e-05 1:0.15301367 2:-0.3863125 
1e-05 1:0.13911328 2:-0.42825 
1e-05 1:0.12841992 2:-0.312625 
1e-05 1:0.14452539 2:-0.301 
1e-05 1:0.10353711 2:-0.32425 
1e-05 1:0.15707422 2:-0.3799375 
1e-05 1:0.1520625 2:-0.365125 
1e-05 1:0.14062305 2:-0.4494375 
1e-05 1:0.36505469 2:-6.3261875 
1e-05 1:0.50997461 2:-1.53175 
1e-05 1:0.52543945 2:-1.5133125 
1e-05 1:0.5994668 2:-2.6765 
1e-05 1:0.14643359 2:-0.4403125 
1e-05 1:0.30793359 2:-6.8123125 
1e-05 1:0.28956836 2:-6.3693125 
1e-05 1:0.30739453 2:-6.3014375 
1e-05 1:0.49304102 2:-2.30275 
1e-05 1:0.22024414 2:-0.4883125 
1e-05 1:0.13918359 2:-0.2368125 
1e-05 1:0.14000195 2:-0.3459375 
1e-05 1:0.40533789 2:-6.4565 
1e-05 1:0.43983398 2:-1.9830625 
1e-05 1:0.13091406 2:-0.335375 
1e-05 1:0.13950195 2:-0.3895625 
1e-05 1:0.44328906 2:-1.86225 
1e-05 1:0.10040625 2:-0.363125 
1e-05 1:0.1547793 2:-0.430125 
1e-05 1:0.241625 2:-0.6540625 
1e-05 1:0.17457617 2:-0.277875 
1e-05 1:0.18857422 2:-0.419 
1e-05 1:0.38066602 2:-7.1104375 
1e-05 1:0.51979883 2:-1.8845625 
1e-05 1:0.53860547 2:-3.504 
1e-05 1:0.37076953 2:-6.1594375 
1e-05 1:0.13761328 2:-0.2299375 
1e-05 1:0.36164258 2:-6.250875 
1e-05 1:0.13340625 2:-0.3335625 
1e-05 1:0.12943359 2:-0.3091875 
1e-05 1:0.13410156 2:-0.3480625 
1e-05 1:0.12999609 2:-0.2566875 
1e-05 1:0.11714258 2:-0.2729375 
1e-05 1:0.1092793 2:-0.1195 
1e-05 1:0.35932617 2:-6.08425 
1e-05 1:0.35232031 2:-6.1666875 
1e-05 1:0.454125 2:-2.0156875 
1e-05 1:0.14672852 2:-0.4580625 
1e-05 1:0.11626172 2:-0.3598125 
1e-05 1:0.52628906 2:-2.6603125 
1e-05 1:0.41410156 2:-6.125625 
1e-05 1:0.50326758 2:-2.3361875 
1e-05 1:0.40051758 2:-6.0948125 
1e-05 1:0.46158789 2:-6.3245 
1e-05 1:0.15165234 2:-0.2708125 
1e-05 1:0.15173438 2:-0.3281875 
1e-05 1:0.17936523 2:-0.338875 
1e-05 1:0.39942773 2:-6.0199375 
1e-05 1:0.35248828 2:-6.0931875 
1e-05 1:0.45618164 2:-6.5829375 
1e-05 1:0.34278125 2:-6.560875 
1e-05 1:0.53756055 2:-1.4563125 
1e-05 1:0.37671289 2:-6.0123125 
1e-05 1:0.35028711 2:-6.351625 
1e-05 1:0.52801953 2:-5.481 
1e-05 1:0.097367187 2:-0.3933125 
1e-05 1:0.11523828 2:-0.337875 
1e-05 1:0.18626758 2:-0.37225 
1e-05 1:0.14279883 2:-0.327 
1e-05 1:0.24395898 2:-0.680875 
1e-05 1:0.35138672 2:-6.545875 
1e-05 1:0.41430469 2:-6.158625 
1e-05 1:0.37476758 2:-6.0885625 
1e-05 1:0.40429687 2:-1.10175 
1e-05 1:0.50880273 2:-2.163 
1e-05 1:0.17481445 2:-0.4135 
1e-05 1:0.11067187 2:-0.37425 
1e-05 1:0.21433203 2:-0.5856875 
1e-05 1:0.37276172 2:-6.2431875 
1e-05 1:0.65594141 2:-2.2291875 
1e-05 1:0.37692773 2:-6.066 
1e-05 1:0.22143555 2:-0.4406875 
1e-05 1:0.49211133 2:-2.1145 
1e-05 1:0.14379492 2:-0.279 
1e-05 1:0.24325195 2:-0.4575625 
1e-05 1:0.40451953 2:-1.271 
1e-05 1:0.35768945 2:-6.08625 
1e-05 1:0.35889258 2:-6.5419375 
1e-05 1:0.43245703 2:-6.32425 
1e-05 1:0.3979668 2:-6.434375 
1e-05 1:0.10868945 2:-0.1948125 
1e-05 1:0.1243418 2:-0.2868125 
1e-05 1:0.16690234 2:-0.4658125 
1e-05 1:0.13354297 2:-0.4223125 
1e-05 1:0.41103125 2:-1.5165625 
1e-05 1:0.098914062 2:-0.388625 
1e-05 1:0.14757227 2:-0.2563125 
1e-05 1:0.16332227 2:-0.216 
1e-05 1:0.35349219 2:-6.191 
1e-05 1:0.13817969 2:-0.2635 
1e-05 1:0.11149023 2:-0.2650625 
1e-05 1:0.10350977 2:-0.1501875 
1e-05 1:0.14802344 2:-0.3280625 
1e-05 1:0.11340039 2:-0.3565625 
1e-05 1:0.12647656 2:-0.446 
1e-05 1:0.24110547 2:-0.6 
1e-05 1:0.41219531 2:-7.08375 
1e-05 1:0.58155273 2:-2.5085 
1e-05 1:0.52079102 2:-2.4798125 
1e-05 1:0.52735156 2:-4.2251875 
1e-05 1:0.091390625 2:-0.3915625 
1e-05 1:0.20551367 2:-0.3664375 
1e-05 1:0.19735156 2:-0.4304375 
1e-05 1:0.33484766 2:-6.761375 
1e-05 1:0.12116602 2:-0.2950625 
1e-05 1:0.10192383 2:-0.33725 
1e-05 1:0.10512695 2:-0.3761875 
1e-05 1:0.092326172 2:-0.365625 
1e-05 1:0.14992773 2:-0.4365625 
1e-05 1:0.33361914 2:-6.093125 
1e-05 1:0.0925 2:-0.405875 
1e-05 1:0.15075781 2:-0.2981875 
1e-05 1:0.10614258 2:-0.2461875 
1e-05 1:0.13176758 2:-0.3184375 
1e-05 1:0.53094922 2:-2.2313125 
1e-05 1:0.47037109 2:-1.6984375 
1e-05 1:0.14886328 2:-0.40175 
1e-05 1:0.1994375 2:-0.463375 
1e-05 1:0.12764062 2:-0.390375 
1e-05 1:0.52552539 2:-3.46175 
1e-05 1:0.11573242 2:-0.4068125 
1e-05 1:0.50982422 2:-2.602875 
1e-05 1:0.10803516 2:-0.1565625 
1e-05 1:0.45885352 2:-2.1756875 
1e-05 1:0.41668164 2:-5.924875 
1e-05 1:0.19209375 2:-0.4173125 
1e-05 1:0.51782031 2:-2.9840625 
1e-05 1:0.55075 2:-2.677 
1e-05 1:0.39354883 2:-5.9889375 
1e-05 1:0.12649023 2:-0.3653125 
1e-05 1:0.34725 2:-6.13525 
1e-05 1:0.32481836 2:-6.3535 
1e-05 1:0.4820332 2:-1.2183125 
1e-05 1:0.10305469 2:-0.2403125 
1e-05 1:0.39512695 2:-6.255875 
1e-05 1:0.50605664 2:-2.7380625 
1e-05 1:0.52707617 2:-4.68575 
1e-05 1:0.35478711 2:-6.158125 
1e-05 1:0.099722656 2:-0.31875 
1e-05 1:0.13455859 2:-0.41975 
1e-05 1:0.15018359 2:-0.1978125 
1e-05 1:0.52820117 2:-3.1533125 
1e-05 1:0.096380859 2:-0.32325 
1e-05 1:0.11195312 2:-0.3650625 
1e-05 1:0.10279687 2:-0.2023125 
1e-05 1:0.26716211 2:-0.6474375 
1e-05 1:0.24172656 2:-0.6289375 
1e-05 1:0.53497656 2:-4.1345 
1e-05 1:0.21121289 2:-0.41525 
1e-05 1:0.20566406 2:-0.5256875 
1e-05 1:0.1553125 2:-0.3605 
1e-05 1:0.12032031 2:-0.275875 
1e-05 1:0.17599805 2:-0.4551875 
1e-05 1:0.40841602 2:-5.890375 
1e-05 1:0.12021484 2:-0.266625 
1e-05 1:0.12619336 2:-0.4399375 
1e-05 1:0.1387832 2:-0.2895 
1e-05 1:0.47380469 2:-2.396625 
1e-05 1:0.57983398 2:-1.5735625 
1e-05 1:0.10086328 2:-0.3555 
1e-05 1:0.089394531 2:-0.407625 
1e-05 1:0.10139063 2:-0.265875 
1e-05 1:0.10471094 2:-0.235125 
1e-05 1:0.34958789 2:-6.155125 
1e-05 1:0.31766992 2:-6.3675 
1e-05 1:0.44060156 2:-1.6279375 
1e-05 1:0.39014258 2:-6.121875 
1e-05 1:0.46235742 2:-5.634125 
1e-05 1:0.48723242 2:-2.3460625 
1e-05 1:0.091064453 2:-0.33625 
1e-05 1:0.11264648 2:-0.2361875 
1e-05 1:0.20106445 2:-0.5115 
1e-05 1:0.20624609 2:-0.4856875 
1e-05 1:0.33461719 2:-6.2285 
1e-05 1:0.13016797 2:-0.4386875 
1e-05 1:0.45062109 2:-1.7868125 
1e-05 1:0.14508789 2:-0.4515 
1e-05 1:0.091367187 2:-0.4304375 
1e-05 1:0.13489258 2:-0.252625 
1e-05 1:0.30098828 2:-6.4419375 
1e-05 1:0.52864844 2:-2.0689375 
1e-05 1:0.13743359 2:-0.297875 
1e-05 1:0.46813867 2:-1.7313125 
1e-05 1:0.44779492 2:-1.6871875 
1e-05 1:0.10736719 2:-0.22725 
1e-05 1:0.12208984 2:-0.3139375 
1e-05 1:0.40891211 2:-5.9803125 
1e-05 1:0.15754102 2:-0.3066875 
1e-05 1:0.43997461 2:-1.51125 
1e-05 1:0.34370508 2:-6.6133125 
1e-05 1:0.37031445 2:-6.1486875 
1e-05 1:0.17750586 2:-0.406875 
1e-05 1:0.14119141 2:-0.4194375 
1e-05 1:0.39774414 2:-6.05375 
1e-05 1:0.094763672 2:-0.387625 
1e-05 1:0.09196875 2:-0.3141875 
1e-05 1:0.39798438 2:-6.242 
1e-05 1:0.13530078 2:-0.444875 
1e-05 1:0.20809961 2:-0.483625 
1e-05 1:0.20914453 2:-0.4818125 
1e-05 1:0.40190625 2:-5.91075 
1e-05 1:0.42236328 2:-6.1394375 
1e-05 1:0.10375391 2:-0.212 
1e-05 1:0.50765234 2:-2.22525 
1e-05 1:0.12626758 2:-0.246375 
1e-05 1:0.21911914 2:-0.590625 
1e-05 1:0.14872266 2:-0.407125 
1e-05 1:0.3770293 2:-6.11475 
1e-05 1:0.45385156 2:-2.0045625 
1e-05 1:0.43955078 2:-1.6426875 
1e-05 1:0.33624023 2:-6.860125 
1e-05 1:0.16164258 2:-0.3683125 
1e-05 1:0.16263477 2:-0.3573125 
1e-05 1:0.42924219 2:-6.279125 
1e-05 1:0.15559766 2:-0.45925 
1e-05 1:0.5178125 2:-2.3533125 
1e-05 1:0.31619727 2:-6.3761875 
1e-05 1:0.1375918 2:-0.3901875 
1e-05 1:0.54844922 2:-2.60875 
1e-05 1:0.37858984 2:-6.0868125 
1e-05 1:0.34523242 2:-6.061875 
1e-05 1:0.11748828 2:-0.4265 
1e-05 1:0.49685547 2:-1.6393125 
1e-05 1:0.38610742 2:-6.1371875 
1e-05 1:0.13530273 2:-0.4311875 
1e-05 1:0.098894531 2:-0.3690625 
1e-05 1:0.38570117 2:-6.1624375 
1e-05 1:0.16294336 2:-0.344 
1e-05 1:0.10410156 2:-0.1661875 
1e-05 1:0.49560547 2:-4.876 
1e-05 1:0.46247266 2:-6.5006875 
1e-05 1:0.34056836 2:-6.399125 
1e-05 1:0.13804688 2:-0.4255 
1e-05 1:0.49108398 2:-1.9874375 
1e-05 1:0.14631836 2:-0.4338125 
1e-05 1:0.36661328 2:-6.022 
1e-05 1:0.3104043 2:-6.1365 
1e-05 1:0.34091016 2:-6.29425 
1e-05 1:0.4509043 2:-6.5925625 
1e-05 1:0.12524609 2:-0.281875 
1e-05 1:0.41826953 2:-5.916375 
1e-05 1:0.41155273 2:-6.8126875 
1e-05 1:0.53393555 2:-3.7854375 
1e-05 1:0.47471289 2:-1.781 
1e-05 1:0.17372852 2:-0.3841875 
1e-05 1:0.49775 2:-2.6403125 
1e-05 1:0.64953711 2:-2.5906875 
1e-05 1:0.302 2:-6.17125 
1e-05 1:0.34611328 2:-1.1154375 
1e-05 1:0.23095703 2:-0.5875 
1e-05 1:0.35835547 2:-6.3311875 
1e-05 1:0.13998437 2:-0.4235 
1e-05 1:0.1048457 2:-0.404 
1e-05 1:0.10165625 2:-0.324625 
1e-05 1:0.089660156 2:-0.3435 
1e-05 1:0.14004297 2:-0.4045 
1e-05 1:0.35353711 2:-6.4664375 
1e-05 1:0.40830859 2:-5.9036875 
1e-05 1:0.44179297 2:-1.180625 
1e-05 1:0.3229082 2:-6.2829375 
1e-05 1:0.13519727 2:-0.3946875 
1e-05 1:0.43591602 2:-5.860375 
1e-05 1:0.12141992 2:-0.1913125 
1e-05 1:0.099912109 2:-0.2281875 
1e-05 1:0.09196875 2:-0.3166875 
1e-05 1:0.1179082 2:-0.281875 
1e-05 1:0.10531641 2:-0.38825 
1e-05 1:0.11030664 2:-0.315125 
1e-05 1:0.45997461 2:-6.2921875 
1e-05 1:0.17666211 2:-0.451375 
1e-05 1:0.21139453 2:-0.498375 
1e-05 1:0.45632617 2:-2.167125 
1e-05 1:0.49410352 2:-1.903625 
1e-05 1:0.55480078 2:-3.3968125 
1e-05 1:0.54077734 2:-2.5634375 
1e-05 1:0.10248828 2:-0.332125 
1e-05 1:0.094980469 2:-0.3855 
1e-05 1:0.48474609 2:-6.674125 
1e-05 1:0.089603516 2:-0.2883125 
1e-05 1:0.15856836 2:-0.29775 
1e-05 1:0.12512305 2:-0.399 
1e-05 1:0.19080664 2:-0.4435 
1e-05 1:0.49497656 2:-2.2388125 
1e-05 1:0.4799043 2:-2.1899375 
1e-05 1:0.12323242 2:-0.380125 
1e-05 1:0.20983008 2:-0.48175 
1e-05 1:0.39682227 2:-1.5556875 
1e-05 1:0.12008008 2:-0.25775 
1e-05 1:0.10151172 2:-0.2658125 
1e-05 1:0.35580078 2:-6.299125 
1e-05 1:0.34071094 2:-6.2910625 
1e-05 1:0.44792773 2:-5.903 
1e-05 1:0.090515625 2:-0.3639375 
1e-05 1:0.4265625 2:-1.383125 
1e-05 1:0.12408984 2:-0.189 
1e-05 1:0.51403125 2:-6.2425 
1e-05 1:0.095197266 2:-0.3486875 
1e-05 1:0.094089844 2:-0.35575 
1e-05 1:0.36413867 2:-6.3994375 
1e-05 1:0.14930469 2:-0.344 
1e-05 1:0.11367188 2:-0.2075625 
1e-05 1:0.14340234 2:-0.4580625 
1e-05 1:0.13744531 2:-0.3645625 
1e-05 1:0.38785547 2:-6.0408125 
1e-05 1:0.11025195 2:-0.245875 
1e-05 1:0.37899609 2:-6.203375 
1e-05 1:0.43064648 2:-5.9849375 
1e-05 1:0.3282168 2:-6.19075 
1e-05 1:0.12306641 2:-0.3733125 
1e-05 1:0.23102539 2:-0.31325 
1e-05 1:0.54441992 2:-4.3748125 
1e-05 1:0.45663086 2:-6.1100625 
1e-05 1:0.37686719 2:-6.1020625 
1e-05 1:0.40001758 2:-6.005875 
1e-05 1:0.10266602 2:-0.3030625 
1e-05 1:0.12006641 2:-0.2590625 
1e-05 1:0.46874414 2:-2.178875 
1e-05 1:0.31078125 2:-6.1899375 
1e-05 1:0.34674219 2:-6.1005625 
1e-05 1:0.32765625 2:-6.1134375 
1e-05 1:0.36801953 2:-6.04 
1e-05 1:0.14422852 2:-0.453125 
1e-05 1:0.38377344 2:-6.2124375 
1e-05 1:0.44400781 2:-5.9770625 
1e-05 1:0.53006445 2:-2.718375 
1e-05 1:0.59253906 2:-2.77375 
1e-05 1:0.1101543 2:-0.4315625 
1e-05 1:0.50798047 2:-2.635 
1e-05 1:0.12203125 2:-0.36325 
1e-05 1:0.52775391 2:-2.3980625 
1e-05 1:0.45107812 2:-2.0339375 
1e-05 1:0.15279492 2:-0.351375 
1e-05 1:0.10953906 2:-0.2093125 
1e-05 1:0.34183008 2:-6.1061875 
1e-05 1:0.43492188 2:-5.8491875 
1e-05 1:0.19822656 2:-0.4559375 
1e-05 1:0.12621094 2:-0.2626875 
1e-05 1:0.11013086 2:-0.2614375 
1e-05 1:0.090832031 2:-0.413625 
1e-05 1:0.10375 2:-0.3034375 
1e-05 1:0.31803516 2:-0.858 
1e-05 1:0.11448242 2:-0.395875 
1e-05 1:0.4214043 2:-5.82125 
1e-05 1:0.097117188 2:-0.2763125 
1e-05 1:0.088917969 2:-0.41075 
1e-05 1:0.5069082 2:-2.5089375 
1e-05 1:0.40707813 2:-1.1791875 
1e-05 1:0.4128457 2:-5.946 
1e-05 1:0.17925391 2:-0.3043125 
1e-05 1:0.15711523 2:-0.3749375 
1e-05 1:0.3845 2:-6.7055 
1e-05 1:0.34606445 2:-6.244125 
1e-05 1:0.23139062 2:-0.6240625 
1e-05 1:0.43455859 2:-1.505125 
1e-05 1:0.44727148 2:-5.6630625 
1e-05 1:0.11569922 2:-0.3685625 
1e-05 1:0.31308203 2:-6.5335625 
1e-05 1:0.44730469 2:-5.969375 
1e-05 1:0.41330273 2:-6.1581875 
1e-05 1:0.43425977 2:-1.4025 
1e-05 1:0.39750977 2:-6.3005625 
1e-05 1:0.49054687 2:-1.1923125 
1e-05 1:0.25085156 2:-0.6616875 
1e-05 1:0.35910352 2:-6.03025 
1e-05 1:0.11790625 2:-0.303625 
1e-05 1:0.14965625 2:-0.3728125 
1e-05 1:0.12167188 2:-0.3645 
1e-05 1:0.10613281 2:-0.24175 
1e-05 1:0.11179687 2:-0.3708125 
1e-05 1:0.11030664 2:-0.3095625 
1e-05 1:0.14059961 2:-0.430375 
1e-05 1:0.13075781 2:-0.4119375 
1e-05 1:0.32683789 2:-6.4313125 
1e-05 1:0.19653906 2:-0.4888125 
1e-05 1:0.12494922 2:-0.4011875 
1e-05 1:0.16926563 2:-0.444 
1e-05 1:0.49512891 2:-1.64025 
1e-05 1:0.1204043 2:-0.27 
1e-05 1:0.11500781 2:-0.2405625 
1e-05 1:0.18616406 2:-0.32975 
1e-05 1:0.14049023 2:-0.4394375 
1e-05 1:0.10293945 2:-0.3921875 
1e-05 1:0.10688477 2:-0.239125 
1e-05 1:0.10129297 2:-0.3945 
1e-05 1:0.13203906 2:-0.3524375 
1e-05 1:0.10169141 2:-0.2866875 
1e-05 1:0.10144727 2:-0.3619375 
1e-05 1:0.12993359 2:-0.263125 
1e-05 1:0.35224805 2:-6.4756875 
1e-05 1:0.11089844 2:-0.2035625 
1e-05 1:0.46754492 2:-5.648125 
1e-05 1:0.39713867 2:-5.9639375 
1e-05 1:0.40342578 2:-6.348125 
1e-05 1:0.1322207 2:-0.179 
1e-05 1:0.39936523 2:-5.981625 
1e-05 1:0.42650586 2:-1.8313125 
1e-05 1:0.50034766 2:-1.9210625 
1e-05 1:0.30291602 2:-0.991625 
1e-05 1:0.094574219 2:-0.393375 
1e-05 1:0.38733984 2:-6.4479375 
1e-05 1:0.10168555 2:-0.2433125 
1e-05 1:0.10214453 2:-0.3369375 
1e-05 1:0.096841797 2:-0.3508125 
1e-05 1:0.40545312 2:-6.2274375 
1e-05 1:0.21317188 2:-0.3318125 
1e-05 1:0.45595703 2:-5.719625 
1e-05 1:0.40119336 2:-7.3266875 
1e-05 1:0.2164375 2:-0.5284375 
1e-05 1:0.20820312 2:-0.5004375 
1e-05 1:0.30795703 2:-6.1831875 
1e-05 1:0.27466602 2:-6.4654375 
1e-05 1:0.10604102 2:-0.3180625 
1e-05 1:0.099923828 2:-0.4315 
1e-05 1:0.35628711 2:-6.539625 
1e-05 1:0.18500391 2:-0.453625 
1e-05 1:0.50546875 2:-2.978125 
1e-05 1:0.59392578 2:-2.6131875 
1e-05 1:0.37595117 2:-6.845625 
1e-05 1:0.56246484 2:-4.2535625 
1e-05 1:0.43242188 2:-1.561625 
1e-05 1:0.52732813 2:-2.161125 
1e-05 1:0.5656875 2:-1.8881875 
1e-05 1:0.099724609 2:-0.323875 
1e-05 1:0.43997461 2:-1.7660625 
1e-05 1:0.36097461 2:-6.4238125 
1e-05 1:0.11764258 2:-0.402625 
1e-05 1:0.30711719 2:-6.25125 
1e-05 1:0.18051758 2:-0.4456875 
1e-05 1:0.13882031 2:-0.411375 
1e-05 1:0.095435547 2:-0.3585 
1e-05 1:0.37617578 2:-6.118875 
1e-05 1:0.10081836 2:-0.3579375 
1e-05 1:0.52079883 2:-3.961125 
1e-05 1:0.14973047 2:-0.452375 
1e-05 1:0.36618555 2:-6.76 
1e-05 1:0.14710938 2:-0.22725 
1e-05 1:0.41069727 2:-6.33175 
1e-05 1:0.19366406 2:-0.4765 
1e-05 1:0.16120703 2:-0.412125 
1e-05 1:0.14616992 2:-0.3716875 
1e-05 1:0.20523242 2:-0.36 
1e-05 1:0.50777344 2:-3.3566875 
1e-05 1:0.16658789 2:-0.4264375 
1e-05 1:0.51006055 2:-1.950875 
1e-05 1:0.5255957 2:-5.70775 
1e-05 1:0.46969531 2:-2.3004375 
1e-05 1:0.24347461 2:-0.5854375 
1e-05 1:0.60116992 2:-1.4695625 
1e-05 1:0.54976758 2:-0.798875 
1e-05 1:0.114125 2:-0.3439375 
1e-05 1:0.1231543 2:-0.2958125 
1e-05 1:0.28741406 2:-6.508375 
1e-05 1:0.41494922 2:-6.254125 
1e-05 1:0.3515918 2:-1.2735625 
1e-05 1:0.44529687 2:-1.3795 
1e-05 1:0.29655078 2:-0.9794375 
1e-05 1:0.328875 2:-6.424 
1e-05 1:0.13301367 2:-0.365 
1e-05 1:0.30435937 2:-6.94625 
1e-05 1:0.18552734 2:-0.451625 
1e-05 1:0.17572852 2:-0.45175 
1e-05 1:0.40796094 2:-6.3503125 
1e-05 1:0.37275586 2:-7.081375 
1e-05 1:0.35354297 2:-7.0851875 
1e-05 1:0.18260742 2:-0.348375 
1e-05 1:0.35895703 2:-6.632125 
1e-05 1:0.11638867 2:-0.3818125 
1e-05 1:0.1700625 2:-0.4009375 
1e-05 1:0.068048828 2:-0.315 
1e-05 1:0.093871094 2:-0.28325 
1e-05 1:0.38938672 2:-1.4563125 
1e-05 1:0.11033203 2:-0.3363125 
1e-05 1:0.19591602 2:-0.486625 
1e-05 1:0.11539648 2:-0.379 
1e-05 1:0.41708984 2:-7.1114375 
1e-05 1:0.108125 2:-0.338375 
1e-05 1:0.15634961 2:-0.458625 
1e-05 1:0.36837695 2:-6.2575 
1e-05 1:0.13191211 2:-0.392625 
1e-05 1:0.51585742 2:-6.6545 
1e-05 1:0.43723828 2:-7.1905 
1e-05 1:0.5284082 2:-3.2651875 
1e-05 1:0.52434375 2:-2.0265 
1e-05 1:0.4947168 2:-2.6748125 
1e-05 1:0.15412891 2:-0.297 
1e-05 1:0.49741406 2:-2.678875 
1e-05 1:0.35732227 2:-6.6468125 
1e-05 1:0.3703457 2:-6.1079375 
1e-05 1:0.20436328 2:-0.445625 
1e-05 1:0.12449023 2:-0.4356875 
1e-05 1:0.10514258 2:-0.224 
1e-05 1:0.14219141 2:-0.4508125 
1e-05 1:0.40974609 2:-6.5911875 
1e-05 1:0.10458203 2:-0.34025 
1e-05 1:0.41735742 2:-1.526375 
1e-05 1:0.13016992 2:-0.2438125 
1e-05 1:0.10584961 2:-0.2670625 
1e-05 1:0.34125391 2:-1.1159375 
1e-05 1:0.43819336 2:-6.483 
1e-05 1:0.1390332 2:-0.3398125 
1e-05 1:0.44541211 2:-6.16325 
1e-05 1:0.45349219 2:-1.922625 
1e-05 1:0.56148633 2:-3.396 
1e-05 1:0.14047461 2:-0.329875 
1e-05 1:0.1491582 2:-0.2735625 
1e-05 1:0.49329102 2:-2.5065625 
1e-05 1:0.14095898 2:-0.400125 
1e-05 1:0.5193418 2:-3.74275 
1e-05 1:0.15826172 2:-0.267 
1e-05 1:0.10489844 2:-0.33525 
1e-05 1:0.10010156 2:-0.3700625 
1e-05 1:0.51713281 2:-3.2915625 
1e-05 1:0.12051562 2:-0.2690625 
1e-05 1:0.40981836 2:-7.1111875 
1e-05 1:0.48641992 2:-1.735875 
1e-05 1:0.54072852 2:-4.29325 
1e-05 1:0.40919141 2:-6.5406875 
1e-05 1:0.59758984 2:-2.2580625 
1e-05 1:0.2762207 2:-0.91625 
-1e-05 1:0.44066992 2:-4.3504375 
-1e-05 1:0.27822461 2:-4.0888125 
-1e-05 1:0.28741406 2:-4.3654375 
-1e-05 1:0.18921094 2:-3.328375 
-1e-05 1:0.34156641 2:-4.8388125 
-1e-05 1:0.28816211 2:-3.75325 
-1e-05 1:0.42295508 2:-4.58325 
-1e-05 1:0.35011133 2:-4.5961875 
-1e-05 1:0.30645703 2:-2.082 
-1e-05 1:0.33792773 2:-3.1846875 
-1e-05 1:0.41233789 2:-5.5705 
-1e-05 1:0.35138672 2:-4.4420625 
-1e-05 1:0.24904883 2:-4.0290625 
-1e-05 1:0.26214258 2:-4.100125 
-1e-05 1:0.27826172 2:-4.4676875 
-1e-05 1:0.33248828 2:-2.502 
-1e-05 1:0.36280664 2:-5.8456875 
-1e-05 1:0.35701172 2:-4.0114375 
-1e-05 1:0.33430859 2:-3.2810625 
-1e-05 1:0.29611523 2:-5.2068125 
-1e-05 1:0.32277539 2:-3.7033125 
-1e-05 1:0.33418555 2:-2.956375 
-1e-05 1:0.16690234 2:-2.8409375 
-1e-05 1:0.33725781 2:-3.869 
-1e-05 1:0.25451758 2:-1.7416875 
-1e-05 1:0.30048633 2:-3.50575 
-1e-05 1:0.24953906 2:-2.5758125 
-1e-05 1:0.2707207 2:-4.2679375 
-1e-05 1:0.37868359 2:-4.4215 
-1e-05 1:0.22776367 2:-2.785125 
-1e-05 1:0.33098047 2:-2.8483125 
-1e-05 1:0.39789844 2:-2.9333125 
-1e-05 1:0.31657031 2:-3.592375 
-1e-05 1:0.21885156 2:-1.7906875 
-1e-05 1:0.31800195 2:-2.7066875 
-1e-05 1:0.19188281 2:-2.0279375 
-1e-05 1:0.17126758 2:-2.6516875 
-1e-05 1:0.29497461 2:-2.2556875 
-1e-05 1:0.28387305 2:-3.2044375 
-1e-05 1:0.40943945 2:-2.8265625 
-1e-05 1:0.20573242 2:-2.702 
-1e-05 1:0.34373047 2:-3.911375 
-1e-05 1:0.24505859 2:-3.2475 
-1e-05 1:0.26678516 2:-2.513375 
-1e-05 1:0.25408203 2:-4.2065 
-1e-05 1:0.3456543 2:-3.2239375 
-1e-05 1:0.24648828 2:-3.09025 
-1e-05 1:0.19146289 2:-3.1794375 
-1e-05 1:0.32058789 2:-2.162375 
-1e-05 1:0.343625 2:-3.1510625 
-1e-05 1:0.30064063 2:-4.62675 
-1e-05 1:0.25929492 2:-3.3233125 
-1e-05 1:0.23530273 2:-1.1014375 
-1e-05 1:0.28984375 2:-4.7261875 
-1e-05 1:0.25291602 2:-4.2434375 
-1e-05 1:0.20922266 2:-2.4875625 
-1e-05 1:0.18249414 2:-3.0206875 
-1e-05 1:0.2452207 2:-4.069625 
-1e-05 1:0.47007031 2:-3.4156875 
-1e-05 1:0.25875391 2:-3.735125 
-1e-05 1:0.25331055 2:-5.259125 
-1e-05 1:0.33484375 2:-4.3180625 
-1e-05 1:0.19809375 2:-3.069 
-1e-05 1:0.23054297 2:-3.08525 
-1e-05 1:0.22968555 2:-4.1193125 
-1e-05 1:0.39870508 2:-6.2614375 
-1e-05 1:0.33263477 2:-5.3505 
-1e-05 1:0.25126563 2:-2.5884375 
-1e-05 1:0.28254102 2:-2.7315 
-1e-05 1:0.24461719 2:-3.759875 
-1e-05 1:0.30981836 2:-2.747 
-1e-05 1:0.25489844 2:-3.386625 
-1e-05 1:0.28346094 2:-1.1570625 
-1e-05 1:0.26345898 2:-4.1485 
-1e-05 1:0.28462109 2:-2.889125 
-1e-05 1:0.1962832 2:-2.790375 
-1e-05 1:0.16263086 2:-2.6108125 
-1e-05 1:0.17793555 2:-1.9318125 
-1e-05 1:0.28441602 2:-4.591875 
-1e-05 1:0.29831641 2:-1.8839375 
-1e-05 1:0.32322461 2:-4.9383125 
-1e-05 1:0.22491602 2:-2.3835 
-1e-05 1:0.29147852 2:-2.597125 
-1e-05 1:0.19753516 2:-3.424375 
-1e-05 1:0.27897461 2:-2.5580625 
-1e-05 1:0.43238867 2:-2.8535625 
-1e-05 1:0.32033984 2:-3.4545625 
-1e-05 1:0.27245117 2:-3.922625 
-1e-05 1:0.12591406 2:-1.9669375 
-1e-05 1:0.23814258 2:-3.4095 
-1e-05 1:0.3985957 2:-4.82175 
-1e-05 1:0.24329297 2:-3.091 
-1e-05 1:0.25313672 2:-2.7315 
-1e-05 1:0.27132227 2:-3.500875 
-1e-05 1:0.35445117 2:-2.0418125 
-1e-05 1:0.31777148 2:-5.3259375 
-1e-05 1:0.41664844 2:-5.8334375 
-1e-05 1:0.37456445 2:-3.8265 
-1e-05 1:0.29933008 2:-3.1620625 
-1e-05 1:0.17382031 2:-1.9191875 
-1e-05 1:0.16448242 2:-2.1161875 
-1e-05 1:0.37798242 2:-5.36075 
-1e-05 1:0.35523242 2:-5.1198125 
-1e-05 1:0.2519707 2:-2.6255625 
-1e-05 1:0.30011328 2:-3.26075 
-1e-05 1:0.2056543 2:-2.8788125 
-1e-05 1:0.2994707 2:-3.6604375 
-1e-05 1:0.28832227 2:-3.2866875 
-1e-05 1:0.12416602 2:-2.0903125 
-1e-05 1:0.11805469 2:-2.27 
-1e-05 1:0.17107227 2:-1.879375 
-1e-05 1:0.26833398 2:-4.8129375 
-1e-05 1:0.17469141 2:-2.1999375 
-1e-05 1:0.18063281 2:-1.7966875 
-1e-05 1:0.15491016 2:-3.04925 
-1e-05 1:0.23418945 2:-3.1060625 
-1e-05 1:0.34679102 2:-4.3859375 
-1e-05 1:0.18732031 2:-3.1871875 
-1e-05 1:0.24810742 2:-2.2230625 
-1e-05 1:0.20545117 2:-3.250625 
-1e-05 1:0.20155859 2:-2.3331875 
-1e-05 1:0.34156445 2:-3.5378125 
-1e-05 1:0.37650977 2:-3.31375 
-1e-05 1:0.35983789 2:-4.137 
-1e-05 1:0.18253516 2:-3.388375 
-1e-05 1:0.31178516 2:-2.6841875 
-1e-05 1:0.28626953 2:-2.63325 
-1e-05 1:0.3564082 2:-4.6351875 
-1e-05 1:0.29650781 2:-3.8868125 
-1e-05 1:0.31982812 2:-5.0585 
-1e-05 1:0.30227734 2:-2.2331875 
-1e-05 1:0.28037109 2:-1.59875 
-1e-05 1:0.21647656 2:-1.9361875 
-1e-05 1:0.24942188 2:-1.6803125 
-1e-05 1:0.25853125 2:-4.44175 
-1e-05 1:0.21929688 2:-1.9210625 
-1e-05 1:0.3401875 2:-1.4686875 
-1e-05 1:0.32116602 2:-1.6766875 
-1e-05 1:0.23394336 2:-2.904 
-1e-05 1:0.2692793 2:-4.3863125 
-1e-05 1:0.28656836 2:-5.2745 
-1e-05 1:0.34270508 2:-2.6396875 
-1e-05 1:0.22915234 2:-1.374375 
-1e-05 1:0.33480664 2:-2.5214375 
-1e-05 1:0.27562891 2:-3.6761875 
-1e-05 1:0.28976953 2:-3.163375 
-1e-05 1:0.34318555 2:-4.044125 
-1e-05 1:0.26531055 2:-4.804 
-1e-05 1:0.26812109 2:-3.9265625 
-1e-05 1:0.241125 2:-3.359 
-1e-05 1:0.35424609 2:-4.1588125 
-1e-05 1:0.1582793 2:-2.42875 
-1e-05 1:0.2905 2:-5.1194375 
-1e-05 1:0.20248633 2:-1.470125 
-1e-05 1:0.21135742 2:-2.489 
-1e-05 1:0.31603125 2:-3.776875 
-1e-05 1:0.23958398 2:-2.7159375 
-1e-05 1:0.34157617 2:-4.2260625 
-1e-05 1:0.36369141 2:-2.1930625 
-1e-05 1:0.32398242 2:-3.5039375 
-1e-05 1:0.20150586 2:-2.223875 
-1e-05 1:0.21023242 2:-3.081125 
-1e-05 1:0.38706445 2:-4.7500625 
-1e-05 1:0.25750977 2:-2.2086875 
-1e-05 1:0.3180957 2:-4.3368125 
-1e-05 1:0.31791016 2:-3.7708125 
-1e-05 1:0.48707422 2:-3.45225 
-1e-05 1:0.3085 2:-4.161875 
-1e-05 1:0.26771875 2:-2.972875 
-1e-05 1:0.22813086 2:-2.677875 
-1e-05 1:0.40599219 2:-2.685625 
-1e-05 1:0.27122852 2:-3.7273125 
-1e-05 1:0.20182617 2:-3.198125 
-1e-05 1:0.24357227 2:-2.9170625 
-1e-05 1:0.42968359 2:-4.415625 
-1e-05 1:0.27746094 2:-4.6858125 
-1e-05 1:0.16998047 2:-2.7985625 
-1e-05 1:0.11469336 2:-1.1860625 
-1e-05 1:0.34663867 2:-2.43325 
-1e-05 1:0.30842383 2:-5.3401875 
-1e-05 1:0.30995703 2:-2.99925 
-1e-05 1:0.36791797 2:-1.7798125 
-1e-05 1:0.38985742 2:-2.2789375 
-1e-05 1:0.32626953 2:-3.5511875 
-1e-05 1:0.2986543 2:-4.975125 
-1e-05 1:0.1933457 2:-2.478125 
-1e-05 1:0.19559961 2:-2.8805625 
-1e-05 1:0.22288086 2:-0.879125 
-1e-05 1:0.22076758 2:-3.50925 
-1e-05 1:0.44749609 2:-3.6575625 
-1e-05 1:0.18795117 2:-2.6435 
-1e-05 1:0.21619336 2:-3.8670625 
-1e-05 1:0.16503906 2:-2.1281875 
-1e-05 1:0.27644531 2:-2.738125 
-1e-05 1:0.21367188 2:-3.5629375 
-1e-05 1:0.22887305 2:-3.4574375 
-1e-05 1:0.23996094 2:-4.4979375 
-1e-05 1:0.34984961 2:-4.391 
-1e-05 1:0.29217773 2:-3.0855625 
-1e-05 1:0.45689844 2:-4.434625 
-1e-05 1:0.43435742 2:-3.4658125 
-1e-05 1:0.18168164 2:-1.866875 
-1e-05 1:0.1979668 2:-3.116375 
-1e-05 1:0.20913672 2:-3.9043125 
-1e-05 1:0.20894531 2:-4.481875 
-1e-05 1:0.22959961 2:-2.5274375 
-1e-05 1:0.24679883 2:-3.1264375 
-1e-05 1:0.27471484 2:-2.5206875 
-1e-05 1:0.32786133 2:-4.434 
-1e-05 1:0.30963086 2:-2.8083125 
-1e-05 1:0.38985547 2:-3.799625 
-1e-05 1:0.21798437 2:-2.28275 
-1e-05 1:0.26881055 2:-3.0364375 
-1e-05 1:0.20781641 2:-1.73425 
-1e-05 1:0.32364258 2:-0.9266875 
-1e-05 1:0.18230469 2:-3.516875 
-1e-05 1:0.20025195 2:-2.91475 
-1e-05 1:0.19434375 2:-2.10675 
-1e-05 1:0.17934961 2:-4.0168125 
-1e-05 1:0.23202734 2:-1.8263125 
-1e-05 1:0.29225195 2:-2.52325 
-1e-05 1:0.19449023 2:-2.5605 
-1e-05 1:0.22368359 2:-2.012125 
-1e-05 1:0.20332227 2:-4.2685625 
-1e-05 1:0.22722266 2:-2.2946875 
-1e-05 1:0.26252344 2:-3.743625 
-1e-05 1:0.17598047 2:-3.4860625 
-1e-05 1:0.29560156 2:-2.88125 
-1e-05 1:0.33454297 2:-4.7880625 
-1e-05 1:0.33392969 2:-4.0231875 
-1e-05 1:0.30508789 2:-5.8201875 
-1e-05 1:0.26403125 2:-4.804125 
-1e-05 1:0.19893359 2:-3.0593125 
-1e-05 1:0.25470508 2:-0.922875 
-1e-05 1:0.42402148 2:-4.7025625 
-1e-05 1:0.38944922 2:-2.8925625 
-1e-05 1:0.26929297 2:-2.8614375 
-1e-05 1:0.27592773 2:-3.5386875 
-1e-05 1:0.26537109 2:-3.0890625 
-1e-05 1:0.38280273 2:-4.365125 
-1e-05 1:0.23808984 2:-4.31375 
-1e-05 1:0.22843164 2:-2.9856875 
-1e-05 1:0.33358984 2:-2.0735 
-1e-05 1:0.47258203 2:-5.1478125 
-1e-05 1:0.27886328 2:-2.8150625 
-1e-05 1:0.33678711 2:-3.9640625 
-1e-05 1:0.24440234 2:-2.9349375 
-1e-05 1:0.29697656 2:-3.7760625 
-1e-05 1:0.25325586 2:-2.34125 
-1e-05 1:0.23811523 2:-3.25 
-1e-05 1:0.25968164 2:-4.701 
-1e-05 1:0.25855664 2:-4.6235625 
-1e-05 1:0.19732812 2:-3.4299375 
-1e-05 1:0.39165625 2:-3.201875 
-1e-05 1:0.23148828 2:-3.603875 
-1e-05 1:0.38961328 2:-2.5674375 
-1e-05 1:0.53747656 2:-5.9125 
-1e-05 1:0.49851172 2:-4.012375 
-1e-05 1:0.34680664 2:-2.6586875 
-1e-05 1:0.32651172 2:-2.089 
-1e-05 1:0.23910742 2:-3.884375 
-1e-05 1:0.22402539 2:-2.560375 
-1e-05 1:0.19187109 2:-2.8835625 
-1e-05 1:0.25475977 2:-3.0795 
-1e-05 1:0.34861719 2:-3.627625 
-1e-05 1:0.26051563 2:-3.0916875 
-1e-05 1:0.26091406 2:-2.994125 
-1e-05 1:0.18579297 2:-1.535625 
-1e-05 1:0.27365625 2:-5.3413125 
-1e-05 1:0.4163418 2:-3.113875 
-1e-05 1:0.25458203 2:-3.885375 
-1e-05 1:0.17887109 2:-3.1995625 
-1e-05 1:0.16845703 2:-3.3035 
-1e-05 1:0.1959375 2:-2.11625 
-1e-05 1:0.23158594 2:-3.2494375 
-1e-05 1:0.11993555 2:-1.763125 
-1e-05 1:0.19563672 2:-3.308 
-1e-05 1:0.34460352 2:-4.310625 
-1e-05 1:0.27666992 2:-2.86875 
-1e-05 1:0.18776562 2:-4.5545625 
-1e-05 1:0.22798828 2:-2.3349375 
-1e-05 1:0.22554688 2:-3.4891875 
-1e-05 1:0.20121484 2:-2.59925 
-1e-05 1:0.20608203 2:-3.458125 
-1e-05 1:0.20105078 2:-2.6285625 
-1e-05 1:0.30475 2:-3.782375 
-1e-05 1:0.30993359 2:-4.1353125 
-1e-05 1:0.26016406 2:-4.3838125 
-1e-05 1:0.2137168 2:-3.3163125 
-1e-05 1:0.4074082 2:-3.9875 
-1e-05 1:0.25452539 2:-1.412375 
-1e-05 1:0.27808203 2:-3.8909375 
-1e-05 1:0.24561719 2:-2.2079375 
-1e-05 1:0.28167578 2:-4.304125 
-1e-05 1:0.27562695 2:-4.340375 
-1e-05 1:0.24125 2:-3.3565 
-1e-05 1:0.23192383 2:-3.22575 
-1e-05 1:0.28276953 2:-4.7361875 
-1e-05 1:0.34100781 2:-3.5708125 
-1e-05 1:0.23352539 2:-3.975125 
-1e-05 1:0.34244141 2:-3.0976875 
-1e-05 1:0.13290039 2:-2.3090625 
-1e-05 1:0.36560547 2:-4.0115625 
-1e-05 1:0.25330078 2:-2.620125 
-1e-05 1:0.21359375 2:-2.771125 
-1e-05 1:0.32594336 2:-3.5015 
-1e-05 1:0.33538281 2:-3.271875 
-1e-05 1:0.27471094 2:-5.619875 
-1e-05 1:0.24695898 2:-2.8726875 
-1e-05 1:0.25708008 2:-4.588 
-1e-05 1:0.17051563 2:-3.0683125 
-1e-05 1:0.19397852 2:-3.848375 
-1e-05 1:0.19169922 2:-3.3955 
-1e-05 1:0.27269141 2:-2.4061875 
-1e-05 1:0.24682813 2:-3.020875 
-1e-05 1:0.21110352 2:-3.1179375 
-1e-05 1:0.31226367 2:-3.6335625 
-1e-05 1:0.3218125 2:-4.0596875 
-1e-05 1:0.34258594 2:-4.0031875 
-1e-05 1:0.3360625 2:-5.0768125 
-1e-05 1:0.18131836 2:-2.6103125 
-1e-05 1:0.16165234 2:-2.727625 
-1e-05 1:0.2047832 2:-4.6410625 
-1e-05 1:0.20130273 2:-2.4938125 
-1e-05 1:0.252875 2:-4.820875 
-1e-05 1:0.28405273 2:-2.7609375 
-1e-05 1:0.20524805 2:-3.2940625 
-1e-05 1:0.23007227 2:-3.1764375 
-1e-05 1:0.22306445 2:-2.1304375 
-1e-05 1:0.26711914 2:-3.2993125 
-1e-05 1:0.24388867 2:-4.0931875 
-1e-05 1:0.28783594 2:-4.0601875 
-1e-05 1:0.15414062 2:-2.2021875 
-1e-05 1:0.22633984 2:-2.71225 
-1e-05 1:0.24400781 2:-3.856625 
-1e-05 1:0.23644727 2:-3.2451875 
-1e-05 1:0.29218359 2:-3.6641875 
-1e-05 1:0.28443359 2:-2.0958125 
-1e-05 1:0.23073047 2:-1.6185625 
-1e-05 1:0.36822461 2:-3.207625 
-1e-05 1:0.2292832 2:-3.793375 
-1e-05 1:0.23611133 2:-4.131375 
-1e-05 1:0.43701758 2:-4.488375 
-1e-05 1:0.38616211 2:-3.214625 
-1e-05 1:0.31565234 2:-4.6780625 
-1e-05 1:0.19752148 2:-2.3913125 
-1e-05 1:0.22680664 2:-3.8293125 
-1e-05 1:0.17201758 2:-2.700875 
-1e-05 1:0.30742383 2:-3.268875 
-1e-05 1:0.27598047 2:-3.708 
-1e-05 1:0.29252734 2:-2.577 
-1e-05 1:0.27103711 2:-3.3648125 
-1e-05 1:0.32322656 2:-3.5009375 
-1e-05 1:0.22158984 2:-3.21225 
-1e-05 1:0.23028906 2:-4.82625 
-1e-05 1:0.17536328 2:-3.52325 
-1e-05 1:0.24296484 2:-4.9265625 
-1e-05 1:0.20635547 2:-3.31375 
-1e-05 1:0.20316992 2:-3.5863125 
-1e-05 1:0.34807617 2:-3.3745 
-1e-05 1:0.23117383 2:-1.6263125 
-1e-05 1:0.17340039 2:-2.8970625 
-1e-05 1:0.1824375 2:-2.253375 
-1e-05 1:0.22170898 2:-2.994125 
-1e-05 1:0.2059375 2:-3.43675 
-1e-05 1:0.18333789 2:-2.972125 
-1e-05 1:0.32995703 2:-5.0885625 
-1e-05 1:0.34518164 2:-3.089625 
-1e-05 1:0.21728125 2:-3.6040625 
-1e-05 1:0.24790234 2:-2.0054375 
-1e-05 1:0.24279883 2:-4.3206875 
-1e-05 1:0.16273437 2:-3.362 
-1e-05 1:0.14829883 2:-3.12725 
-1e-05 1:0.28289062 2:-4.6854375 
-1e-05 1:0.29769922 2:-3.3219375 
-1e-05 1:0.26974414 2:-2.4686875 
-1e-05 1:0.41063281 2:-3.0335 
-1e-05 1:0.27291406 2:-4.54875 
-1e-05 1:0.33769336 2:-4.9349375 
-1e-05 1:0.37672852 2:-2.83925 
-1e-05 1:0.27688086 2:-3.00525 
-1e-05 1:0.34779297 2:-3.0171875 
-1e-05 1:0.23342188 2:-3.4863125 
-1e-05 1:0.28263867 2:-4.5860625 
-1e-05 1:0.3217832 2:-2.419625 
-1e-05 1:0.39533594 2:-6.7176875 
-1e-05 1:0.28213672 2:-5.9331875 
-1e-05 1:0.32939453 2:-4.4934375 
-1e-05 1:0.32936133 2:-2.6848125 
-1e-05 1:0.32199414 2:-3.3899375 
-1e-05 1:0.21166602 2:-4.4863125 
-1e-05 1:0.28295508 2:-0.9159375 
-1e-05 1:0.28249219 2:-5.382 
-1e-05 1:0.37358398 2:-1.4289375 
-1e-05 1:0.45644531 2:-5.909 
-1e-05 1:0.28070703 2:-3.386625 
-1e-05 1:0.40866992 2:-6.1975625 
-1e-05 1:0.25119922 2:-4.5901875 
-1e-05 1:0.35639844 2:-5.66275 
-1e-05 1:0.29777344 2:-3.685375 
-1e-05 1:0.21851953 2:-2.33275 
-1e-05 1:0.32717578 2:-3.737625 
-1e-05 1:0.28992578 2:-2.24675 
-1e-05 1:0.35313672 2:-3.7525625 
-1e-05 1:0.24664258 2:-2.0425625 
-1e-05 1:0.38183594 2:-2.5176875 
-1e-05 1:0.36061719 2:-4.7583125 
-1e-05 1:0.24798438 2:-1.645375 
-1e-05 1:0.26118359 2:-3.87125 
-1e-05 1:0.16975977 2:-3.0816875 
-1e-05 1:0.33693945 2:-3.259875 
-1e-05 1:0.25019141 2:-3.5898125 
-1e-05 1:0.29958203 2:-3.055375 
-1e-05 1:0.23005273 2:-3.1355625 
-1e-05 1:0.26474414 2:-4.135375 
-1e-05 1:0.39456641 2:-5.40375 
-1e-05 1:0.33640234 2:-3.262875 
-1e-05 1:0.31878516 2:-2.9740625 
-1e-05 1:0.19802344 2:-3.217 
-1e-05 1:0.18999219 2:-2.8030625 
-1e-05 1:0.48124219 2:-4.2619375 
-1e-05 1:0.39850391 2:-5.1421875 
-1e-05 1:0.29498828 2:-3.6255 
-1e-05 1:0.22382227 2:-3.1024375 
-1e-05 1:0.63630273 2:-3.811125 
-1e-05 1:0.39998242 2:-5.83025 
-1e-05 1:0.30944727 2:-4.920875 
-1e-05 1:0.38100195 2:-4.0913125 
-1e-05 1:0.19657227 2:-2.5599375 
-1e-05 1:0.28523633 2:-5.0523125 
-1e-05 1:0.30372656 2:-3.7325 
-1e-05 1:0.34957617 2:-4.8681875 
-1e-05 1:0.22933008 2:-1.4585 
-1e-05 1:0.20953125 2:-2.31975 
-1e-05 1:0.33252148 2:-2.671125 
-1e-05 1:0.33732617 2:-2.0031875 
-1e-05 1:0.24621484 2:-2.1268125 
-1e-05 1:0.26848047 2:-2.389375 
-1e-05 1:0.20867188 2:-2.972625 
-1e-05 1:0.26129297 2:-3.4439375 
-1e-05 1:0.36631055 2:-4.4484375 
-1e-05 1:0.21107031 2:-2.5110625 
-1e-05 1:0.24078906 2:-3.714875 
-1e-05 1:0.36097656 2:-4.47375 
-1e-05 1:0.22273828 2:-3.67025 
-1e-05 1:0.21485938 2:-2.81125 
-1e-05 1:0.15041211 2:-2.840125 
-1e-05 1:0.26586328 2:-1.8378125 
-1e-05 1:0.16663672 2:-0.9226875 
-1e-05 1:0.33104102 2:-2.396 
-1e-05 1:0.24013281 2:-3.9851875 
-1e-05 1:0.29282812 2:-3.0000625 
-1e-05 1:0.21201367 2:-2.6100625 
-1e-05 1:0.25363281 2:-2.1921875 
-1e-05 1:0.31439063 2:-1.372 
-1e-05 1:0.32114258 2:-3.879125 
-1e-05 1:0.34213672 2:-2.21525 
-1e-05 1:0.31833984 2:-3.9101875 
-1e-05 1:0.18915625 2:-2.730375 
-1e-05 1:0.2424082 2:-4.52975 
-1e-05 1:0.12989258 2:-2.002875 
-1e-05 1:0.16420898 2:-2.2751875 
-1e-05 1:0.35279102 2:-1.1444375 
-1e-05 1:0.37254492 2:-3.54475 
-1e-05 1:0.32970117 2:-4.3779375 
-1e-05 1:0.32062891 2:-3.608625 
-1e-05 1:0.23587695 2:-3.104625 
-1e-05 1:0.20524414 2:-2.742625 
-1e-05 1:0.34828516 2:-4.4009375 
-1e-05 1:0.4075293 2:-3.602375 
-1e-05 1:0.27020117 2:-4.633875 
-1e-05 1:0.34442578 2:-4.14075 
-1e-05 1:0.28167188 2:-1.3150625 
-1e-05 1:0.33244727 2:-5.4505 
-1e-05 1:0.25854297 2:-1.9469375 
-1e-05 1:0.28335937 2:-5.64725 
-1e-05 1:0.21907617 2:-2.309 
-1e-05 1:0.20453516 2:-2.7575 
-1e-05 1:0.24589844 2:-2.381375 
-1e-05 1:0.38547461 2:-3.8594375 
-1e-05 1:0.18537305 2:-2.150125 
-1e-05 1:0.2485918 2:-3.072625 
-1e-05 1:0.2670332 2:-4.2991875 
-1e-05 1:0.32821484 2:-3.377375 
-1e-05 1:0.27573242 2:-2.024875 
-1e-05 1:0.27304883 2:-2.7235625 
-1e-05 1:0.35416211 2:-5.13225 
-1e-05 1:0.2853125 2:-2.308875 
-1e-05 1:0.35437891 2:-3.67175 
-1e-05 1:0.48145117 2:-3.388 
-1e-05 1:0.27879883 2:-4.7460625 
-1e-05 1:0.19296289 2:-2.1853125 
-1e-05 1:0.27455664 2:-1.5620625 
-1e-05 1:0.24530078 2:-2.4893125 
-1e-05 1:0.31470898 2:-5.022375 
-1e-05 1:0.37425977 2:-6.9378125 
-1e-05 1:0.18386523 2:-2.3635 
-1e-05 1:0.22955859 2:-3.2878125 
-1e-05 1:0.20196094 2:-2.5460625 
-1e-05 1:0.19316602 2:-1.945125 
-1e-05 1:0.24685352 2:-3.0428125 
-1e-05 1:0.24696484 2:-2.446625 
-1e-05 1:0.26777344 2:-3.47225 
-1e-05 1:0.25980469 2:-4.1055 
-1e-05 1:0.17983789 2:-2.21075 
-1e-05 1:0.44936328 2:-4.8013125 
-1e-05 1:0.41378516 2:-2.7640625 
-1e-05 1:0.3052793 2:-3.3136875 
-1e-05 1:0.20828906 2:-3.446375 
-1e-05 1:0.16669336 2:-3.11175 
-1e-05 1:0.24243945 2:-2.4279375 
-1e-05 1:0.55966797 2:-2.449125 
-1e-05 1:0.27969727 2:-5.0708125 
-1e-05 1:0.34248828 2:-3.007375 
-1e-05 1:0.26470703 2:-3.743375 
-1e-05 1:0.2560957 2:-3.5296875 
-1e-05 1:0.21010352 2:-2.54275 
-1e-05 1:0.33385547 2:-3.1575 
-1e-05 1:0.22311914 2:-3.4271875 
-1e-05 1:0.40074023 2:-6.8451875 
-1e-05 1:0.16269141 2:-2.1070625 
-1e-05 1:0.33954297 2:-2.632375 
-1e-05 1:0.25723242 2:-3.903625 
-1e-05 1:0.41551562 2:-4.2259375 
-1e-05 1:0.2454043 2:-2.608125 
-1e-05 1:0.16996094 2:-2.7726875 
-1e-05 1:0.27501172 2:-4.4645625 
-1e-05 1:0.33283984 2:-3.3153125 
-1e-05 1:0.30686133 2:-6.5006875 
-1e-05 1:0.26757422 2:-3.5734375 
-1e-05 1:0.27630664 2:-2.03475 
-1e-05 1:0.30235937 2:-5.8390625 
-1e-05 1:0.24019922 2:-3.4763125 
-1e-05 1:0.4194082 2:-4.9998125 
-1e-05 1:0.28808594 2:-2.365375 
-1e-05 1:0.3371582 2:-3.8149375 
-1e-05 1:0.29001562 2:-3.314 
-1e-05 1:0.29567383 2:-3.2821875 
-1e-05 1:0.2689082 2:-3.412375 
-1e-05 1:0.24613477 2:-3.1555 
-1e-05 1:0.14553125 2:-1.92825 
-1e-05 1:0.25189063 2:-3.2545 
