svm_type c_svc
kernel_type rbf
gamma 80
nr_class 2
total_sv 1640
rho -0.370096
label 0 1
nr_sv 889 751
SV
10 1:0.23100195 2:-2.88675 
0.07237405833403329 1:0.18846094 2:-3.202 
10 1:0.44066992 2:-4.3504375 
10 1:0.21798242 2:-3.359625 
1.336918233498127 1:0.16395313 2:-2.691875 
10 1:0.42295508 2:-4.58325 
10 1:0.35011133 2:-4.5961875 
10 1:0.30645703 2:-2.082 
10 1:0.33792773 2:-3.1846875 
5.302064883362912 1:0.41233789 2:-5.5705 
5.746927469531227 1:0.37638086 2:-6.194875 
10 1:0.33248828 2:-2.502 
2.74906384250989 1:0.304 2:-4.2009375 
1.569049842989888 1:0.40496289 2:-6.0150625 
10 1:0.29694531 2:-3.1875 
8.832660256648756 1:0.36280664 2:-5.8456875 
10 1:0.3785957 2:-3.982125 
10 1:0.35701172 2:-4.0114375 
10 1:0.29733594 2:-3.103625 
10 1:0.20225391 2:-2.3948125 
10 1:0.33430859 2:-3.2810625 
10 1:0.32277539 2:-3.7033125 
10 1:0.33418555 2:-2.956375 
10 1:0.36934766 2:-3.1859375 
7.936775755522049 1:0.4166543 2:-6.32025 
10 1:0.25451758 2:-1.7416875 
10 1:0.30048633 2:-3.50575 
10 1:0.33440625 2:-3.9676875 
10 1:0.31355664 2:-4.3781875 
10 1:0.24953906 2:-2.5758125 
10 1:0.34135156 2:-3.9849375 
0.1168579493322728 1:0.37868359 2:-4.4215 
10 1:0.29270117 2:-3.2854375 
10 1:0.36500586 2:-4.0619375 
6.511226550051807 1:0.22575 2:-0.9669375 
9.225465752179412 1:0.22776367 2:-2.785125 
10 1:0.33098047 2:-2.8483125 
10 1:0.39789844 2:-2.9333125 
10 1:0.31657031 2:-3.592375 
10 1:0.21885156 2:-1.7906875 
10 1:0.31800195 2:-2.7066875 
10 1:0.29497461 2:-2.2556875 
10 1:0.28387305 2:-3.2044375 
10 1:0.23298633 2:-2.002375 
10 1:0.33290039 2:-3.62125 
10 1:0.22383594 2:-2.1114375 
10 1:0.40943945 2:-2.8265625 
10 1:0.31775 2:-3.28175 
0.6507566226146875 1:0.26702148 2:-5.8805 
3.890393701561288 1:0.46189453 2:-4.7460625 
0.004106951932891937 1:0.28038086 2:-4.51125 
10 1:0.4447832 2:-5.192375 
10 1:0.44478125 2:-4.250625 
10 1:0.34373047 2:-3.911375 
0.385142802284542 1:0.30793359 2:-6.8123125 
7.0000636880868 1:0.24226758 2:-5.4451875 
0.3354862603649212 1:0.089693359 2:-1.929 
10 1:0.26678516 2:-2.513375 
10 1:0.36351563 2:-4.783125 
10 1:0.19375391 2:-2.2433125 
10 1:0.31945313 2:-3.7214375 
10 1:0.3456543 2:-3.2239375 
4.829973137423002 1:0.19016016 2:-2.035125 
10 1:0.18525781 2:-3.2083125 
4.974458875488005 1:0.21332617 2:-4.2690625 
10 1:0.32058789 2:-2.162375 
4.358666522451877 1:0.40533789 2:-6.4565 
5.242766347883569 1:0.13626172 2:-2.8964375 
10 1:0.19665234 2:-1.8435 
3.026325853887145 1:0.33174023 2:-5.8703125 
10 1:0.343625 2:-3.1510625 
3.559151180271384 1:0.11014844 2:-2.056 
4.666266511978041 1:0.15299414 2:-3.1221875 
10 1:0.26129492 2:-2.958625 
10 1:0.22720898 2:-3.548 
2.194735900212014 1:0.17658008 2:-3.196125 
9.954445155069241 1:0.23530273 2:-1.1014375 
10 1:0.20922266 2:-2.4875625 
10 1:0.23852734 2:-3.167 
10 1:0.47007031 2:-3.4156875 
2.635636758707425 1:0.23894141 2:-3.915 
10 1:0.32891211 2:-3.746125 
10 1:0.25126563 2:-2.5884375 
10 1:0.2579707 2:-2.818 
10 1:0.31813086 2:-3.305625 
10 1:0.29736914 2:-3.4948125 
10 1:0.32923242 2:-4.2795625 
10 1:0.37532617 2:-3.6785 
10 1:0.21820898 2:-2.6646875 
10 1:0.28254102 2:-2.7315 
1.911213526539144 1:0.24461719 2:-3.759875 
10 1:0.30981836 2:-2.747 
10 1:0.2610918 2:-2.924625 
3.833875000108538 1:0.28346094 2:-1.1570625 
7.056327591686672 1:0.26345898 2:-4.1485 
10 1:0.11845703 2:-2.042875 
10 1:0.28462109 2:-2.889125 
0.5332964725274982 1:0.1092793 2:-0.1195 
10 1:0.39472266 2:-4.070375 
9.260725111463383 1:0.26691406 2:-3.8111875 
0.5179960491037585 1:0.18969141 2:-2.3571875 
3.044567811687045 1:0.18283203 2:-1.520625 
10 1:0.27315234 2:-2.730375 
10 1:0.29831641 2:-1.8839375 
0.4556647660354401 1:0.13518945 2:-1.040625 
0.8336380798721565 1:0.15191211 2:-2.062875 
10 1:0.22491602 2:-2.3835 
10 1:0.25205078 2:-2.93175 
10 1:0.29147852 2:-2.597125 
10 1:0.40959766 2:-4.346125 
10 1:0.31158398 2:-5.0321875 
10 1:0.27897461 2:-2.5580625 
6.376253330275292 1:0.41410156 2:-6.125625 
9.788436699825873 1:0.4319082 2:-4.9931875 
10 1:0.43238867 2:-2.8535625 
0.2657903984743636 1:0.31397852 2:-5.3356875 
1.184221254859669 1:0.22748242 2:-4.72475 
4.886906932471549 1:0.46158789 2:-6.3245 
10 1:0.32033984 2:-3.4545625 
0.8221299417652506 1:0.3985957 2:-4.82175 
10 1:0.35455664 2:-3.95475 
0.4232957700307696 1:0.11273828 2:-2.7833125 
0.3115684315662015 1:0.068253906 2:-1.364625 
10 1:0.25313672 2:-2.7315 
3.726068597400675 1:0.32633594 2:-3.9435 
10 1:0.24210937 2:-3.6994375 
10 1:0.35445117 2:-2.0418125 
1.672977490064876 1:0.2340332 2:-4.46175 
10 1:0.24998438 2:-4.0945625 
9.851230862257632 1:0.37238281 2:-5.6673125 
4.650841530556991 1:0.31777148 2:-5.3259375 
10 1:0.33055078 2:-3.4485 
2.532513987066014 1:0.37456445 2:-3.8265 
0.4296145530317957 1:0.45618164 2:-6.5829375 
10 1:0.23009766 2:-1.691 
10 1:0.29933008 2:-3.1620625 
10 1:0.30196484 2:-2.5315 
2.273627638476644 1:0.17382031 2:-1.9191875 
10 1:0.30962891 2:-2.9985 
10 1:0.2519707 2:-2.6255625 
10 1:0.30011328 2:-3.26075 
10 1:0.31998242 2:-4.3355 
10 1:0.41484961 2:-3.875875 
9.053960848456438 1:0.30993359 2:-5.042375 
10 1:0.2994707 2:-3.6604375 
0.4732602217074693 1:0.52801953 2:-5.481 
8.408208890951652 1:0.28832227 2:-3.2866875 
10 1:0.11805469 2:-2.27 
1.261977842830169 1:0.17107227 2:-1.879375 
2.520360690466839 1:0.45111328 2:-4.638 
10 1:0.21329102 2:-1.593375 
10 1:0.24764258 2:-2.31925 
10 1:0.22388477 2:-3.3609375 
10 1:0.3485918 2:-4.0465625 
10 1:0.25099805 2:-3.2134375 
1.749492036568746 1:0.26556641 2:-4.6180625 
0.102555753987431 1:0.12512305 2:-2.84225 
10 1:0.29859766 2:-3.285875 
10 1:0.46312695 2:-4.068625 
1.418636098572839 1:0.42146484 2:-5.1829375 
10 1:0.36505078 2:-3.2536875 
7.491434065558421 1:0.29157422 2:-3.5221875 
10 1:0.31746484 2:-3.2116875 
10 1:0.24810742 2:-2.2230625 
0.4155802354808627 1:0.24325195 2:-0.4575625 
10 1:0.22049219 2:-2.84775 
1.357202033408295 1:0.40097656 2:-4.777375 
10 1:0.40966797 2:-3.993875 
1.546159778875139 1:0.15200391 2:-2.9595625 
10 1:0.30438672 2:-2.5859375 
10 1:0.32357812 2:-3.277 
6.656837387091882 1:0.20155859 2:-2.3331875 
0.3173013809463819 1:0.071806641 2:-0.5965625 
10 1:0.43250195 2:-4.395375 
10 1:0.27411523 2:-3.071875 
10 1:0.34156445 2:-3.5378125 
10 1:0.37650977 2:-3.31375 
0.7587181276507358 1:0.20847656 2:-4.722875 
3.845323447633167 1:0.27905078 2:-4.1588125 
5.517040922002328 1:0.35983789 2:-4.137 
0.6674162662225807 1:0.22792773 2:-3.4629375 
10 1:0.31178516 2:-2.6841875 
10 1:0.28626953 2:-2.63325 
10 1:0.3564082 2:-4.6351875 
0.1928901795819924 1:0.16332227 2:-0.216 
0.08253275629340454 1:0.35349219 2:-6.191 
10 1:0.30227734 2:-2.2331875 
1.342731977045803 1:0.31701953 2:-3.7220625 
10 1:0.28037109 2:-1.59875 
10 1:0.21647656 2:-1.9361875 
10 1:0.24942188 2:-1.6803125 
10 1:0.30717578 2:-3.554125 
10 1:0.23359961 2:-3.19325 
10 1:0.32233594 2:-3.5528125 
10 1:0.32863477 2:-3.693375 
0.2313774101754074 1:0.28302148 2:-3.572375 
10 1:0.41108008 2:-4.3343125 
10 1:0.22654883 2:-3.437625 
0.1857049466013289 1:0.41219531 2:-7.08375 
10 1:0.42868164 2:-3.7133125 
10 1:0.35747656 2:-4.5548125 
10 1:0.25036328 2:-3.019875 
0.02117236707594753 1:0.29452344 2:-5.858625 
10 1:0.31426953 2:-4.364125 
10 1:0.4081543 2:-3.5719375 
10 1:0.21929688 2:-1.9210625 
10 1:0.30339062 2:-3.2913125 
10 1:0.30611523 2:-2.9101875 
10 1:0.15420898 2:-1.619875 
10 1:0.47209961 2:-4.102375 
4.993343246266522 1:0.2723418 2:-3.8523125 
10 1:0.3401875 2:-1.4686875 
10 1:0.32116602 2:-1.6766875 
10 1:0.21329492 2:-2.4545 
0.2090656996429805 1:0.23394336 2:-2.904 
10 1:0.25153906 2:-3.174125 
10 1:0.34270508 2:-2.6396875 
10 1:0.48716016 2:-4.86025 
10 1:0.22915234 2:-1.374375 
1.867533204119058 1:0.14358984 2:-3.1105 
10 1:0.27933008 2:-2.861125 
10 1:0.33480664 2:-2.5214375 
10 1:0.19580078 2:-3.2155625 
10 1:0.25565625 2:-1.4544375 
10 1:0.40971094 2:-4.368375 
10 1:0.39804688 2:-4.837375 
10 1:0.22255859 2:-2.02525 
10 1:0.31239258 2:-3.335375 
10 1:0.35457227 2:-3.133 
10 1:0.28976953 2:-3.163375 
10 1:0.34318555 2:-4.044125 
0.1384777694477338 1:0.25238086 2:-5.8245 
10 1:0.27779687 2:-2.887375 
10 1:0.27866992 2:-3.1021875 
10 1:0.29874609 2:-4.2219375 
6.317614775075535 1:0.46201172 2:-5.260375 
1.703074690014823 1:0.34758984 2:-4.6420625 
10 1:0.32765234 2:-4.0785625 
0.2284574401475443 1:0.21677539 2:-1.36575 
5.019785676629401 1:0.2920332 2:-4.6695 
4.651423695621114 1:0.31404102 2:-4.346125 
7.572636266315871 1:0.20256055 2:-1.8050625 
3.804912860066209 1:0.20248633 2:-1.470125 
10 1:0.21135742 2:-2.489 
8.282223367901787 1:0.31603125 2:-3.776875 
10 1:0.23958398 2:-2.7159375 
10 1:0.24349805 2:-2.2509375 
0.2517048861889183 1:0.26716211 2:-0.6474375 
10 1:0.41253516 2:-4.57525 
10 1:0.18532422 2:-1.690875 
0.1751922058056138 1:0.15058984 2:-0.7519375 
6.428359862319624 1:0.19408398 2:-3.2364375 
4.964075876887878 1:0.40841602 2:-5.890375 
10 1:0.19689648 2:-1.5423125 
1.422849025358167 1:0.24887109 2:-0.7735625 
1.791457783285653 1:0.14681641 2:-0.7633125 
0.1693875569548748 1:0.13424609 2:-1.040625 
0.5550475449179997 1:0.26592187 2:-4.030375 
0.1744185129716423 1:0.077960938 2:-0.51175 
10 1:0.44980664 2:-3.9481875 
10 1:0.36369141 2:-2.1930625 
10 1:0.25078516 2:-2.29325 
10 1:0.20061523 2:-1.3003125 
10 1:0.32398242 2:-3.5039375 
3.20849452020949 1:0.23345117 2:-1.063375 
10 1:0.28416211 2:-1.2368125 
10 1:0.28879492 2:-3.6378125 
10 1:0.20150586 2:-2.223875 
0.2257183484416295 1:0.32047656 2:-5.663 
1.07965578711152 1:0.25096484 2:-4.1090625 
2.26379766933163 1:0.26593359 2:-3.9913125 
0.3178472823816417 1:0.33136133 2:-4.273 
0.2716517775985502 1:0.40245898 2:-4.9370625 
10 1:0.28633789 2:-3.591 
10 1:0.15925781 2:-2.598 
10 1:0.38073633 2:-3.9090625 
10 1:0.38706445 2:-4.7500625 
10 1:0.28401758 2:-3.2515625 
10 1:0.30668164 2:-3.5968125 
10 1:0.25750977 2:-2.2086875 
1.237548173812394 1:0.3180957 2:-4.3368125 
10 1:0.31791016 2:-3.7708125 
10 1:0.48707422 2:-3.45225 
10 1:0.26771875 2:-2.972875 
10 1:0.22813086 2:-2.677875 
10 1:0.40599219 2:-2.685625 
10 1:0.35265234 2:-4.1054375 
10 1:0.24357227 2:-2.9170625 
10 1:0.42968359 2:-4.415625 
10 1:0.37522461 2:-4.0751875 
10 1:0.33538672 2:-3.9215625 
10 1:0.34663867 2:-2.43325 
6.397494543469932 1:0.24713086 2:-4.376625 
10 1:0.21419336 2:-1.8233125 
10 1:0.22320313 2:-2.806375 
6.28775430397986 1:0.19113086 2:-0.9529375 
10 1:0.30995703 2:-2.99925 
10 1:0.32399805 2:-3.6455625 
0.2258319682492975 1:0.38608203 2:-5.83775 
0.3326008221012641 1:0.17910547 2:-3.856 
10 1:0.36791797 2:-1.7798125 
10 1:0.28936719 2:-4.1814375 
10 1:0.38985742 2:-2.2789375 
10 1:0.30313867 2:-3.5388125 
10 1:0.32626953 2:-3.5511875 
10 1:0.24451562 2:-2.5500625 
10 1:0.19193359 2:-1.929375 
10 1:0.23297852 2:-3.4668125 
10 1:0.44749609 2:-3.6575625 
10 1:0.27644531 2:-2.738125 
10 1:0.23229883 2:-2.5465625 
10 1:0.22887305 2:-3.4574375 
1.333706322548363 1:0.39774414 2:-6.05375 
10 1:0.29217773 2:-3.0855625 
10 1:0.45689844 2:-4.434625 
10 1:0.43435742 2:-3.4658125 
10 1:0.18168164 2:-1.866875 
5.119419553534879 1:0.22074023 2:-4.273625 
9.209347325002426 1:0.2063125 2:-3.6064375 
10 1:0.37414063 2:-4.146625 
10 1:0.22959961 2:-2.5274375 
10 1:0.27471484 2:-2.5206875 
10 1:0.30963086 2:-2.8083125 
5.398450962293943 1:0.24479297 2:-1.2194375 
10 1:0.38985547 2:-3.799625 
10 1:0.26881055 2:-3.0364375 
4.25313154952003 1:0.32364258 2:-0.9266875 
10 1:0.40190039 2:-4.0061875 
10 1:0.41519336 2:-4.189625 
0.3175424202693287 1:0.38049805 2:-4.2808125 
10 1:0.23202734 2:-1.8263125 
10 1:0.29225195 2:-2.52325 
10 1:0.22368359 2:-2.012125 
10 1:0.22722266 2:-2.2946875 
10 1:0.19761133 2:-2.0180625 
1.936052325866112 1:0.23667383 2:-3.7280625 
8.534354686264443 1:0.1951543 2:-2.4258125 
10 1:0.31636133 2:-2.7805 
10 1:0.29560156 2:-2.88125 
10 1:0.30330469 2:-2.7196875 
7.197612107225273 1:0.32060352 2:-4.442625 
10 1:0.29921875 2:-4.207375 
10 1:0.30803125 2:-3.0019375 
1.908095233841762 1:0.29112109 2:-4.6861875 
10 1:0.33392969 2:-4.0231875 
0.6562664128528335 1:0.31042773 2:-4.4314375 
10 1:0.41067188 2:-4.9038125 
10 1:0.26800977 2:-2.4195 
2.40278021953161 1:0.20493945 2:-4.4815625 
10 1:0.27028711 2:-2.9045 
10 1:0.36425586 2:-4.5600625 
10 1:0.27479297 2:-3.251625 
10 1:0.32768164 2:-3.8809375 
5.796762510896687 1:0.30526953 2:-5.664125 
10 1:0.23367578 2:-2.1321875 
10 1:0.38264844 2:-5.1065 
10 1:0.27766797 2:-3.8261875 
6.214935074150278 1:0.23712891 2:-4.3549375 
10 1:0.38944922 2:-2.8925625 
10 1:0.26929297 2:-2.8614375 
3.069406469613356 1:0.30473828 2:-5.8505 
10 1:0.26537109 2:-3.0890625 
0.5547229291682224 1:0.2922207 2:-5.43275 
10 1:0.38280273 2:-4.365125 
10 1:0.33487109 2:-3.044875 
1.910825360896883 1:0.37858984 2:-6.0868125 
9.083296636364862 1:0.31535937 2:-4.855125 
0.4364783442953685 1:0.21053711 2:-3.5961875 
10 1:0.32547656 2:-3.5169375 
10 1:0.23971289 2:-2.3139375 
2.366167827845809 1:0.20780078 2:-3.6144375 
3.060903216112266 1:0.38570117 2:-6.1624375 
0.3413814251078393 1:0.2179043 2:-4.7313125 
10 1:0.49560547 2:-4.876 
7.112742924591484 1:0.46247266 2:-6.5006875 
10 1:0.33358984 2:-2.0735 
2.701032766043231 1:0.47258203 2:-5.1478125 
10 1:0.24683398 2:-3.15875 
0.9655394702544615 1:0.31580664 2:-4.41175 
2.316921779514298 1:0.22221094 2:-3.5665625 
10 1:0.27886328 2:-2.8150625 
10 1:0.27945898 2:-3.1124375 
10 1:0.33678711 2:-3.9640625 
5.928620120386361 1:0.24440234 2:-2.9349375 
10 1:0.45806641 2:-2.8064375 
2.848368758233526 1:0.38851953 2:-5.6038125 
10 1:0.33355664 2:-3.210625 
1.522023185814597 1:0.32726172 2:-4.3330625 
6.877709980438592 1:0.17159961 2:-0.75375 
5.348939376685337 1:0.37282422 2:-4.1736875 
10 1:0.25325586 2:-2.34125 
10 1:0.39117773 2:-4.3866875 
10 1:0.28838281 2:-3.5944375 
10 1:0.38054102 2:-4.196375 
5.021997868398031 1:0.20280469 2:-1.346875 
10 1:0.39165625 2:-3.201875 
10 1:0.31787891 2:-2.8479375 
3.230911391439792 1:0.32580078 2:-5.342 
10 1:0.23895898 2:-3.72025 
10 1:0.38961328 2:-2.5674375 
10 1:0.30931641 2:-2.750125 
0.4404194141316121 1:0.53747656 2:-5.9125 
10 1:0.37639453 2:-2.792375 
10 1:0.3757207 2:-4.5140625 
10 1:0.49851172 2:-4.012375 
10 1:0.25284766 2:-1.5586875 
10 1:0.34680664 2:-2.6586875 
10 1:0.32651172 2:-2.089 
10 1:0.25475977 2:-3.0795 
10 1:0.20885547 2:-2.3333125 
10 1:0.27357227 2:-4.515875 
10 1:0.34861719 2:-3.627625 
10 1:0.26035937 2:-1.318125 
10 1:0.26051563 2:-3.0916875 
0.3708860497123454 1:0.15591602 2:-3.776625 
10 1:0.26091406 2:-2.994125 
10 1:0.18579297 2:-1.535625 
3.997686096407461 1:0.32371875 2:-4.4525 
0.0959275345945521 1:0.41975 2:-5.11875 
10 1:0.4163418 2:-3.113875 
10 1:0.17887109 2:-3.1995625 
1.492461403454849 1:0.14595117 2:-3.081875 
10 1:0.22082812 2:-2.6729375 
10 1:0.20934766 2:-2.263375 
0.05550526496304446 1:0.18941211 2:-4.615375 
10 1:0.25332031 2:-3.16875 
10 1:0.20646875 2:-2.1166875 
10 1:0.27666992 2:-2.86875 
10 1:0.22798828 2:-2.3349375 
10 1:0.23383398 2:-2.8864375 
2.771922033461227 1:0.23659766 2:-4.324125 
10 1:0.26776367 2:-4.0185625 
10 1:0.21741797 2:-3.3318125 
7.050456921945282 1:0.23675195 2:-3.4498125 
1.386830328023419 1:0.16170898 2:-3.8336875 
10 1:0.38328516 2:-4.62175 
10 1:0.2137168 2:-3.3163125 
10 1:0.4074082 2:-3.9875 
0.4252731207403136 1:0.2464082 2:-3.9310625 
4.326018607197497 1:0.43591602 2:-5.860375 
10 1:0.25452539 2:-1.412375 
1.003149828046249 1:0.26012891 2:-0.84825 
0.4081874769764645 1:0.19995117 2:-4.736 
10 1:0.24561719 2:-2.2079375 
5.0768518056946 1:0.15744727 2:-3.6728125 
1.577659668233178 1:0.45997461 2:-6.2921875 
10 1:0.34348242 2:-3.792 
10 1:0.22622461 2:-3.44825 
10 1:0.39061133 2:-3.7198125 
1.24167294900855 1:0.20339844 2:-3.30575 
2.607161895392005 1:0.15875781 2:-2.5898125 
10 1:0.34100781 2:-3.5708125 
6.360008442729944 1:0.28875781 2:-4.933 
10 1:0.27839453 2:-2.256625 
10 1:0.34244141 2:-3.0976875 
0.2231377095778002 1:0.35058203 2:-5.5184375 
9.161323487149518 1:0.48474609 2:-6.674125 
10 1:0.36560547 2:-4.0115625 
0.3221610577107973 1:0.42489258 2:-5.367 
10 1:0.28249414 2:-2.825 
10 1:0.40465039 2:-3.5784375 
10 1:0.25330078 2:-2.620125 
8.204053310731826 1:0.28777148 2:-3.8546875 
9.198438276848711 1:0.18408398 2:-1.84125 
0.5074126298027769 1:0.23705078 2:-3.43175 
10 1:0.29553906 2:-3.6444375 
10 1:0.26292969 2:-2.64375 
10 1:0.32594336 2:-3.5015 
10 1:0.33538281 2:-3.271875 
10 1:0.45030664 2:-4.5109375 
10 1:0.38406055 2:-4.01 
10 1:0.31895703 2:-3.3794375 
10 1:0.30638672 2:-3.60425 
10 1:0.24695898 2:-2.8726875 
2.241973089424578 1:0.1194082 2:-2.294 
10 1:0.27269141 2:-2.4061875 
7.245228507011197 1:0.27074414 2:-3.84525 
10 1:0.40238867 2:-4.4288125 
10 1:0.24682813 2:-3.020875 
10 1:0.3155957 2:-4.250125 
2.426727954503368 1:0.32173438 2:-3.9305 
1.703452986587883 1:0.10699219 2:-1.968375 
3.163904017699766 1:0.29419531 2:-5.00075 
0.233955287629003 1:0.087685547 2:-0.4531875 
10 1:0.31226367 2:-3.6335625 
9.13044529442263 1:0.15374414 2:-2.988625 
10 1:0.3218125 2:-4.0596875 
10 1:0.34258594 2:-4.0031875 
5.889366595212961 1:0.20376172 2:-0.978 
8.057302559990053 1:0.268375 2:-5.1638125 
10 1:0.35527734 2:-2.8031875 
10 1:0.43747852 2:-3.440125 
10 1:0.18489648 2:-2.2105625 
5.754518387892292 1:0.38236328 2:-5.1270625 
10 1:0.28405273 2:-2.7609375 
2.193992524916439 1:0.27037305 2:-5.205125 
0.4078904781692805 1:0.16586328 2:-4.110875 
10 1:0.22306445 2:-2.1304375 
10 1:0.28167578 2:-3.8419375 
10 1:0.38253711 2:-4.640375 
5.338156282320946 1:0.25813672 2:-5.1858125 
5.363932032243684 1:0.15643164 2:-2.609 
10 1:0.23113867 2:-2.8440625 
10 1:0.38785547 2:-6.0408125 
10 1:0.32640039 2:-3.9146875 
1.073113780199942 1:0.35314844 2:-5.3280625 
1.909541450766173 1:0.43064648 2:-5.9849375 
10 1:0.26006055 2:-4.025625 
10 1:0.32193164 2:-3.7441875 
0.4148264772121766 1:0.23102539 2:-0.31325 
10 1:0.29218359 2:-3.6641875 
8.232980473151597 1:0.29203516 2:-4.9071875 
10 1:0.28443359 2:-2.0958125 
10 1:0.23073047 2:-1.6185625 
10 1:0.43398242 2:-2.614875 
0.9915556400423694 1:0.45663086 2:-6.1100625 
10 1:0.36822461 2:-3.207625 
1.190761907571631 1:0.23816016 2:-3.161375 
4.066776111274735 1:0.24245508 2:-4.3968125 
10 1:0.23630273 2:-1.0464375 
10 1:0.43701758 2:-4.488375 
10 1:0.38616211 2:-3.214625 
10 1:0.19752148 2:-2.3913125 
1.179843536419 1:0.3662168 2:-5.5426875 
10 1:0.30742383 2:-3.268875 
3.114215918478995 1:0.32339258 2:-4.312625 
10 1:0.29252734 2:-2.577 
10 1:0.29430664 2:-3.5336875 
10 1:0.25026758 2:-2.719625 
8.916113316006559 1:0.27103711 2:-3.3648125 
10 1:0.32322656 2:-3.5009375 
1.701907229331187 1:0.22599609 2:-5.2086875 
2.17517650238299 1:0.22781055 2:-4.3150625 
0.1469621585427773 1:0.25176172 2:-4.0845 
1.106798630834575 1:0.1867168 2:-3.8624375 
10 1:0.20635547 2:-3.31375 
10 1:0.2743457 2:-3.3559375 
0.5000714787081036 1:0.22541211 2:-5.2675 
10 1:0.31555273 2:-3.88875 
10 1:0.34807617 2:-3.3745 
10 1:0.23117383 2:-1.6263125 
6.981536575569723 1:0.27326758 2:-5.4265 
10 1:0.22355273 2:-2.8776875 
10 1:0.36907031 2:-3.72325 
8.535313031054535 1:0.37413281 2:-4.75325 
10 1:0.34518164 2:-3.089625 
10 1:0.2531543 2:-3.0548125 
10 1:0.30327344 2:-3.6006875 
2.785899462097493 1:0.36801953 2:-6.04 
10 1:0.24790234 2:-2.0054375 
10 1:0.23780469 2:-3.697 
3.544472166454205 1:0.1295293 2:-3.367125 
0.7890536347564923 1:0.15964258 2:-4.055 
0.237728478847885 1:0.076214844 2:-0.8195 
10 1:0.34413281 2:-2.960375 
2.509682467953434 1:0.28289062 2:-4.6854375 
10 1:0.25038867 2:-3.137 
10 1:0.29769922 2:-3.3219375 
10 1:0.26974414 2:-2.4686875 
1.383268025056627 1:0.25951953 2:-5.152625 
10 1:0.41063281 2:-3.0335 
10 1:0.29588281 2:-5.0153125 
10 1:0.40826563 2:-3.8423125 
5.066486434982563 1:0.28025586 2:-5.4515 
10 1:0.24451758 2:-2.7610625 
10 1:0.35262109 2:-3.0621875 
10 1:0.2990332 2:-2.155 
10 1:0.37672852 2:-2.83925 
10 1:0.40715039 2:-4.4429375 
2.1220411290148 1:0.36196094 2:-4.796 
10 1:0.28526758 2:-3.844625 
10 1:0.40497656 2:-2.8505625 
10 1:0.39553906 2:-4.077875 
10 1:0.27688086 2:-3.00525 
0.5672801376101815 1:0.34759375 2:-5.3243125 
10 1:0.34779297 2:-3.0171875 
6.677332692322615 1:0.28905469 2:-3.669375 
2.639000988397181 1:0.16077539 2:-2.996375 
10 1:0.26649414 2:-2.323875 
10 1:0.369375 2:-4.5480625 
10 1:0.3217832 2:-2.419625 
10 1:0.2951543 2:-3.1799375 
10 1:0.3555332 2:-3.0255 
1.037634638947089 1:0.16407031 2:-0.9909375 
10 1:0.25304492 2:-2.577 
10 1:0.28017773 2:-4.6630625 
1.728598362263696 1:0.20410352 2:-5.0283125 
1.357393925633872 1:0.23721094 2:-4.3766875 
10 1:0.39812109 2:-4.224375 
10 1:0.27809375 2:-4.651125 
3.955897712186399 1:0.14642578 2:-1.6275625 
10 1:0.35793945 2:-3.3578125 
8.021459706052063 1:0.39202148 2:-4.8614375 
0.02820943270757157 1:0.088917969 2:-0.41075 
10 1:0.32936133 2:-2.6848125 
10 1:0.22366992 2:-1.713625 
10 1:0.33401758 2:-3.5395 
10 1:0.32199414 2:-3.3899375 
4.771685446502054 1:0.27218164 2:-4.5251875 
2.630795895173978 1:0.15094531 2:-2.6941875 
10 1:0.33609961 2:-3.7926875 
9.771096048214286 1:0.28295508 2:-0.9159375 
0.5291668298831589 1:0.30941602 2:-4.469125 
4.134796917667244 1:0.34149805 2:-4.603125 
10 1:0.37358398 2:-1.4289375 
5.692018503637644 1:0.45644531 2:-5.909 
10 1:0.28070703 2:-3.386625 
10 1:0.38399414 2:-3.8518125 
0.2266409174192471 1:0.31308203 2:-6.5335625 
8.395269349542669 1:0.36859961 2:-5.0895625 
10 1:0.4497168 2:-4.510125 
10 1:0.23867578 2:-2.756 
0.624677769691522 1:0.41330273 2:-6.1581875 
10 1:0.27480078 2:-3.3963125 
6.895422326604757 1:0.22188477 2:-3.3343125 
10 1:0.3109375 2:-4.4159375 
10 1:0.30215625 2:-3.0803125 
0.9576427958685154 1:0.22756836 2:-4.4533125 
0.007246136796811401 1:0.076787109 2:-1.723625 
4.264566265138131 1:0.434875 2:-4.560125 
10 1:0.37324023 2:-3.38975 
10 1:0.30438281 2:-3.43725 
10 1:0.29839258 2:-3.6773125 
10 1:0.23986133 2:-2.677 
10 1:0.21851953 2:-2.33275 
4.905828245251392 1:0.22129492 2:-3.366625 
10 1:0.32717578 2:-3.737625 
10 1:0.28992578 2:-2.24675 
10 1:0.35313672 2:-3.7525625 
10 1:0.24664258 2:-2.0425625 
6.959836285754802 1:0.2326875 2:-4.4476875 
10 1:0.29119141 2:-3.1743125 
10 1:0.38183594 2:-2.5176875 
10 1:0.32254492 2:-3.2290625 
10 1:0.24798438 2:-1.645375 
10 1:0.31914844 2:-4.2864375 
10 1:0.29499023 2:-2.921 
10 1:0.24219531 2:-1.26275 
10 1:0.30561719 2:-4.2335 
0.1022268356001359 1:0.24021875 2:-0.7291875 
0.2973014060622263 1:0.16263281 2:-4.21425 
2.050823686417465 1:0.34544727 2:-5.52875 
10 1:0.23100195 2:-2.6498125 
0.9400359026535939 1:0.27213672 2:-4.651375 
7.288004525305163 1:0.34039258 2:-4.108125 
4.417834515166482 1:0.31331641 2:-3.9036875 
10 1:0.36108594 2:-3.895375 
5.914866557411928 1:0.24048633 2:-3.747625 
5.621368139750123 1:0.32211914 2:-4.326625 
10 1:0.31258203 2:-4.3628125 
10 1:0.33679883 2:-3.4530625 
10 1:0.30251172 2:-3.3386875 
10 1:0.39397461 2:-3.8175 
10 1:0.32649414 2:-4.8268125 
10 1:0.31943359 2:-2.8864375 
10 1:0.23944336 2:-3.7123125 
10 1:0.33693945 2:-3.259875 
10 1:0.39655859 2:-4.51775 
9.883760066748104 1:0.46754492 2:-5.648125 
10 1:0.40025 2:-3.6605 
3.375609089419434 1:0.43192969 2:-5.2444375 
10 1:0.22739063 2:-3.4049375 
10 1:0.29958203 2:-3.055375 
0.5844338768525335 1:0.29301563 2:-5.014 
0.2219654711501989 1:0.3259375 2:-5.6773125 
0.3171963865988064 1:0.24896289 2:-5.6844375 
10 1:0.30482617 2:-3.0379375 
10 1:0.35208398 2:-2.5773125 
10 1:0.26474414 2:-4.135375 
10 1:0.401375 2:-3.7811875 
10 1:0.33640234 2:-3.262875 
10 1:0.27979687 2:-4.1613125 
0.6021471801577003 1:0.28152734 2:-5.4225 
10 1:0.41133203 2:-3.5669375 
10 1:0.30291602 2:-0.991625 
10 1:0.31554102 2:-1.5011875 
10 1:0.31878516 2:-2.9740625 
10 1:0.38608594 2:-4.26 
10 1:0.24112305 2:-2.88025 
0.6475992017468737 1:0.1945957 2:-4.7073125 
1.42229505836066 1:0.19802344 2:-3.217 
0.4161940966183793 1:0.22877148 2:-3.5505625 
10 1:0.48124219 2:-4.2619375 
0.5259620267562486 1:0.39850391 2:-5.1421875 
10 1:0.39028711 2:-4.6720625 
10 1:0.29498828 2:-3.6255 
3.956211509674219 1:0.28974219 2:-4.1793125 
1.770296265826063 1:0.63630273 2:-3.811125 
10 1:0.43359375 2:-3.0754375 
1.716821274132011 1:0.23612891 2:-4.33225 
10 1:0.22305664 2:-3.5366875 
0.5491604132650107 1:0.40119336 2:-7.3266875 
10 1:0.38100195 2:-4.0913125 
10 1:0.2800918 2:-3.8188125 
10 1:0.25068945 2:-3.924375 
2.550452770363897 1:0.24238281 2:-4.45375 
2.692036119888752 1:0.26789844 2:-4.5989375 
2.637123526763249 1:0.35631055 2:-5.519 
0.2055825113297921 1:0.42124023 2:-5.3928125 
10 1:0.22480859 2:-2.255625 
10 1:0.22933008 2:-1.4585 
10 1:0.50546875 2:-2.978125 
10 1:0.4310957 2:-3.0286875 
10 1:0.39603125 2:-4.306 
9.367377984390506 1:0.39371289 2:-5.3565 
8.742697477543182 1:0.34011914 2:-4.586625 
10 1:0.33252148 2:-2.671125 
0.7561213779859284 1:0.41813477 2:-4.671875 
10 1:0.25547266 2:-3.1161875 
10 1:0.2628418 2:-2.9529375 
10 1:0.33732617 2:-2.0031875 
10 1:0.38274609 2:-3.323375 
10 1:0.3116875 2:-3.424125 
10 1:0.46185352 2:-4.74475 
10 1:0.41732812 2:-3.825625 
10 1:0.32971875 2:-3.6864375 
10 1:0.33603906 2:-3.70375 
10 1:0.2912832 2:-3.3300625 
10 1:0.39505078 2:-4.75675 
10 1:0.24621484 2:-2.1268125 
10 1:0.26848047 2:-2.389375 
5.950266254686227 1:0.21675781 2:-2.693 
4.396179216344613 1:0.29956055 2:-4.238375 
10 1:0.3421875 2:-3.4231875 
10 1:0.3277207 2:-3.7340625 
6.595118823307298 1:0.21192773 2:-2.841125 
10 1:0.45179883 2:-3.507 
1.251775206548696 1:0.23122266 2:-3.48075 
9.064441446817954 1:0.24192773 2:-3.6948125 
10 1:0.21107031 2:-2.5110625 
1.462145319822934 1:0.23905859 2:-4.34175 
10 1:0.21903711 2:-2.3874375 
0.2838978529778083 1:0.25545898 2:-4.041 
10 1:0.24078906 2:-3.714875 
10 1:0.25980859 2:-2.995 
10 1:0.25639453 2:-2.3706875 
10 1:0.31054492 2:-4.243875 
0.3595969489766003 1:0.30711719 2:-6.25125 
0.2349302936083387 1:0.26615234 2:-6.0169375 
10 1:0.26586328 2:-1.8378125 
3.92413378805611 1:0.32654883 2:-4.3288125 
10 1:0.19230078 2:-1.6540625 
10 1:0.33104102 2:-2.396 
10 1:0.31710937 2:-4.3620625 
10 1:0.29282812 2:-3.0000625 
10 1:0.36771484 2:-4.042875 
10 1:0.27030078 2:-1.6701875 
10 1:0.46342969 2:-3.82325 
1.936181362658526 1:0.41792383 2:-5.6728125 
10 1:0.45973828 2:-3.94875 
0.05577837544954384 1:0.23528906 2:-5.5748125 
2.465872364950689 1:0.22977344 2:-4.459 
3.754918979288628 1:0.24811523 2:-4.385125 
10 1:0.25363281 2:-2.1921875 
10 1:0.4510293 2:-4.106875 
1.274140159457815 1:0.1407832 2:-1.13525 
2.195361817640903 1:0.1527168 2:-1.0211875 
7.85982782125431 1:0.22599805 2:-4.295625 
0.3575745375607818 1:0.26445117 2:-6.1681875 
0.1628295750073912 1:0.26888086 2:-3.809625 
10 1:0.31439063 2:-1.372 
10 1:0.43722656 2:-4.279375 
10 1:0.2700332 2:-3.06725 
10 1:0.34213672 2:-2.21525 
10 1:0.31833984 2:-3.9101875 
1.997312868136471 1:0.32984766 2:-4.237625 
9.315727406783589 1:0.12989258 2:-2.002875 
10 1:0.25445313 2:-3.2235625 
10 1:0.35279102 2:-1.1444375 
10 1:0.37254492 2:-3.54475 
10 1:0.32062891 2:-3.608625 
10 1:0.4075293 2:-3.602375 
0.2009897912167713 1:0.24347461 2:-0.5854375 
9.826468543021953 1:0.24691016 2:-5.0823125 
0.2326969487716499 1:0.27020117 2:-4.633875 
10 1:0.35893164 2:-4.5775 
1.406289868755094 1:0.12721289 2:-1.0301875 
10 1:0.28805859 2:-4.6735 
0.2265219978069912 1:0.27610547 2:-4.5 
2.901590420974206 1:0.23702148 2:-4.3444375 
10 1:0.28167188 2:-1.3150625 
9.099397001708727 1:0.3429043 2:-4.523625 
10 1:0.20847656 2:-2.4965625 
6.22854345933461 1:0.27708008 2:-3.813875 
10 1:0.25854297 2:-1.9469375 
7.413867668780616 1:0.21803711 2:-2.5533125 
10 1:0.33880469 2:-3.9513125 
1.895991586141324 1:0.21907617 2:-2.309 
10 1:0.30881055 2:-3.461625 
10 1:0.24589844 2:-2.381375 
10 1:0.27432812 2:-1.215 
10 1:0.38547461 2:-3.8594375 
10 1:0.19609766 2:-1.8271875 
0.6355155035114108 1:0.23668555 2:-3.42625 
0.1393805208504166 1:0.28741406 2:-6.508375 
9.309829190378389 1:0.41494922 2:-6.254125 
0.2563147801181554 1:0.15851562 2:-3.6440625 
10 1:0.29636133 2:-3.4575 
10 1:0.32821484 2:-3.377375 
10 1:0.27573242 2:-2.024875 
10 1:0.31377148 2:-4.4531875 
4.327885010256891 1:0.25783594 2:-3.97125 
8.084521468120915 1:0.20544336 2:-3.30175 
10 1:0.27304883 2:-2.7235625 
0.2872340719434604 1:0.30435937 2:-6.94625 
10 1:0.31855273 2:-4.2399375 
4.794838350816295 1:0.28625391 2:-5.183375 
10 1:0.2853125 2:-2.308875 
10 1:0.35437891 2:-3.67175 
10 1:0.22610742 2:-1.3413125 
10 1:0.37297266 2:-4.1598125 
9.45189673682855 1:0.32701953 2:-4.8238125 
0.8819017713855851 1:0.3604707 2:-4.7850625 
10 1:0.28318945 2:-4.6805625 
10 1:0.48145117 2:-3.388 
0.2996452701873247 1:0.35354297 2:-7.0851875 
10 1:0.27303906 2:-3.137875 
10 1:0.19296289 2:-2.1853125 
10 1:0.27775586 2:-1.43175 
10 1:0.27455664 2:-1.5620625 
10 1:0.24530078 2:-2.4893125 
4.288843483834612 1:0.31470898 2:-5.022375 
10 1:0.33156641 2:-3.792 
0.2674732206693594 1:0.37425977 2:-6.9378125 
0.4380667971759123 1:0.068048828 2:-0.315 
10 1:0.23266016 2:-3.5296875 
10 1:0.19316602 2:-1.945125 
2.471187493219671 1:0.24685352 2:-3.0428125 
10 1:0.24696484 2:-2.446625 
2.303554949132839 1:0.30987109 2:-4.26675 
10 1:0.26213867 2:-2.9094375 
10 1:0.2595918 2:-3.181375 
10 1:0.42212695 2:-5.196375 
3.480282272643584 1:0.12719922 2:-1.6950625 
3.441196161813033 1:0.27879492 2:-3.8149375 
2.39232242375335 1:0.29771875 2:-4.9973125 
5.246231412673647 1:0.19116602 2:-1.706625 
1.831488805579915 1:0.37288086 2:-4.37825 
10 1:0.38552344 2:-4.6464375 
10 1:0.2102168 2:-2.0330625 
0.3743336076518258 1:0.43723828 2:-7.1905 
10 1:0.37932617 2:-3.9695 
8.318539623727194 1:0.17983789 2:-2.21075 
10 1:0.39195898 2:-3.22275 
5.929911187701468 1:0.28948047 2:-5.2085 
10 1:0.41378516 2:-2.7640625 
10 1:0.3052793 2:-3.3136875 
10 1:0.24243945 2:-2.4279375 
10 1:0.55966797 2:-2.449125 
10 1:0.35157227 2:-1.6589375 
10 1:0.29561328 2:-3.4695625 
1.545906627306678 1:0.15774414 2:-2.6858125 
10 1:0.2521875 2:-3.2321875 
10 1:0.34248828 2:-3.007375 
0.1316275553064803 1:0.26810547 2:-6.101125 
10 1:0.33385547 2:-3.1575 
9.700703776815848 1:0.22311914 2:-3.4271875 
10 1:0.33954297 2:-2.632375 
10 1:0.41551562 2:-4.2259375 
9.199613024492258 1:0.2454043 2:-2.608125 
10 1:0.34483398 2:-3.801125 
10 1:0.39958398 2:-4.91325 
10 1:0.33283984 2:-3.3153125 
10 1:0.27630664 2:-2.03475 
1.762850036682695 1:0.44541211 2:-6.16325 
10 1:0.40304883 2:-4.162625 
10 1:0.36439648 2:-3.8094375 
10 1:0.28808594 2:-2.365375 
10 1:0.29001562 2:-3.314 
10 1:0.29567383 2:-3.2821875 
10 1:0.48453711 2:-3.700375 
10 1:0.27653906 2:-1.923375 
10 1:0.46163086 2:-3.4993125 
10 1:0.5193418 2:-3.74275 
0.257442342132812 1:0.11111719 2:-2.2655 
10 1:0.22942383 2:-3.4251875 
10 1:0.26740625 2:-0.86625 
10 1:0.24613477 2:-3.1555 
9.13144310801173 1:0.24218164 2:-3.77425 
10 1:0.35942578 2:-2.83575 
10 1:0.30999805 2:-3.1918125 
10 1:0.23984961 2:-2.801125 
10 1:0.30804102 2:-2.93125 
10 1:0.365375 2:-2.8435 
8.126486836612818 1:0.37133594 2:-5.0890625 
10 1:0.54072852 2:-4.29325 
10 1:0.48939844 2:-4.644625 
10 1:0.29617773 2:-2.55825 
10 1:0.39370508 2:-2.9211875 
-10 1:0.28954102 2:-4.644125 
-10 1:0.27998633 2:-3.1631875 
-10 1:0.17680469 2:-0.7626875 
-10 1:0.29141602 2:-3.130625 
-0.1815500995037697 1:0.57900781 2:-2.849625 
-10 1:0.42260938 2:-4.761125 
-10 1:0.31656641 2:-2.7206875 
-10 1:0.31361914 2:-3.78425 
-10 1:0.30116602 2:-3.454875 
-10 1:0.29473242 2:-3.053 
-10 1:0.47179688 2:-4.263875 
-10 1:0.39529102 2:-4.564375 
-10 1:0.39301562 2:-4.5141875 
-10 1:0.45131445 2:-4.8573125 
-10 1:0.39408398 2:-5.8528125 
-10 1:0.38668359 2:-2.8516875 
-1.132549250641802 1:0.52532227 2:-2.8126875 
-10 1:0.30149805 2:-3.2504375 
-10 1:0.28036523 2:-3.41475 
-10 1:0.31999023 2:-3.4375 
-10 1:0.31866406 2:-3.081875 
-0.5117812798910311 1:0.51370117 2:-4.112625 
-10 1:0.28839453 2:-3.682625 
-10 1:0.42789844 2:-4.0163125 
-10 1:0.27545117 2:-3.180875 
-10 1:0.2234082 2:-2.465375 
-10 1:0.28710156 2:-3.6726875 
-10 1:0.29000391 2:-4.12425 
-10 1:0.31611523 2:-3.318625 
-10 1:0.33362305 2:-3.660375 
-4.133142022512329 1:0.40778125 2:-2.2558125 
-10 1:0.31162891 2:-3.9908125 
-10 1:0.26838477 2:-3.1514375 
-10 1:0.19477539 2:-1.5100625 
-10 1:0.26169922 2:-2.8788125 
-0.4937500095933328 1:0.5994668 2:-2.6765 
-10 1:0.32251953 2:-3.13 
-1.87325456144169 1:0.4480918 2:-3.61075 
-10 1:0.38176172 2:-3.197125 
-10 1:0.31138867 2:-2.953875 
-10 1:0.28545508 2:-4.1744375 
-10 1:0.40131641 2:-2.6543125 
-10 1:0.29399219 2:-2.9063125 
-10 1:0.34798633 2:-4.020125 
-10 1:0.29919727 2:-3.645375 
-10 1:0.24614648 2:-3.1475 
-10 1:0.34317578 2:-3.28275 
-10 1:0.35558789 2:-3.6624375 
-10 1:0.23377734 2:-4.336375 
-10 1:0.25773828 2:-3.7175625 
-10 1:0.17488281 2:-1.0215 
-10 1:0.22948242 2:-2.170625 
-10 1:0.18727148 2:-2.3613125 
-10 1:0.25310938 2:-3.3103125 
-10 1:0.29048438 2:-2.908625 
-10 1:0.3094082 2:-3.7965 
-10 1:0.26782617 2:-3.1501875 
-10 1:0.26945117 2:-2.346375 
-5.381837059589498 1:0.35231641 2:-2.5646875 
-10 1:0.15948437 2:-2.029 
-10 1:0.29429687 2:-3.6584375 
-2.211701442441549 1:0.26806055 2:-2.1526875 
-10 1:0.22574414 2:-2.3684375 
-10 1:0.34233203 2:-3.7615 
-10 1:0.37255469 2:-4.3179375 
-10 1:0.26541797 2:-2.87675 
-10 1:0.28378711 2:-2.2425 
-10 1:0.35166406 2:-3.349 
-10 1:0.26153125 2:-3.40475 
-9.71891645484564 1:0.28976367 2:-2.34075 
-10 1:0.27430469 2:-2.704875 
-10 1:0.30784375 2:-3.0463125 
-10 1:0.3090957 2:-3.85075 
-10 1:0.38376562 2:-3.8575625 
-10 1:0.2551543 2:-2.345875 
-10 1:0.40021875 2:-3.975125 
-10 1:0.37047461 2:-4.07375 
-0.02315072311621959 1:0.43533203 2:-3.6585 
-10 1:0.3046875 2:-2.61025 
-10 1:0.3295625 2:-2.4216875 
-10 1:0.34332617 2:-3.66225 
-10 1:0.35253516 2:-3.5119375 
-10 1:0.35586719 2:-4.579125 
-10 1:0.3222207 2:-2.497375 
-10 1:0.17047266 2:-2.255125 
-10 1:0.31731445 2:-4.57025 
-10 1:0.23729883 2:-1.4004375 
-10 1:0.28313086 2:-3.6645625 
-10 1:0.27696094 2:-3.481375 
-10 1:0.2591543 2:-1.780875 
-10 1:0.18749023 2:-3.19425 
-10 1:0.24311523 2:-2.8549375 
-10 1:0.41620703 2:-3.46575 
-10 1:0.43799805 2:-3.4333125 
-10 1:0.37676367 2:-5.549 
-10 1:0.31 2:-3.2896875 
-10 1:0.31063477 2:-3.77025 
-10 1:0.28365039 2:-2.8665 
-10 1:0.42345313 2:-3.9575 
-2.021402318118265 1:0.42935742 2:-3.0300625 
-10 1:0.22990625 2:-4.26575 
-10 1:0.39503906 2:-4.05675 
-10 1:0.30292383 2:-2.5051875 
-10 1:0.284625 2:-5.445375 
-10 1:0.33414648 2:-4.8459375 
-10 1:0.42413672 2:-4.6000625 
-10 1:0.42115039 2:-5.187125 
-1.290830376265345 1:0.44375781 2:-3.0615 
-10 1:0.3230332 2:-5.3358125 
-10 1:0.33288867 2:-4.261125 
-10 1:0.29560352 2:-3.0410625 
-10 1:0.27342773 2:-2.5523125 
-10 1:0.25826562 2:-1.6623125 
-3.639417762061225 1:0.31220117 2:-1.354625 
-10 1:0.2080957 2:-1.8283125 
-10 1:0.21630273 2:-1.4938125 
-10 1:0.25568945 2:-2.894875 
-10 1:0.24593945 2:-2.1311875 
-10 1:0.24601367 2:-2.191 
-10 1:0.24747852 2:-2.792 
-7.09605935388516 1:0.42885742 2:-3.095875 
-10 1:0.27236914 2:-3.7054375 
-10 1:0.34983789 2:-4.0816875 
-3.740545447117054 1:0.35217578 2:-2.085125 
-10 1:0.39942773 2:-6.0199375 
-2.064340466457137 1:0.46775 2:-3.990125 
-4.701115756429683 1:0.38500977 2:-1.758 
-10 1:0.21495703 2:-1.86225 
-10 1:0.22565039 2:-2.6808125 
-10 1:0.27693164 2:-3.3294375 
-10 1:0.35406641 2:-3.704375 
-1.2014037274561 1:0.4695332 2:-3.23875 
-10 1:0.26488281 2:-3.2199375 
-10 1:0.22852344 2:-2.6631875 
-10 1:0.25391211 2:-2.442625 
-10 1:0.28090234 2:-3.5523125 
-10 1:0.3136582 2:-3.195375 
-9.475224192292737 1:0.25118164 2:-1.898125 
-5.599402592863258 1:0.39793555 2:-2.6754375 
-9.896254486116916 1:0.40866211 2:-2.91425 
-10 1:0.19125977 2:-2.2409375 
-10 1:0.39329102 2:-2.96975 
-10 1:0.44136914 2:-5.2418125 
-10 1:0.3462832 2:-4.65725 
-10 1:0.35276562 2:-4.7933125 
-10 1:0.41318555 2:-4.2830625 
-7.384944277023928 1:0.33859375 2:-2.1930625 
-10 1:0.21748633 2:-2.4785 
-10 1:0.459 2:-5.2013125 
-10 1:0.34100781 2:-3.860125 
-10 1:0.33469531 2:-2.93075 
-10 1:0.26811719 2:-3.05975 
-10 1:0.3195957 2:-4.8738125 
-10 1:0.39208203 2:-3.828125 
-10 1:0.23667969 2:-3.285 
-10 1:0.41963086 2:-2.7916875 
-1.233694538377615 1:0.65594141 2:-2.2291875 
-10 1:0.31175195 2:-2.6984375 
-10 1:0.37692773 2:-6.066 
-10 1:0.24733789 2:-3.4609375 
-10 1:0.23803906 2:-1.2504375 
-10 1:0.33924023 2:-3.7311875 
-10 1:0.28426953 2:-2.9063125 
-10 1:0.43245703 2:-6.32425 
-9.36891455317647 1:0.348625 2:-2.0160625 
-10 1:0.29741211 2:-2.8059375 
-10 1:0.28708789 2:-2.5873125 
-10 1:0.20431836 2:-1.3066875 
-7.509848696637586 1:0.31275195 2:-2.2413125 
-10 1:0.25545703 2:-2.2199375 
-10 1:0.29102539 2:-2.3373125 
-3.993318287582603 1:0.33723437 2:-1.4580625 
-10 1:0.37512109 2:-4.1375 
-10 1:0.37527344 2:-4.52 
-10 1:0.42236523 2:-3.9070625 
-10 1:0.36245508 2:-4.3391875 
-10 1:0.29295898 2:-4.6575625 
-10 1:0.22850586 2:-1.869875 
-9.671342214226426 1:0.28685352 2:-2.059875 
-10 1:0.48700977 2:-3.3898125 
-10 1:0.2698418 2:-2.0849375 
-5.25953931132079 1:0.58155273 2:-2.5085 
-2.355237027362294 1:0.52079102 2:-2.4798125 
-1.668417102384818 1:0.52735156 2:-4.2251875 
-10 1:0.26952148 2:-1.5008125 
-10 1:0.36931641 2:-4.372125 
-10 1:0.22754492 2:-2.5660625 
-10 1:0.27792773 2:-1.9775625 
-7.669398033813404 1:0.30395312 2:-2.4815625 
-3.105353789675827 1:0.40689063 2:-2.2748125 
-10 1:0.371 2:-3.200125 
-10 1:0.25449219 2:-2.45125 
-10 1:0.32063867 2:-2.9024375 
-10 1:0.40182227 2:-3.1219375 
-10 1:0.32571484 2:-2.687 
-1.673792495112419 1:0.52552539 2:-3.46175 
-0.9364648342988022 1:0.38722266 2:-1.817375 
-10 1:0.2248125 2:-1.0631875 
-10 1:0.20659375 2:-1.3813125 
-10 1:0.30467383 2:-2.7651875 
-10 1:0.2792793 2:-4.419625 
-10 1:0.40448242 2:-3.771 
-10 1:0.27438672 2:-1.98 
-10 1:0.29856836 2:-1.3805625 
-6.25813344851618 1:0.35795508 2:-2.40525 
-10 1:0.28180078 2:-2.841625 
-10 1:0.30118164 2:-2.975875 
-10 1:0.25274414 2:-1.9728125 
-10 1:0.2563418 2:-2.9838125 
-10 1:0.25343945 2:-3.0164375 
-10 1:0.27555469 2:-3.6163125 
-10 1:0.29208203 2:-3.0359375 
-8.863421022195059 1:0.51782031 2:-2.9840625 
-10 1:0.19023633 2:-2.2865 
-10 1:0.34212109 2:-3.7601875 
-10 1:0.29614063 2:-3.1636875 
-10 1:0.20087109 2:-0.9624375 
-10 1:0.23283398 2:-2.39575 
-10 1:0.19886328 2:-2.5488125 
-10 1:0.2208125 2:-2.5071875 
-10 1:0.27175977 2:-2.2280625 
-1.68700380057486 1:0.31622266 2:-2.7886875 
-10 1:0.19142383 2:-2.952 
-10 1:0.41204297 2:-4.5963125 
-10 1:0.31465625 2:-3.7899375 
-10 1:0.40140625 2:-4.0538125 
-10 1:0.52707617 2:-4.68575 
-10 1:0.23301758 2:-2.77575 
-10 1:0.22523437 2:-4.4809375 
-10 1:0.22986133 2:-2.7025625 
-0.1170159795892448 1:0.52820117 2:-3.1533125 
-10 1:0.22896484 2:-3.422125 
-0.7814216739624937 1:0.57983398 2:-1.5735625 
-10 1:0.29967383 2:-4.1315625 
-10 1:0.27999414 2:-2.9005 
-10 1:0.19261133 2:-1.907375 
-10 1:0.24225781 2:-3.93575 
-10 1:0.45814258 2:-3.6809375 
-10 1:0.4121875 2:-4.211 
-10 1:0.26678906 2:-3.29475 
-10 1:0.28736133 2:-3.1313125 
-10 1:0.4081582 2:-2.5755 
-10 1:0.40276563 2:-3.0210625 
-10 1:0.30507812 2:-4.5428125 
-10 1:0.19270117 2:-2.1895 
-10 1:0.16695508 2:-1.788625 
-10 1:0.38346484 2:-2.8445 
-10 1:0.36126172 2:-3.423875 
-10 1:0.32610547 2:-3.250875 
-10 1:0.27660547 2:-3.0056875 
-2.326682287345321 1:0.40474805 2:-2.588125 
-10 1:0.24084375 2:-2.174125 
-10 1:0.26692383 2:-3.2095 
-10 1:0.25010547 2:-4.1759375 
-6.766666567732022 1:0.45036328 2:-3.8025 
-10 1:0.25866406 2:-5.145625 
-10 1:0.31988281 2:-3.0180625 
-1.970626039773962 1:0.49307031 2:-2.892875 
-10 1:0.46235742 2:-5.634125 
-10 1:0.21296484 2:-1.6684375 
-10 1:0.23607031 2:-2.3098125 
-10 1:0.25761328 2:-2.3586875 
-10 1:0.41818359 2:-4.63875 
-10 1:0.46525391 2:-4.268125 
-3.712503648402974 1:0.41381055 2:-3.4913125 
-1.349892589546075 1:0.36124023 2:-3.3540625 
-10 1:0.3807207 2:-4.4460625 
-10 1:0.36006641 2:-3.2760625 
-10 1:0.45269336 2:-4.4751875 
-10 1:0.30535547 2:-3.164875 
-10 1:0.37462109 2:-4.6270625 
-10 1:0.24718164 2:-3.4359375 
-10 1:0.3564043 2:-3.6638125 
-10 1:0.39567969 2:-3.775375 
-10 1:0.44560547 2:-3.518625 
-10 1:0.44405469 2:-4.3299375 
-10 1:0.29819141 2:-3.56975 
-10 1:0.37061719 2:-3.7656875 
-10 1:0.44163867 2:-4.752125 
-10 1:0.34638672 2:-3.5878125 
-10 1:0.37478516 2:-3.9449375 
-10 1:0.30768945 2:-2.5954375 
-10 1:0.33163281 2:-3.3355 
-0.4719854674529873 1:0.52864844 2:-2.0689375 
-10 1:0.32235156 2:-4.26875 
-10 1:0.37616602 2:-4.028 
-10 1:0.25164063 2:-3.43575 
-10 1:0.2812207 2:-2.873125 
-10 1:0.33127734 2:-3.2449375 
-8.139989378888128 1:0.29558984 2:-2.858 
-10 1:0.30986328 2:-2.678625 
-10 1:0.29772266 2:-2.9845 
-10 1:0.28343945 2:-1.48925 
-8.444416847520559 1:0.33359961 2:-2.69725 
-10 1:0.28352734 2:-3.212875 
-10 1:0.30418555 2:-2.98925 
-10 1:0.2688418 2:-2.9066875 
-10 1:0.35154688 2:-4.05375 
-10 1:0.26034961 2:-2.928375 
-10 1:0.26330664 2:-1.4164375 
-10 1:0.33468945 2:-3.2365 
-10 1:0.34103711 2:-3.227875 
-10 1:0.22388477 2:-2.2773125 
-9.168308966595417 1:0.39248828 2:-3.027875 
-10 1:0.42236328 2:-6.1394375 
-10 1:0.37757422 2:-4.804125 
-10 1:0.18282422 2:-2.9845625 
-10 1:0.3836875 2:-4.3201875 
-10 1:0.38060742 2:-4.1420625 
-7.115805084875271 1:0.31829297 2:-3.0553125 
-10 1:0.30875 2:-3.484375 
-0.7387334786220097 1:0.35816797 2:-1.8958125 
-10 1:0.33810352 2:-4.35 
-9.412874403144183 1:0.47415625 2:-4.8995625 
-10 1:0.31277148 2:-4.653625 
-10 1:0.34141797 2:-2.0791875 
-10 1:0.35726367 2:-4.68325 
-10 1:0.29078711 2:-2.114 
-10 1:0.31504492 2:-5.0301875 
-10 1:0.42924219 2:-6.279125 
-10 1:0.38738477 2:-2.848625 
-10 1:0.34706836 2:-4.571625 
-10 1:0.33739062 2:-3.35425 
-10 1:0.26228125 2:-1.668 
-10 1:0.32758203 2:-4.008125 
-10 1:0.2096543 2:-3.3384375 
-10 1:0.3324668 2:-3.562 
-10 1:0.26744336 2:-2.9053125 
-10 1:0.19701367 2:-2.13925 
-10 1:0.2439375 2:-3.4745625 
-0.2290351899893968 1:0.49685547 2:-1.6393125 
-10 1:0.25426758 2:-5.0411875 
-10 1:0.37638477 2:-4.545875 
-10 1:0.23039844 2:-3.1139375 
-10 1:0.24535742 2:-3.0871875 
-1.3380649022285 1:0.49461523 2:-4.0245625 
-8.291367613931911 1:0.3394668 2:-2.1010625 
-10 1:0.23882813 2:-3.4575625 
-10 1:0.41301172 2:-4.127 
-10 1:0.42745117 2:-4.3916875 
-4.12415657408074 1:0.38888086 2:-2.0305 
-10 1:0.25628516 2:-2.2579375 
-10 1:0.28953516 2:-4.65275 
-10 1:0.31485156 2:-4.1795 
-10 1:0.29781641 2:-4.276625 
-10 1:0.41635938 2:-3.8374375 
-10 1:0.21245312 2:-2.58725 
-5.698230258770775 1:0.3705957 2:-2.8569375 
-10 1:0.35462891 2:-3.405125 
-10 1:0.27363867 2:-2.9935 
-6.478267407695763 1:0.3485625 2:-1.658125 
-10 1:0.28655664 2:-3.3416875 
-10 1:0.37261328 2:-4.8285 
-10 1:0.22231836 2:-4.296375 
-5.125447124661074 1:0.53393555 2:-3.7854375 
-10 1:0.47564063 2:-3.4048125 
-0.08849420975068369 1:0.47471289 2:-1.781 
-10 1:0.36937305 2:-4.2165 
-10 1:0.43727148 2:-4.1584375 
-10 1:0.30439258 2:-3.55325 
-10 1:0.28432422 2:-3.0955625 
-10 1:0.2388457 2:-2.1976875 
-10 1:0.21323437 2:-1.5406875 
-10 1:0.22610547 2:-2.844625 
-8.112493875246514 1:0.37933789 2:-3.19475 
-10 1:0.24414648 2:-2.412875 
-10 1:0.32032812 2:-4.418125 
-10 1:0.33449023 2:-3.8235625 
-10 1:0.30874805 2:-3.3035 
-10 1:0.30172266 2:-3.0673125 
-10 1:0.14666406 2:-2.631125 
-10 1:0.29395313 2:-2.5784375 
-2.793137252069858 1:0.3974043 2:-3.18575 
-10 1:0.13879883 2:-1.968 
-10 1:0.30839453 2:-3.525375 
-10 1:0.4420332 2:-3.6693125 
-3.673691323604956 1:0.38763477 2:-1.709875 
-10 1:0.44185156 2:-3.6235 
-10 1:0.28627148 2:-1.2314375 
-10 1:0.32691016 2:-2.5905 
-10 1:0.39766406 2:-3.1635625 
-10 1:0.20154688 2:-2.2619375 
-10 1:0.32543164 2:-5.8575625 
-7.068473791458904 1:0.24508984 2:-1.8170625 
-10 1:0.3315957 2:-3.4609375 
-10 1:0.29425977 2:-3.531625 
-10 1:0.22809766 2:-2.4148125 
-10 1:0.33297852 2:-3.5381875 
-4.774020619549411 1:0.27979883 2:-1.9578125 
-10 1:0.29291016 2:-3.6591875 
-10 1:0.40568359 2:-4.743125 
-10 1:0.33852344 2:-3.2181875 
-10 1:0.27026563 2:-4.021375 
-9.274309734363911 1:0.37463477 2:-3.621625 
-10 1:0.33430664 2:-3.9859375 
-10 1:0.4660332 2:-3.523875 
-10 1:0.20394727 2:-3.174375 
-10 1:0.35210742 2:-4.3413125 
-10 1:0.31341016 2:-3.07175 
-6.365110320055263 1:0.48227734 2:-4.33475 
-10 1:0.29725586 2:-4.34775 
-10 1:0.25674023 2:-4.3780625 
-10 1:0.31082422 2:-3.0363125 
-2.078993736593497 1:0.3650957 2:-2.9554375 
-10 1:0.27891211 2:-4.927 
-10 1:0.24403516 2:-3.33375 
-2.399841160205795 1:0.45623047 2:-2.8043125 
-10 1:0.32245703 2:-3.907375 
-10 1:0.22771875 2:-1.64375 
-10 1:0.27932617 2:-4.1611875 
-10 1:0.30602148 2:-4.477625 
-10 1:0.25616016 2:-2.35625 
-10 1:0.36703125 2:-4.044 
-10 1:0.4214707 2:-4.5469375 
-0.6450196479938681 1:0.47233984 2:-3.6100625 
-10 1:0.47945508 2:-4.4569375 
-10 1:0.25978906 2:-1.63275 
-10 1:0.23420703 2:-1.3368125 
-10 1:0.39370703 2:-3.9125 
-10 1:0.37240234 2:-3.902125 
-10 1:0.24129883 2:-2.6834375 
-10 1:0.21372266 2:-3.2156875 
-10 1:0.21819531 2:-2.891375 
-10 1:0.16750391 2:-2.8849375 
-10 1:0.33814844 2:-3.5335 
-10 1:0.44792773 2:-5.903 
-10 1:0.17069531 2:-1.9250625 
-10 1:0.28618945 2:-3.7015625 
-5.778934397915276 1:0.31925977 2:-1.5941875 
-10 1:0.35754883 2:-3.372625 
-1.194865470895856 1:0.4265625 2:-1.383125 
-10 1:0.27617578 2:-2.6374375 
-10 1:0.26166016 2:-2.042 
-10 1:0.25358594 2:-0.9501875 
-10 1:0.28428125 2:-3.5425 
-10 1:0.3309082 2:-3.58025 
-10 1:0.25308594 2:-4.6645625 
-1.538594339332051 1:0.32287109 2:-2.40375 
-10 1:0.24892187 2:-2.3585625 
-10 1:0.28037109 2:-3.8800625 
-10 1:0.34345898 2:-3.634875 
-10 1:0.36414062 2:-3.597 
-10 1:0.15487695 2:-2.084875 
-10 1:0.37326563 2:-4.7308125 
-10 1:0.31025977 2:-2.604625 
-10 1:0.31291602 2:-3.3015625 
-10 1:0.18492578 2:-3.3076875 
-10 1:0.26679102 2:-4.0938125 
-10 1:0.39617188 2:-4.6318125 
-4.61285390229054 1:0.31989258 2:-1.6335625 
-10 1:0.26133203 2:-4.7173125 
-10 1:0.22961328 2:-4.3941875 
-10 1:0.27303906 2:-3.471875 
-10 1:0.27155469 2:-3.040875 
-5.208715768751501 1:0.26113086 2:-1.6146875 
-10 1:0.22906641 2:-1.590375 
-10 1:0.24961133 2:-3.538375 
-10 1:0.30421484 2:-4.210125 
-10 1:0.31301172 2:-2.7151875 
-10 1:0.41433789 2:-4.3966875 
-10 1:0.25422266 2:-2.438875 
-10 1:0.37899609 2:-6.203375 
-10 1:0.33210742 2:-3.9484375 
-10 1:0.40867188 2:-3.7954375 
-10 1:0.37616406 2:-3.7056875 
-10 1:0.30995313 2:-4.216375 
-10 1:0.23373633 2:-3.3294375 
-10 1:0.38800586 2:-4.0814375 
-0.0829955244857136 1:0.54441992 2:-4.3748125 
-10 1:0.32529102 2:-3.8465 
-1.098258814739132 1:0.31810938 2:-1.90625 
-10 1:0.2397168 2:-3.8524375 
-10 1:0.31316992 2:-2.777625 
-10 1:0.35650586 2:-5.135 
-10 1:0.4066875 2:-5.1200625 
-0.1368774056646342 1:0.44498437 2:-3.3908125 
-10 1:0.24638867 2:-2.7195625 
-10 1:0.27299023 2:-1.2601875 
-10 1:0.34374219 2:-3.757125 
-10 1:0.38128516 2:-2.86675 
-10 1:0.50226563 2:-3.4804375 
-10 1:0.32582227 2:-3.9795 
-10 1:0.32643555 2:-3.9843125 
-10 1:0.31682031 2:-3.3043125 
-10 1:0.32289648 2:-3.127125 
-10 1:0.17209766 2:-3.677625 
-10 1:0.24733008 2:-3.39625 
-10 1:0.19224414 2:-3.40725 
-10 1:0.21661914 2:-2.7246875 
-10 1:0.32263086 2:-5.6656875 
-10 1:0.34041602 2:-3.856875 
-10 1:0.30180469 2:-3.6710625 
-10 1:0.3418125 2:-4.4185625 
-10 1:0.28764844 2:-2.8450625 
-10 1:0.33467969 2:-3.48525 
-10 1:0.25717773 2:-2.1083125 
-10 1:0.30219531 2:-2.524375 
-2.83751985720188 1:0.38744727 2:-3.2230625 
-10 1:0.23957617 2:-2.785375 
-10 1:0.21975195 2:-2.9699375 
-10 1:0.23557227 2:-1.9678125 
-10 1:0.19851367 2:-2.452625 
-10 1:0.28487891 2:-2.8999375 
-10 1:0.43593359 2:-4.35875 
-10 1:0.24583008 2:-2.7515625 
-10 1:0.38823047 2:-3.969 
-10 1:0.26628711 2:-3.311375 
-10 1:0.2614707 2:-3.76825 
-10 1:0.2154375 2:-2.541125 
-0.5291516646082171 1:0.59253906 2:-2.77375 
-10 1:0.43018359 2:-4.062625 
-10 1:0.21253711 2:-1.875875 
-10 1:0.20956836 2:-2.620875 
-10 1:0.33180469 2:-5.012375 
-10 1:0.22947852 2:-1.157625 
-10 1:0.21206055 2:-1.68725 
-10 1:0.25664063 2:-5.19725 
-10 1:0.20821484 2:-2.039 
-4.067549969526276 1:0.31141211 2:-1.650875 
-5.592825986651758 1:0.52775391 2:-2.3980625 
-6.594386319377892 1:0.31237305 2:-1.243125 
-10 1:0.34324414 2:-3.4438125 
-10 1:0.23285156 2:-2.8511875 
-10 1:0.25696484 2:-2.8865625 
-10 1:0.22000586 2:-2.8480625 
-10 1:0.34985352 2:-2.4348125 
-10 1:0.30731445 2:-2.7576875 
-10 1:0.40020312 2:-5.3531875 
-10 1:0.3078125 2:-3.290375 
-10 1:0.35717578 2:-3.3101875 
-10 1:0.2195625 2:-3.7606875 
-10 1:0.40748633 2:-4.45825 
-10 1:0.29189063 2:-3.62475 
-10 1:0.31803516 2:-0.858 
-10 1:0.2967832 2:-3.249875 
-10 1:0.21849805 2:-2.5488125 
-10 1:0.21723047 2:-2.405125 
-10 1:0.17598242 2:-3.369 
-2.974136307576471 1:0.40707813 2:-1.1791875 
-10 1:0.38924414 2:-2.8080625 
-10 1:0.41820312 2:-4.4476875 
-10 1:0.1862207 2:-1.8210625 
-10 1:0.33051172 2:-3.44125 
-10 1:0.26119531 2:-2.6723125 
-10 1:0.29471289 2:-3.5785625 
-10 1:0.4627793 2:-3.8699375 
-8.596817334453553 1:0.45496094 2:-4.1976875 
-10 1:0.33593555 2:-1.454375 
-10 1:0.2871582 2:-5.202125 
-10 1:0.28694336 2:-2.7929375 
-10 1:0.36638086 2:-3.2388125 
-0.6654506900317598 1:0.43455859 2:-1.505125 
-10 1:0.31888086 2:-3.5965625 
-10 1:0.32193359 2:-4.249 
-1.718650794176321 1:0.49887891 2:-3.0599375 
-10 1:0.20806445 2:-2.2381875 
-10 1:0.26847266 2:-2.5329375 
-2.013254806957973 1:0.43425977 2:-1.4025 
-0.3265482345061247 1:0.49054687 2:-1.1923125 
-10 1:0.34639453 2:-3.306375 
-10 1:0.37596094 2:-4.226625 
-10 1:0.12336719 2:-2.2634375 
-10 1:0.29544336 2:-3.8183125 
-10 1:0.20846289 2:-1.83875 
-10 1:0.21699023 2:-2.6715 
-10 1:0.39027148 2:-3.910875 
-10 1:0.30577734 2:-2.7071875 
-0.160807523567034 1:0.26130078 2:-1.77575 
-10 1:0.35373047 2:-2.2044375 
-10 1:0.29330469 2:-2.6145 
-10 1:0.20203516 2:-1.9925 
-9.28701103593642 1:0.46249414 2:-4.082 
-10 1:0.29613086 2:-3.8143125 
-10 1:0.29705078 2:-1.08675 
-10 1:0.24187695 2:-2.55675 
-10 1:0.25369141 2:-3.0723125 
-10 1:0.33874023 2:-3.620125 
-10 1:0.45176563 2:-4.928 
-10 1:0.24520117 2:-3.8335625 
-10 1:0.21876367 2:-3.14925 
-10 1:0.36907422 2:-4.377875 
-4.429636566163671 1:0.39445898 2:-3.74275 
-10 1:0.3034707 2:-4.362875 
-10 1:0.21710742 2:-3.57425 
-10 1:0.26060352 2:-0.900625 
-10 1:0.1994082 2:-2.0345625 
-10 1:0.31102734 2:-4.2288125 
-10 1:0.39310937 2:-3.974875 
-10 1:0.29471094 2:-3.955125 
-10 1:0.32065234 2:-3.4786875 
-10 1:0.38345508 2:-2.8543125 
-10 1:0.38675977 2:-4.5975 
-10 1:0.36498437 2:-5.0790625 
-10 1:0.40231445 2:-5.663875 
-8.729813699490833 1:0.32876367 2:-2.7605 
-10 1:0.31540625 2:-5.0003125 
-10 1:0.25908398 2:-4.4743125 
-10 1:0.24066016 2:-2.2091875 
-10 1:0.25153516 2:-2.034125 
-10 1:0.24247852 2:-2.04975 
-10 1:0.23672852 2:-2.6773125 
-10 1:0.28387695 2:-3.0823125 
-10 1:0.29637891 2:-4.25375 
-0.9920512499296936 1:0.47594336 2:-2.7745 
-10 1:0.34355469 2:-3.5971875 
-10 1:0.30484766 2:-2.807 
-10 1:0.23308594 2:-1.8355 
-10 1:0.2265332 2:-1.9818125 
-10 1:0.28305273 2:-2.2699375 
-10 1:0.27044922 2:-2.3269375 
-10 1:0.28905078 2:-3.00425 
-10 1:0.21552148 2:-3.5938125 
-10 1:0.38314062 2:-2.5246875 
-10 1:0.2550293 2:-2.693875 
-3.39340496322822 1:0.38989063 2:-2.975 
-10 1:0.34558203 2:-3.37725 
-10 1:0.27432422 2:-2.5110625 
-10 1:0.30510547 2:-4.36925 
-10 1:0.23525781 2:-3.2718125 
-10 1:0.22897461 2:-3.203625 
-10 1:0.31274219 2:-3.13875 
-10 1:0.273625 2:-3.2185 
-3.553935874628749 1:0.3290957 2:-2.6263125 
-10 1:0.27366016 2:-3.7085625 
-10 1:0.27574414 2:-3.3558125 
-6.348943769351766 1:0.35397656 2:-1.859625 
-1.560538377639943 1:0.40507617 2:-2.5451875 
-0.1953237127281043 1:0.52732813 2:-2.161125 
-1.114647234240912 1:0.5656875 2:-1.8881875 
-10 1:0.37178516 2:-3.7303125 
-10 1:0.27910352 2:-3.861875 
-10 1:0.29399805 2:-3.1081875 
-10 1:0.18329492 2:-3.2108125 
-10 1:0.25707813 2:-3.7184375 
-10 1:0.30579492 2:-2.78075 
-10 1:0.30825586 2:-3.884125 
-10 1:0.36222656 2:-4.23425 
-10 1:0.34605859 2:-3.7740625 
-10 1:0.18889648 2:-3.22025 
-1.984746648922062 1:0.38224414 2:-3.084 
-6.023596393262348 1:0.42864844 2:-2.6571875 
-10 1:0.22916406 2:-3.683875 
-10 1:0.32730664 2:-4.8165625 
-8.861880804447324 1:0.27055078 2:-1.3105 
-10 1:0.46410742 2:-4.8941875 
-10 1:0.20561914 2:-2.3905625 
-10 1:0.24608203 2:-2.3425625 
-10 1:0.38394531 2:-3.999875 
-10 1:0.25060937 2:-5.4385 
-10 1:0.20381836 2:-2.5619375 
-10 1:0.338875 2:-3.906625 
-4.551713910501352 1:0.52079883 2:-3.961125 
-10 1:0.50749414 2:-4.0415625 
-10 1:0.2820918 2:-3.37775 
-10 1:0.33263867 2:-3.347125 
-10 1:0.22599414 2:-1.5581875 
-10 1:0.22520898 2:-3.5239375 
-4.23016492800058 1:0.37239258 2:-3.290125 
-10 1:0.17244727 2:-3.071125 
-1.164363895524102 1:0.47981836 2:-2.9349375 
-10 1:0.29727539 2:-3.397 
-10 1:0.30881445 2:-2.2698125 
-10 1:0.29321875 2:-3.302 
-10 1:0.34260937 2:-1.451625 
-10 1:0.32152344 2:-4.0238125 
-10 1:0.45166016 2:-4.38775 
-10 1:0.34605078 2:-4.539 
-10 1:0.27541992 2:-5.0645625 
-10 1:0.25701367 2:-2.2314375 
-10 1:0.39397461 2:-5.0691875 
-0.8423512960888321 1:0.60116992 2:-1.4695625 
-1.303767334273635 1:0.54976758 2:-0.798875 
-10 1:0.26674219 2:-3.784625 
-10 1:0.24304883 2:-3.1459375 
-10 1:0.26878906 2:-2.6270625 
-10 1:0.28439453 2:-2.960375 
-10 1:0.21825195 2:-3.4581875 
-10 1:0.22953125 2:-4.0635 
-10 1:0.27570117 2:-2.78825 
-10 1:0.12339844 2:-2.0333125 
-10 1:0.20134375 2:-1.7034375 
-10 1:0.28163281 2:-3.179375 
-10 1:0.29655078 2:-0.9794375 
-10 1:0.29110156 2:-2.9788125 
-10 1:0.28016797 2:-2.0644375 
-10 1:0.26932422 2:-1.75025 
-10 1:0.31682227 2:-3.2665 
-10 1:0.35025195 2:-4.0530625 
-10 1:0.37255273 2:-4.0279375 
-10 1:0.28870508 2:-4.330625 
-6.536648487716218 1:0.36936914 2:-3.5874375 
-10 1:0.27773047 2:-3.5765625 
-10 1:0.31573633 2:-3.224125 
-10 1:0.29299805 2:-3.0075 
-10 1:0.37058984 2:-3.2365 
-10 1:0.17296875 2:-1.639 
-0.7668421048783811 1:0.38938672 2:-1.4563125 
-10 1:0.35310156 2:-2.948625 
-4.158518459265819 1:0.43007617 2:-2.785 
-4.320561004542888 1:0.40937109 2:-2.7834375 
-10 1:0.24726953 2:-1.332625 
-3.352548549489049 1:0.46533398 2:-3.3760625 
-10 1:0.38089844 2:-3.7419375 
-10 1:0.51585742 2:-6.6545 
-10 1:0.33559961 2:-4.079875 
-10 1:0.27632617 2:-1.724 
-10 1:0.23089453 2:-1.5915 
-10 1:0.32889453 2:-3.90775 
-0.1542096519966354 1:0.5284082 2:-3.2651875 
-10 1:0.42361328 2:-2.841875 
-0.01534944267330286 1:0.52434375 2:-2.0265 
-10 1:0.36358984 2:-4.906375 
-10 1:0.44803711 2:-4.523 
-10 1:0.33156445 2:-3.9391875 
-10 1:0.25251367 2:-3.199625 
-10 1:0.20988281 2:-2.778625 
-10 1:0.17054102 2:-1.676875 
-10 1:0.32132422 2:-3.2509375 
-10 1:0.24242187 2:-2.8604375 
-10 1:0.21165039 2:-2.319875 
-1.883136159175415 1:0.40747852 2:-2.684 
-10 1:0.39734961 2:-4.196375 
-1.839699694894124 1:0.43618359 2:-2.817625 
-7.092161832972243 1:0.34886523 2:-2.161625 
-10 1:0.31139258 2:-3.1750625 
-7.043159930059068 1:0.34125391 2:-1.1159375 
-10 1:0.23927539 2:-3.3649375 
-10 1:0.2566543 2:-2.5156875 
-3.865247934814471 1:0.35675586 2:-2.232875 
-1.935143167573916 1:0.33852734 2:-1.579375 
-4.589745824397627 1:0.49850195 2:-4.2493125 
-10 1:0.43819336 2:-6.483 
-4.685506195064042 1:0.43186914 2:-3.553875 
-10 1:0.35101172 2:-3.5235 
-10 1:0.37252148 2:-3.554625 
-10 1:0.21700781 2:-2.3581875 
-2.07754992542002 1:0.34277734 2:-2.4906875 
-10 1:0.1554707 2:-1.6245625 
-10 1:0.34450977 2:-3.534625 
-10 1:0.30773633 2:-3.180875 
-10 1:0.50227539 2:-3.744 
-10 1:0.27089063 2:-2.5478125 
-10 1:0.40333008 2:-3.0384375 
-10 1:0.36656836 2:-4.133375 
-0.126066508327051 1:0.48641992 2:-1.735875 
-10 1:0.39318359 2:-3.0641875 
-10 1:0.32316602 2:-2.5864375 
-10 1:0.2394668 2:-3.7249375 
-10 1:0.24126758 2:-2.4735 
-1.997005420845521 1:0.32408008 2:-3.10675 
-10 1:0.31038086 2:-3.6683125 
