svm_type c_svc
kernel_type polynomial
degree 2
gamma 0.5
coef0 0
nr_class 2
total_sv 1093
rho -1.00025
label 0 1
nr_sv 551 542
SV
0.001 1:0.44413086 2:-5.4968125 
0.001 1:0.11537109 2:-0.386 
0.001 1:0.10228125 2:-0.3788125 
0.001 1:0.1438125 2:-0.2509375 
0.001 1:0.57900781 2:-2.849625 
0.001 1:0.14866406 2:-0.3103125 
0.001 1:0.37638086 2:-6.194875 
0.001 1:0.13639648 2:-0.3523125 
0.001 1:0.40496289 2:-6.0150625 
0.001 1:0.50985352 2:-2.284 
0.001 1:0.32455469 2:-6.3529375 
0.001 1:0.4166543 2:-6.32025 
0.001 1:0.52532227 2:-2.8126875 
0.001 1:0.39188867 2:-5.9671875 
0.001 1:0.34291211 2:-6.461375 
0.001 1:0.51370117 2:-4.112625 
0.001 1:0.15301367 2:-0.3863125 
0.001 1:0.13911328 2:-0.42825 
0.001 1:0.12841992 2:-0.312625 
0.001 1:0.14452539 2:-0.301 
0.001 1:0.10353711 2:-0.32425 
0.001 1:0.15707422 2:-0.3799375 
0.001 1:0.1520625 2:-0.365125 
0.001 1:0.14062305 2:-0.4494375 
0.001 1:0.36505469 2:-6.3261875 
0.001 1:0.50997461 2:-1.53175 
0.001 1:0.52543945 2:-1.5133125 
0.001 1:0.5994668 2:-2.6765 
0.001 1:0.14643359 2:-0.4403125 
0.001 1:0.30793359 2:-6.8123125 
0.001 1:0.30739453 2:-6.3014375 
0.001 1:0.13256836 2:-0.4560625 
0.001 1:0.49304102 2:-2.30275 
0.001 1:0.13918359 2:-0.2368125 
0.001 1:0.14000195 2:-0.3459375 
0.001 1:0.40533789 2:-6.4565 
0.001 1:0.13248242 2:-0.472 
0.001 1:0.13091406 2:-0.335375 
0.001 1:0.13950195 2:-0.3895625 
0.001 1:0.44328906 2:-1.86225 
0.001 1:0.10040625 2:-0.363125 
0.001 1:0.1547793 2:-0.430125 
0.001 1:0.241625 2:-0.6540625 
0.001 1:0.17457617 2:-0.277875 
0.001 1:0.38066602 2:-7.1104375 
0.001 1:0.51979883 2:-1.8845625 
0.001 1:0.53860547 2:-3.504 
0.001 1:0.37076953 2:-6.1594375 
0.001 1:0.13761328 2:-0.2299375 
0.001 1:0.36164258 2:-6.250875 
0.001 1:0.13340625 2:-0.3335625 
0.001 1:0.12943359 2:-0.3091875 
0.001 1:0.13410156 2:-0.3480625 
0.001 1:0.12999609 2:-0.2566875 
0.001 1:0.11714258 2:-0.2729375 
0.001 1:0.35932617 2:-6.08425 
0.001 1:0.35232031 2:-6.1666875 
0.001 1:0.454125 2:-2.0156875 
0.001 1:0.14672852 2:-0.4580625 
0.001 1:0.11626172 2:-0.3598125 
0.001 1:0.52628906 2:-2.6603125 
0.001 1:0.10128711 2:-0.4778125 
0.001 1:0.12871094 2:-0.45625 
0.001 1:0.41410156 2:-6.125625 
0.001 1:0.50326758 2:-2.3361875 
0.001 1:0.40051758 2:-6.0948125 
0.001 1:0.46158789 2:-6.3245 
0.001 1:0.15165234 2:-0.2708125 
0.001 1:0.15173438 2:-0.3281875 
0.001 1:0.39942773 2:-6.0199375 
0.001 1:0.35248828 2:-6.0931875 
0.001 1:0.45618164 2:-6.5829375 
0.001 1:0.34278125 2:-6.560875 
0.001 1:0.53756055 2:-1.4563125 
0.001 1:0.37671289 2:-6.0123125 
0.001 1:0.35028711 2:-6.351625 
0.001 1:0.52801953 2:-5.481 
0.001 1:0.097367187 2:-0.3933125 
0.001 1:0.11523828 2:-0.337875 
0.001 1:0.11413086 2:-0.477125 
0.001 1:0.13545703 2:-0.464375 
0.001 1:0.14279883 2:-0.327 
0.001 1:0.24395898 2:-0.680875 
0.001 1:0.35138672 2:-6.545875 
0.001 1:0.41430469 2:-6.158625 
0.001 1:0.14129492 2:-0.4656875 
0.001 1:0.37476758 2:-6.0885625 
0.001 1:0.40429687 2:-1.10175 
0.001 1:0.50880273 2:-2.163 
0.001 1:0.11067187 2:-0.37425 
0.001 1:0.37276172 2:-6.2431875 
0.0008820039048720779 1:0.65594141 2:-2.2291875 
0.001 1:0.37692773 2:-6.066 
0.001 1:0.49211133 2:-2.1145 
0.001 1:0.14379492 2:-0.279 
0.001 1:0.40451953 2:-1.271 
0.001 1:0.35768945 2:-6.08625 
0.0009184621994651271 1:0.49548828 2:-3.364375 
0.001 1:0.35889258 2:-6.5419375 
0.001 1:0.43245703 2:-6.32425 
0.001 1:0.3979668 2:-6.434375 
0.001 1:0.10868945 2:-0.1948125 
0.001 1:0.1243418 2:-0.2868125 
0.001 1:0.13354297 2:-0.4223125 
0.001 1:0.41103125 2:-1.5165625 
0.001 1:0.098914062 2:-0.388625 
0.001 1:0.14757227 2:-0.2563125 
0.000804435389438903 1:0.16332227 2:-0.216 
0.001 1:0.35349219 2:-6.191 
0.001 1:0.13817969 2:-0.2635 
0.001 1:0.11149023 2:-0.2650625 
0.001 1:0.10350977 2:-0.1501875 
0.001 1:0.14802344 2:-0.3280625 
0.001 1:0.11340039 2:-0.3565625 
0.001 1:0.1297207 2:-0.468625 
0.001 1:0.093216797 2:-0.45825 
0.001 1:0.12647656 2:-0.446 
0.001 1:0.41219531 2:-7.08375 
0.001 1:0.58155273 2:-2.5085 
0.001 1:0.52079102 2:-2.4798125 
0.001 1:0.52735156 2:-4.2251875 
0.001 1:0.091390625 2:-0.3915625 
0.001 1:0.33484766 2:-6.761375 
0.001 1:0.12116602 2:-0.2950625 
0.001 1:0.10192383 2:-0.33725 
0.001 1:0.10512695 2:-0.3761875 
0.001 1:0.092326172 2:-0.365625 
0.001 1:0.14992773 2:-0.4365625 
0.001 1:0.33361914 2:-6.093125 
0.001 1:0.0925 2:-0.405875 
0.001 1:0.15075781 2:-0.2981875 
0.001 1:0.10614258 2:-0.2461875 
0.001 1:0.13176758 2:-0.3184375 
0.001 1:0.095267578 2:-0.5049375 
0.001 1:0.53094922 2:-2.2313125 
0.001 1:0.47037109 2:-1.6984375 
0.001 1:0.14886328 2:-0.40175 
0.001 1:0.12764062 2:-0.390375 
0.001 1:0.52552539 2:-3.46175 
0.0004863021783487678 1:0.48716016 2:-4.86025 
0.001 1:0.11573242 2:-0.4068125 
0.001 1:0.50982422 2:-2.602875 
0.001 1:0.13794531 2:-0.4776875 
0.001 1:0.10803516 2:-0.1565625 
0.001 1:0.41668164 2:-5.924875 
0.001 1:0.51782031 2:-2.9840625 
0.001 1:0.55075 2:-2.677 
0.001 1:0.39354883 2:-5.9889375 
0.001 1:0.12649023 2:-0.3653125 
0.001 1:0.34725 2:-6.13525 
0.001 1:0.46201172 2:-5.260375 
0.001 1:0.32481836 2:-6.3535 
0.0002382359479964193 1:0.41588477 2:-5.7424375 
0.001 1:0.4820332 2:-1.2183125 
0.001 1:0.10305469 2:-0.2403125 
0.001 1:0.39512695 2:-6.255875 
0.001 1:0.50605664 2:-2.7380625 
0.001 1:0.52707617 2:-4.68575 
0.001 1:0.35478711 2:-6.158125 
0.001 1:0.096822266 2:-0.44275 
0.001 1:0.099722656 2:-0.31875 
0.001 1:0.13455859 2:-0.41975 
0.000374326789478649 1:0.15018359 2:-0.1978125 
0.001 1:0.13851953 2:-0.4943125 
0.001 1:0.52820117 2:-3.1533125 
0.001 1:0.096380859 2:-0.32325 
0.001 1:0.11195312 2:-0.3650625 
0.001 1:0.10279687 2:-0.2023125 
0.001 1:0.53497656 2:-4.1345 
0.001 1:0.1553125 2:-0.3605 
0.001 1:0.10585156 2:-0.4585 
0.001 1:0.12032031 2:-0.275875 
0.001 1:0.40841602 2:-5.890375 
0.001 1:0.12021484 2:-0.266625 
0.001 1:0.12619336 2:-0.4399375 
0.001 1:0.1387832 2:-0.2895 
0.001 1:0.45636133 2:-5.3300625 
0.001 1:0.47380469 2:-2.396625 
0.0001595022417022539 1:0.57983398 2:-1.5735625 
0.001 1:0.10086328 2:-0.3555 
0.001 1:0.089394531 2:-0.407625 
0.001 1:0.077960938 2:-0.51175 
0.001 1:0.10139063 2:-0.265875 
0.001 1:0.10471094 2:-0.235125 
0.001 1:0.34958789 2:-6.155125 
0.001 1:0.31766992 2:-6.3675 
2.306488683508638e-05 1:0.49307031 2:-2.892875 
0.001 1:0.44060156 2:-1.6279375 
0.001 1:0.39014258 2:-6.121875 
0.001 1:0.46235742 2:-5.634125 
0.001 1:0.48723242 2:-2.3460625 
0.001 1:0.091064453 2:-0.33625 
0.001 1:0.396875 2:-1.6061875 
0.001 1:0.11264648 2:-0.2361875 
0.001 1:0.33461719 2:-6.2285 
0.001 1:0.13386328 2:-0.4603125 
0.001 1:0.13016797 2:-0.4386875 
0.001 1:0.45062109 2:-1.7868125 
0.001 1:0.14508789 2:-0.4515 
0.001 1:0.12403711 2:-0.45925 
0.001 1:0.091367187 2:-0.4304375 
0.001 1:0.13489258 2:-0.252625 
0.0003461792078284253 1:0.30098828 2:-6.4419375 
0.001 1:0.52864844 2:-2.0689375 
0.001 1:0.13743359 2:-0.297875 
0.001 1:0.46813867 2:-1.7313125 
0.001 1:0.44779492 2:-1.6871875 
0.001 1:0.10736719 2:-0.22725 
0.001 1:0.12208984 2:-0.3139375 
0.001 1:0.093611328 2:-0.458625 
0.001 1:0.40891211 2:-5.9803125 
0.001 1:0.15754102 2:-0.3066875 
0.001 1:0.43997461 2:-1.51125 
0.001 1:0.34370508 2:-6.6133125 
0.001 1:0.37031445 2:-6.1486875 
0.001 1:0.14119141 2:-0.4194375 
0.001 1:0.39774414 2:-6.05375 
0.001 1:0.094763672 2:-0.387625 
0.001 1:0.09196875 2:-0.3141875 
0.001 1:0.39798438 2:-6.242 
0.001 1:0.13530078 2:-0.444875 
0.001 1:0.10148242 2:-0.4575 
0.001 1:0.40190625 2:-5.91075 
0.001 1:0.42236328 2:-6.1394375 
0.001 1:0.083164063 2:-0.5235 
0.001 1:0.10375391 2:-0.212 
0.001 1:0.50765234 2:-2.22525 
0.001 1:0.12626758 2:-0.246375 
0.001 1:0.14872266 2:-0.407125 
0.001 1:0.3770293 2:-6.11475 
0.001 1:0.14417773 2:-0.458875 
0.001 1:0.45385156 2:-2.0045625 
0.001 1:0.43955078 2:-1.6426875 
0.001 1:0.33624023 2:-6.860125 
0.001 1:0.16164258 2:-0.3683125 
0.001 1:0.16263477 2:-0.3573125 
0.001 1:0.42924219 2:-6.279125 
0.001 1:0.15559766 2:-0.45925 
0.001 1:0.5178125 2:-2.3533125 
0.001 1:0.31619727 2:-6.3761875 
0.001 1:0.1375918 2:-0.3901875 
0.001 1:0.54844922 2:-2.60875 
0.001 1:0.37858984 2:-6.0868125 
0.001 1:0.11748828 2:-0.4265 
0.001 1:0.49685547 2:-1.6393125 
0.001 1:0.38610742 2:-6.1371875 
0.001 1:0.13530273 2:-0.4311875 
0.001 1:0.098894531 2:-0.3690625 
0.001 1:0.38570117 2:-6.1624375 
0.001 1:0.16294336 2:-0.344 
0.001 1:0.10410156 2:-0.1661875 
0.001 1:0.49560547 2:-4.876 
0.001 1:0.46247266 2:-6.5006875 
0.001 1:0.34056836 2:-6.399125 
0.001 1:0.13804688 2:-0.4255 
0.001 1:0.49108398 2:-1.9874375 
0.001 1:0.14631836 2:-0.4338125 
0.001 1:0.36661328 2:-6.022 
0.001 1:0.34091016 2:-6.29425 
0.001 1:0.4509043 2:-6.5925625 
1.781836024748812e-05 1:0.14714258 2:-0.4634375 
0.001 1:0.12524609 2:-0.281875 
0.001 1:0.41826953 2:-5.916375 
0.001 1:0.41155273 2:-6.8126875 
2.120524335473653e-05 1:0.50018164 2:-4.394625 
0.001 1:0.53393555 2:-3.7854375 
0.001 1:0.47471289 2:-1.781 
0.001 1:0.17372852 2:-0.3841875 
0.001 1:0.49775 2:-2.6403125 
0.001 1:0.64953711 2:-2.5906875 
0.001 1:0.11962891 2:-0.4805625 
0.001 1:0.34611328 2:-1.1154375 
0.001 1:0.35835547 2:-6.3311875 
0.001 1:0.13998437 2:-0.4235 
0.001 1:0.1048457 2:-0.404 
0.001 1:0.10165625 2:-0.324625 
0.001 1:0.1357207 2:-0.4694375 
0.001 1:0.089660156 2:-0.3435 
0.001 1:0.14004297 2:-0.4045 
0.001 1:0.35353711 2:-6.4664375 
0.001 1:0.40830859 2:-5.9036875 
0.001 1:0.12200781 2:-0.4491875 
0.001 1:0.44179297 2:-1.180625 
0.001 1:0.3229082 2:-6.2829375 
0.001 1:0.13519727 2:-0.3946875 
0.001 1:0.43591602 2:-5.860375 
0.001 1:0.13360547 2:-0.4934375 
0.001 1:0.12141992 2:-0.1913125 
0.001 1:0.099912109 2:-0.2281875 
0.001 1:0.09196875 2:-0.3166875 
0.001 1:0.1179082 2:-0.281875 
0.001 1:0.10866797 2:-0.5028125 
0.001 1:0.098341797 2:-0.499875 
0.001 1:0.10531641 2:-0.38825 
0.001 1:0.11030664 2:-0.315125 
0.001 1:0.45997461 2:-6.2921875 
0.001 1:0.49410352 2:-1.903625 
0.001 1:0.55480078 2:-3.3968125 
0.001 1:0.54077734 2:-2.5634375 
0.001 1:0.10131836 2:-0.49875 
0.001 1:0.10248828 2:-0.332125 
0.001 1:0.094980469 2:-0.3855 
0.001 1:0.48474609 2:-6.674125 
0.001 1:0.094044922 2:-0.4548125 
0.001 1:0.089603516 2:-0.2883125 
0.001 1:0.15856836 2:-0.29775 
0.001 1:0.12512305 2:-0.399 
0.001 1:0.49497656 2:-2.2388125 
0.001 1:0.4799043 2:-2.1899375 
0.001 1:0.12323242 2:-0.380125 
0.001 1:0.39682227 2:-1.5556875 
0.001 1:0.12008008 2:-0.25775 
0.001 1:0.10151172 2:-0.2658125 
0.001 1:0.087685547 2:-0.4531875 
0.001 1:0.35580078 2:-6.299125 
0.001 1:0.34071094 2:-6.2910625 
0.001 1:0.44792773 2:-5.903 
0.001 1:0.090515625 2:-0.3639375 
0.001 1:0.4265625 2:-1.383125 
0.001 1:0.12408984 2:-0.189 
0.001 1:0.51403125 2:-6.2425 
0.001 1:0.095197266 2:-0.3486875 
0.001 1:0.094089844 2:-0.35575 
0.001 1:0.36413867 2:-6.3994375 
0.001 1:0.14930469 2:-0.344 
0.001 1:0.11367188 2:-0.2075625 
0.001 1:0.14340234 2:-0.4580625 
0.001 1:0.13744531 2:-0.3645625 
0.001 1:0.38785547 2:-6.0408125 
0.001 1:0.50256445 2:-4.464375 
0.001 1:0.11025195 2:-0.245875 
0.001 1:0.37899609 2:-6.203375 
0.001 1:0.43064648 2:-5.9849375 
0.001 1:0.3282168 2:-6.19075 
0.001 1:0.12306641 2:-0.3733125 
0.001 1:0.54441992 2:-4.3748125 
0.001 1:0.45663086 2:-6.1100625 
0.001 1:0.37686719 2:-6.1020625 
0.001 1:0.40001758 2:-6.005875 
0.001 1:0.10266602 2:-0.3030625 
0.001 1:0.12006641 2:-0.2590625 
0.001 1:0.46874414 2:-2.178875 
0.001 1:0.31078125 2:-6.1899375 
0.001 1:0.50226563 2:-3.4804375 
0.001 1:0.34674219 2:-6.1005625 
0.001 1:0.32765625 2:-6.1134375 
0.001 1:0.10000977 2:-0.54025 
0.001 1:0.36801953 2:-6.04 
0.001 1:0.14422852 2:-0.453125 
0.001 1:0.099580078 2:-0.4653125 
0.001 1:0.38377344 2:-6.2124375 
0.001 1:0.094498047 2:-0.5005 
0.001 1:0.44400781 2:-5.9770625 
0.001 1:0.53006445 2:-2.718375 
0.001 1:0.59253906 2:-2.77375 
0.001 1:0.1101543 2:-0.4315625 
0.001 1:0.10205469 2:-0.46125 
0.001 1:0.088183594 2:-0.51125 
0.001 1:0.50798047 2:-2.635 
0.001 1:0.09271875 2:-0.50975 
0.001 1:0.12203125 2:-0.36325 
0.001 1:0.52775391 2:-2.3980625 
0.001 1:0.45107812 2:-2.0339375 
0.001 1:0.15279492 2:-0.351375 
0.001 1:0.10953906 2:-0.2093125 
0.001 1:0.4515 2:-5.3444375 
0.001 1:0.34183008 2:-6.1061875 
0.001 1:0.43492188 2:-5.8491875 
0.001 1:0.12621094 2:-0.2626875 
0.001 1:0.11013086 2:-0.2614375 
0.001 1:0.090832031 2:-0.413625 
0.001 1:0.092617187 2:-0.48525 
0.001 1:0.10375 2:-0.3034375 
0.001 1:0.31803516 2:-0.858 
0.001 1:0.11448242 2:-0.395875 
0.001 1:0.4214043 2:-5.82125 
0.001 1:0.082849609 2:-0.51425 
0.001 1:0.097117188 2:-0.2763125 
0.001 1:0.088917969 2:-0.41075 
0.001 1:0.5069082 2:-2.5089375 
0.001 1:0.40707813 2:-1.1791875 
0.001 1:0.4128457 2:-5.946 
0.001 1:0.17925391 2:-0.3043125 
0.001 1:0.15711523 2:-0.3749375 
0.001 1:0.3845 2:-6.7055 
0.001 1:0.34606445 2:-6.244125 
0.001 1:0.13367773 2:-0.4679375 
0.001 1:0.43455859 2:-1.505125 
0.001 1:0.44727148 2:-5.6630625 
0.001 1:0.11569922 2:-0.3685625 
0.001 1:0.31308203 2:-6.5335625 
0.001 1:0.44730469 2:-5.969375 
0.000289243580723969 1:0.49887891 2:-3.0599375 
0.001 1:0.41330273 2:-6.1581875 
0.001 1:0.43425977 2:-1.4025 
0.001 1:0.39750977 2:-6.3005625 
0.0009350019880592793 1:0.49054687 2:-1.1923125 
0.001 1:0.35910352 2:-6.03025 
0.001 1:0.11790625 2:-0.303625 
0.001 1:0.14965625 2:-0.3728125 
0.001 1:0.12167188 2:-0.3645 
0.001 1:0.10613281 2:-0.24175 
0.001 1:0.11179687 2:-0.3708125 
0.001 1:0.37888477 2:-1.45675 
0.001 1:0.11030664 2:-0.3095625 
0.001 1:0.094185547 2:-0.5078125 
0.001 1:0.41257227 2:-1.71725 
0.001 1:0.14059961 2:-0.430375 
0.001 1:0.13075781 2:-0.4119375 
0.001 1:0.32683789 2:-6.4313125 
0.001 1:0.12494922 2:-0.4011875 
0.001 1:0.49512891 2:-1.64025 
0.001 1:0.1204043 2:-0.27 
0.001 1:0.11500781 2:-0.2405625 
0.001 1:0.099896484 2:-0.499875 
0.001 1:0.14049023 2:-0.4394375 
0.001 1:0.10293945 2:-0.3921875 
0.001 1:0.091978516 2:-0.4714375 
0.001 1:0.10688477 2:-0.239125 
0.001 1:0.10129297 2:-0.3945 
0.001 1:0.1389707 2:-0.4585625 
0.001 1:0.12325977 2:-0.4654375 
0.001 1:0.13203906 2:-0.3524375 
0.001 1:0.10169141 2:-0.2866875 
0.001 1:0.10144727 2:-0.3619375 
0.001 1:0.11148242 2:-0.46475 
0.001 1:0.12993359 2:-0.263125 
0.001 1:0.089023438 2:-0.5033125 
0.001 1:0.35224805 2:-6.4756875 
0.001 1:0.11089844 2:-0.2035625 
0.001 1:0.46754492 2:-5.648125 
0.001 1:0.39713867 2:-5.9639375 
0.001 1:0.40342578 2:-6.348125 
0.001 1:0.1322207 2:-0.179 
0.001 1:0.39936523 2:-5.981625 
0.001 1:0.50034766 2:-1.9210625 
0.001 1:0.30291602 2:-0.991625 
0.001 1:0.47638086 2:-5.2835625 
0.001 1:0.094574219 2:-0.393375 
0.001 1:0.38733984 2:-6.4479375 
0.001 1:0.10168555 2:-0.2433125 
0.001 1:0.10214453 2:-0.3369375 
0.001 1:0.096841797 2:-0.3508125 
0.001 1:0.40545312 2:-6.2274375 
0.001 1:0.45595703 2:-5.719625 
0.001 1:0.40119336 2:-7.3266875 
0.0009107741894912854 1:0.30795703 2:-6.1831875 
0.001 1:0.10604102 2:-0.3180625 
0.001 1:0.099923828 2:-0.4315 
0.001 1:0.11803906 2:-0.4515625 
0.001 1:0.35628711 2:-6.539625 
0.001 1:0.50546875 2:-2.978125 
0.0003506827759426456 1:0.50483789 2:-3.899875 
0.001 1:0.59392578 2:-2.6131875 
0.001 1:0.37595117 2:-6.845625 
0.001 1:0.56246484 2:-4.2535625 
0.001 1:0.43242188 2:-1.561625 
0.001 1:0.52732813 2:-2.161125 
0.001 1:0.5656875 2:-1.8881875 
0.001 1:0.099724609 2:-0.323875 
0.001 1:0.43997461 2:-1.7660625 
0.001 1:0.36097461 2:-6.4238125 
0.001 1:0.11764258 2:-0.402625 
0.001 1:0.30711719 2:-6.25125 
0.001 1:0.13882031 2:-0.411375 
0.001 1:0.095435547 2:-0.3585 
0.001 1:0.37617578 2:-6.118875 
0.001 1:0.10081836 2:-0.3579375 
0.001 1:0.52079883 2:-3.961125 
0.001 1:0.14973047 2:-0.452375 
0.001 1:0.50749414 2:-4.0415625 
0.001 1:0.36618555 2:-6.76 
0.001 1:0.14710938 2:-0.22725 
0.001 1:0.41069727 2:-6.33175 
0.001 1:0.16120703 2:-0.412125 
0.001 1:0.14616992 2:-0.3716875 
0.001 1:0.50777344 2:-3.3566875 
0.000900134325336116 1:0.16658789 2:-0.4264375 
0.001 1:0.51006055 2:-1.950875 
0.001 1:0.5255957 2:-5.70775 
0.001 1:0.46969531 2:-2.3004375 
0.001 1:0.50944336 2:-3.7714375 
0.001 1:0.1275957 2:-0.4744375 
0.001 1:0.114125 2:-0.3439375 
0.001 1:0.1231543 2:-0.2958125 
0.001 1:0.094205078 2:-0.4821875 
0.001 1:0.41494922 2:-6.254125 
0.001 1:0.3515918 2:-1.2735625 
0.001 1:0.44529687 2:-1.3795 
0.001 1:0.29655078 2:-0.9794375 
0.001 1:0.328875 2:-6.424 
0.001 1:0.13301367 2:-0.365 
0.001 1:0.30435937 2:-6.94625 
0.001 1:0.40796094 2:-6.3503125 
0.001 1:0.37275586 2:-7.081375 
0.001 1:0.35354297 2:-7.0851875 
0.001 1:0.35895703 2:-6.632125 
0.001 1:0.11638867 2:-0.3818125 
0.001 1:0.1700625 2:-0.4009375 
0.001 1:0.068048828 2:-0.315 
0.0008030340510791281 1:0.37524414 2:-5.9794375 
0.001 1:0.093871094 2:-0.28325 
0.001 1:0.38938672 2:-1.4563125 
0.001 1:0.11033203 2:-0.3363125 
0.001 1:0.11539648 2:-0.379 
0.001 1:0.41708984 2:-7.1114375 
0.001 1:0.108125 2:-0.338375 
0.001 1:0.36837695 2:-6.2575 
0.001 1:0.13191211 2:-0.392625 
0.001 1:0.51585742 2:-6.6545 
0.001 1:0.43723828 2:-7.1905 
0.001 1:0.5284082 2:-3.2651875 
0.001 1:0.52434375 2:-2.0265 
0.001 1:0.4947168 2:-2.6748125 
0.001 1:0.15412891 2:-0.297 
0.001 1:0.49741406 2:-2.678875 
0.001 1:0.35732227 2:-6.6468125 
0.001 1:0.3703457 2:-6.1079375 
0.001 1:0.12449023 2:-0.4356875 
0.001 1:0.10514258 2:-0.224 
0.001 1:0.14219141 2:-0.4508125 
0.001 1:0.40974609 2:-6.5911875 
0.001 1:0.12447852 2:-0.4695 
0.001 1:0.10458203 2:-0.34025 
0.001 1:0.41735742 2:-1.526375 
0.001 1:0.13016992 2:-0.2438125 
0.001 1:0.12068359 2:-0.45025 
0.001 1:0.10584961 2:-0.2670625 
0.001 1:0.34125391 2:-1.1159375 
0.001 1:0.43819336 2:-6.483 
0.001 1:0.1390332 2:-0.3398125 
0.001 1:0.44541211 2:-6.16325 
0.001 1:0.45349219 2:-1.922625 
0.001 1:0.56148633 2:-3.396 
0.001 1:0.14047461 2:-0.329875 
0.001 1:0.1491582 2:-0.2735625 
0.001 1:0.49329102 2:-2.5065625 
0.001 1:0.14095898 2:-0.400125 
0.001 1:0.5193418 2:-3.74275 
0.001 1:0.15826172 2:-0.267 
0.001 1:0.10489844 2:-0.33525 
0.001 1:0.10010156 2:-0.3700625 
0.0005395927397996429 1:0.50227539 2:-3.744 
0.001 1:0.51713281 2:-3.2915625 
0.001 1:0.12051562 2:-0.2690625 
0.001 1:0.40981836 2:-7.1111875 
0.001 1:0.48641992 2:-1.735875 
0.001 1:0.54072852 2:-4.29325 
0.001 1:0.40919141 2:-6.5406875 
0.001 1:0.59758984 2:-2.2580625 
0.001 1:0.2762207 2:-0.91625 
-0.001 1:0.44066992 2:-4.3504375 
-0.001 1:0.27822461 2:-4.0888125 
-0.001 1:0.28741406 2:-4.3654375 
-0.001 1:0.18921094 2:-3.328375 
-0.001 1:0.34156641 2:-4.8388125 
-0.001 1:0.28816211 2:-3.75325 
-0.001 1:0.42295508 2:-4.58325 
-0.001 1:0.35011133 2:-4.5961875 
-0.001 1:0.30645703 2:-2.082 
-0.001 1:0.33792773 2:-3.1846875 
-0.001 1:0.41233789 2:-5.5705 
-0.001 1:0.35138672 2:-4.4420625 
-0.001 1:0.24904883 2:-4.0290625 
-0.001 1:0.26214258 2:-4.100125 
-0.001 1:0.27826172 2:-4.4676875 
-0.001 1:0.33248828 2:-2.502 
-0.001 1:0.36280664 2:-5.8456875 
-0.001 1:0.35701172 2:-4.0114375 
-0.001 1:0.33430859 2:-3.2810625 
-0.001 1:0.29611523 2:-5.2068125 
-0.001 1:0.32277539 2:-3.7033125 
-0.001 1:0.33418555 2:-2.956375 
-0.001 1:0.16690234 2:-2.8409375 
-0.001 1:0.33725781 2:-3.869 
-0.001 1:0.25451758 2:-1.7416875 
-0.001 1:0.30048633 2:-3.50575 
-0.001 1:0.24953906 2:-2.5758125 
-0.001 1:0.2707207 2:-4.2679375 
-0.001 1:0.37868359 2:-4.4215 
-0.001 1:0.22776367 2:-2.785125 
-0.001 1:0.33098047 2:-2.8483125 
-0.001 1:0.39789844 2:-2.9333125 
-0.001 1:0.31657031 2:-3.592375 
-0.001 1:0.21885156 2:-1.7906875 
-0.001 1:0.31800195 2:-2.7066875 
-0.001 1:0.19188281 2:-2.0279375 
-0.001 1:0.17126758 2:-2.6516875 
-0.001 1:0.29497461 2:-2.2556875 
-0.001 1:0.28387305 2:-3.2044375 
-0.001 1:0.40943945 2:-2.8265625 
-0.001 1:0.20573242 2:-2.702 
-0.001 1:0.34373047 2:-3.911375 
-0.001 1:0.24505859 2:-3.2475 
-0.001 1:0.26678516 2:-2.513375 
-0.001 1:0.25408203 2:-4.2065 
-0.001 1:0.3456543 2:-3.2239375 
-0.001 1:0.24648828 2:-3.09025 
-0.001 1:0.19146289 2:-3.1794375 
-0.001 1:0.32058789 2:-2.162375 
-0.001 1:0.343625 2:-3.1510625 
-0.001 1:0.30064063 2:-4.62675 
-0.001 1:0.25929492 2:-3.3233125 
-0.001 1:0.23530273 2:-1.1014375 
-0.001 1:0.28984375 2:-4.7261875 
-0.001 1:0.25291602 2:-4.2434375 
-0.001 1:0.20922266 2:-2.4875625 
-0.001 1:0.18249414 2:-3.0206875 
-0.001 1:0.2452207 2:-4.069625 
-0.001 1:0.47007031 2:-3.4156875 
-0.001 1:0.25875391 2:-3.735125 
-0.001 1:0.25331055 2:-5.259125 
-0.001 1:0.33484375 2:-4.3180625 
-0.001 1:0.19809375 2:-3.069 
-0.001 1:0.23054297 2:-3.08525 
-0.001 1:0.22968555 2:-4.1193125 
-0.001 1:0.39870508 2:-6.2614375 
-0.001 1:0.33263477 2:-5.3505 
-0.001 1:0.25126563 2:-2.5884375 
-0.001 1:0.28254102 2:-2.7315 
-0.001 1:0.24461719 2:-3.759875 
-0.001 1:0.30981836 2:-2.747 
-0.001 1:0.25489844 2:-3.386625 
-0.001 1:0.28346094 2:-1.1570625 
-0.001 1:0.26345898 2:-4.1485 
-0.001 1:0.28462109 2:-2.889125 
-0.001 1:0.1962832 2:-2.790375 
-0.001 1:0.16263086 2:-2.6108125 
-0.001 1:0.17793555 2:-1.9318125 
-0.001 1:0.28441602 2:-4.591875 
-0.001 1:0.29831641 2:-1.8839375 
-0.001 1:0.32322461 2:-4.9383125 
-0.001 1:0.22491602 2:-2.3835 
-0.001 1:0.29147852 2:-2.597125 
-0.001 1:0.19753516 2:-3.424375 
-0.001 1:0.27897461 2:-2.5580625 
-0.001 1:0.43238867 2:-2.8535625 
-0.001 1:0.32033984 2:-3.4545625 
-0.001 1:0.27245117 2:-3.922625 
-0.001 1:0.12591406 2:-1.9669375 
-0.001 1:0.23814258 2:-3.4095 
-0.001 1:0.3985957 2:-4.82175 
-0.001 1:0.24329297 2:-3.091 
-0.001 1:0.25313672 2:-2.7315 
-0.001 1:0.27132227 2:-3.500875 
-0.001 1:0.35445117 2:-2.0418125 
-0.001 1:0.31777148 2:-5.3259375 
-0.001 1:0.41664844 2:-5.8334375 
-0.001 1:0.37456445 2:-3.8265 
-0.001 1:0.29933008 2:-3.1620625 
-0.001 1:0.17382031 2:-1.9191875 
-0.001 1:0.16448242 2:-2.1161875 
-0.001 1:0.37798242 2:-5.36075 
-0.001 1:0.35523242 2:-5.1198125 
-0.001 1:0.2519707 2:-2.6255625 
-0.001 1:0.30011328 2:-3.26075 
-0.001 1:0.2056543 2:-2.8788125 
-0.001 1:0.2994707 2:-3.6604375 
-0.001 1:0.28832227 2:-3.2866875 
-0.001 1:0.12416602 2:-2.0903125 
-0.001 1:0.11805469 2:-2.27 
-0.001 1:0.17107227 2:-1.879375 
-0.001 1:0.26833398 2:-4.8129375 
-0.001 1:0.17469141 2:-2.1999375 
-0.001 1:0.18063281 2:-1.7966875 
-0.001 1:0.15491016 2:-3.04925 
-0.001 1:0.23418945 2:-3.1060625 
-0.001 1:0.34679102 2:-4.3859375 
-0.001 1:0.18732031 2:-3.1871875 
-0.001 1:0.24810742 2:-2.2230625 
-0.001 1:0.20545117 2:-3.250625 
-0.001 1:0.20155859 2:-2.3331875 
-0.001 1:0.34156445 2:-3.5378125 
-0.001 1:0.37650977 2:-3.31375 
-0.001 1:0.35983789 2:-4.137 
-0.001 1:0.18253516 2:-3.388375 
-0.001 1:0.31178516 2:-2.6841875 
-0.001 1:0.28626953 2:-2.63325 
-0.001 1:0.3564082 2:-4.6351875 
-0.001 1:0.29650781 2:-3.8868125 
-0.001 1:0.31982812 2:-5.0585 
-0.001 1:0.30227734 2:-2.2331875 
-0.001 1:0.28037109 2:-1.59875 
-0.001 1:0.21647656 2:-1.9361875 
-0.001 1:0.24942188 2:-1.6803125 
-0.001 1:0.25853125 2:-4.44175 
-0.001 1:0.21929688 2:-1.9210625 
-0.001 1:0.3401875 2:-1.4686875 
-0.001 1:0.32116602 2:-1.6766875 
-0.001 1:0.23394336 2:-2.904 
-0.001 1:0.2692793 2:-4.3863125 
-0.001 1:0.28656836 2:-5.2745 
-0.001 1:0.34270508 2:-2.6396875 
-0.001 1:0.22915234 2:-1.374375 
-0.001 1:0.33480664 2:-2.5214375 
-0.001 1:0.27562891 2:-3.6761875 
-0.001 1:0.28976953 2:-3.163375 
-0.001 1:0.34318555 2:-4.044125 
-0.001 1:0.26531055 2:-4.804 
-0.001 1:0.26812109 2:-3.9265625 
-0.001 1:0.241125 2:-3.359 
-0.001 1:0.35424609 2:-4.1588125 
-0.001 1:0.1582793 2:-2.42875 
-0.001 1:0.2905 2:-5.1194375 
-0.001 1:0.20248633 2:-1.470125 
-0.001 1:0.21135742 2:-2.489 
-0.001 1:0.31603125 2:-3.776875 
-0.001 1:0.23958398 2:-2.7159375 
-0.001 1:0.34157617 2:-4.2260625 
-0.001 1:0.36369141 2:-2.1930625 
-0.001 1:0.32398242 2:-3.5039375 
-0.001 1:0.20150586 2:-2.223875 
-0.001 1:0.21023242 2:-3.081125 
-0.001 1:0.38706445 2:-4.7500625 
-0.001 1:0.25750977 2:-2.2086875 
-0.001 1:0.3180957 2:-4.3368125 
-0.001 1:0.31791016 2:-3.7708125 
-0.001 1:0.48707422 2:-3.45225 
-0.001 1:0.3085 2:-4.161875 
-0.001 1:0.26771875 2:-2.972875 
-0.001 1:0.22813086 2:-2.677875 
-0.001 1:0.40599219 2:-2.685625 
-0.001 1:0.27122852 2:-3.7273125 
-0.001 1:0.20182617 2:-3.198125 
-0.001 1:0.24357227 2:-2.9170625 
-0.001 1:0.42968359 2:-4.415625 
-0.001 1:0.27746094 2:-4.6858125 
-0.001 1:0.16998047 2:-2.7985625 
-0.001 1:0.11469336 2:-1.1860625 
-0.001 1:0.34663867 2:-2.43325 
-0.001 1:0.30842383 2:-5.3401875 
-0.001 1:0.30995703 2:-2.99925 
-0.001 1:0.36791797 2:-1.7798125 
-0.001 1:0.38985742 2:-2.2789375 
-0.001 1:0.32626953 2:-3.5511875 
-0.001 1:0.2986543 2:-4.975125 
-0.001 1:0.1933457 2:-2.478125 
-0.001 1:0.19559961 2:-2.8805625 
-0.001 1:0.22288086 2:-0.879125 
-0.001 1:0.22076758 2:-3.50925 
-0.001 1:0.44749609 2:-3.6575625 
-0.001 1:0.18795117 2:-2.6435 
-0.001 1:0.21619336 2:-3.8670625 
-0.001 1:0.16503906 2:-2.1281875 
-0.001 1:0.27644531 2:-2.738125 
-0.001 1:0.21367188 2:-3.5629375 
-0.001 1:0.22887305 2:-3.4574375 
-0.001 1:0.23996094 2:-4.4979375 
-0.001 1:0.34984961 2:-4.391 
-0.001 1:0.29217773 2:-3.0855625 
-0.001 1:0.45689844 2:-4.434625 
-0.001 1:0.43435742 2:-3.4658125 
-0.001 1:0.18168164 2:-1.866875 
-0.001 1:0.1979668 2:-3.116375 
-0.001 1:0.20913672 2:-3.9043125 
-0.001 1:0.20894531 2:-4.481875 
-0.001 1:0.22959961 2:-2.5274375 
-0.001 1:0.24679883 2:-3.1264375 
-0.001 1:0.27471484 2:-2.5206875 
-0.001 1:0.32786133 2:-4.434 
-0.001 1:0.30963086 2:-2.8083125 
-0.001 1:0.38985547 2:-3.799625 
-0.001 1:0.21798437 2:-2.28275 
-0.001 1:0.26881055 2:-3.0364375 
-0.001 1:0.20781641 2:-1.73425 
-0.001 1:0.32364258 2:-0.9266875 
-0.001 1:0.18230469 2:-3.516875 
-0.001 1:0.20025195 2:-2.91475 
-0.001 1:0.19434375 2:-2.10675 
-0.001 1:0.17934961 2:-4.0168125 
-0.001 1:0.23202734 2:-1.8263125 
-0.001 1:0.29225195 2:-2.52325 
-0.001 1:0.19449023 2:-2.5605 
-0.001 1:0.22368359 2:-2.012125 
-0.001 1:0.20332227 2:-4.2685625 
-0.001 1:0.22722266 2:-2.2946875 
-0.001 1:0.26252344 2:-3.743625 
-0.001 1:0.17598047 2:-3.4860625 
-0.001 1:0.29560156 2:-2.88125 
-0.001 1:0.33454297 2:-4.7880625 
-0.001 1:0.33392969 2:-4.0231875 
-0.001 1:0.30508789 2:-5.8201875 
-0.001 1:0.26403125 2:-4.804125 
-0.001 1:0.19893359 2:-3.0593125 
-0.001 1:0.25470508 2:-0.922875 
-0.001 1:0.42402148 2:-4.7025625 
-0.001 1:0.38944922 2:-2.8925625 
-0.001 1:0.26929297 2:-2.8614375 
-0.001 1:0.27592773 2:-3.5386875 
-0.001 1:0.26537109 2:-3.0890625 
-0.001 1:0.38280273 2:-4.365125 
-0.001 1:0.23808984 2:-4.31375 
-0.001 1:0.22843164 2:-2.9856875 
-0.001 1:0.33358984 2:-2.0735 
-0.001 1:0.47258203 2:-5.1478125 
-0.001 1:0.27886328 2:-2.8150625 
-0.001 1:0.33678711 2:-3.9640625 
-0.001 1:0.24440234 2:-2.9349375 
-0.001 1:0.29697656 2:-3.7760625 
-0.001 1:0.25325586 2:-2.34125 
-0.001 1:0.23811523 2:-3.25 
-0.001 1:0.25968164 2:-4.701 
-0.001 1:0.25855664 2:-4.6235625 
-0.001 1:0.19732812 2:-3.4299375 
-0.001 1:0.39165625 2:-3.201875 
-0.001 1:0.23148828 2:-3.603875 
-0.001 1:0.38961328 2:-2.5674375 
-0.001 1:0.53747656 2:-5.9125 
-0.001 1:0.49851172 2:-4.012375 
-0.001 1:0.34680664 2:-2.6586875 
-0.001 1:0.32651172 2:-2.089 
-0.001 1:0.23910742 2:-3.884375 
-0.001 1:0.22402539 2:-2.560375 
-0.001 1:0.19187109 2:-2.8835625 
-0.001 1:0.25475977 2:-3.0795 
-0.001 1:0.34861719 2:-3.627625 
-0.001 1:0.26051563 2:-3.0916875 
-0.001 1:0.26091406 2:-2.994125 
-0.001 1:0.18579297 2:-1.535625 
-0.001 1:0.27365625 2:-5.3413125 
-0.001 1:0.4163418 2:-3.113875 
-0.001 1:0.25458203 2:-3.885375 
-0.001 1:0.17887109 2:-3.1995625 
-0.001 1:0.16845703 2:-3.3035 
-0.001 1:0.1959375 2:-2.11625 
-0.001 1:0.23158594 2:-3.2494375 
-0.001 1:0.11993555 2:-1.763125 
-0.001 1:0.19563672 2:-3.308 
-0.001 1:0.34460352 2:-4.310625 
-0.001 1:0.27666992 2:-2.86875 
-0.001 1:0.18776562 2:-4.5545625 
-0.001 1:0.22798828 2:-2.3349375 
-0.001 1:0.22554688 2:-3.4891875 
-0.001 1:0.20121484 2:-2.59925 
-0.001 1:0.20608203 2:-3.458125 
-0.001 1:0.20105078 2:-2.6285625 
-0.001 1:0.30475 2:-3.782375 
-0.001 1:0.30993359 2:-4.1353125 
-0.001 1:0.26016406 2:-4.3838125 
-0.001 1:0.2137168 2:-3.3163125 
-0.001 1:0.4074082 2:-3.9875 
-0.001 1:0.25452539 2:-1.412375 
-0.001 1:0.27808203 2:-3.8909375 
-0.001 1:0.24561719 2:-2.2079375 
-0.001 1:0.28167578 2:-4.304125 
-0.001 1:0.27562695 2:-4.340375 
-0.001 1:0.24125 2:-3.3565 
-0.001 1:0.23192383 2:-3.22575 
-0.001 1:0.28276953 2:-4.7361875 
-0.001 1:0.34100781 2:-3.5708125 
-0.001 1:0.23352539 2:-3.975125 
-0.001 1:0.34244141 2:-3.0976875 
-0.001 1:0.13290039 2:-2.3090625 
-0.001 1:0.36560547 2:-4.0115625 
-0.001 1:0.25330078 2:-2.620125 
-0.001 1:0.21359375 2:-2.771125 
-0.001 1:0.32594336 2:-3.5015 
-0.001 1:0.33538281 2:-3.271875 
-0.001 1:0.27471094 2:-5.619875 
-0.001 1:0.24695898 2:-2.8726875 
-0.001 1:0.25708008 2:-4.588 
-0.001 1:0.17051563 2:-3.0683125 
-0.001 1:0.19397852 2:-3.848375 
-0.001 1:0.19169922 2:-3.3955 
-0.001 1:0.27269141 2:-2.4061875 
-0.001 1:0.24682813 2:-3.020875 
-0.001 1:0.21110352 2:-3.1179375 
-0.001 1:0.31226367 2:-3.6335625 
-0.001 1:0.3218125 2:-4.0596875 
-0.001 1:0.34258594 2:-4.0031875 
-0.001 1:0.3360625 2:-5.0768125 
-0.001 1:0.18131836 2:-2.6103125 
-0.001 1:0.16165234 2:-2.727625 
-0.001 1:0.2047832 2:-4.6410625 
-0.001 1:0.20130273 2:-2.4938125 
-0.001 1:0.252875 2:-4.820875 
-0.001 1:0.28405273 2:-2.7609375 
-0.001 1:0.20524805 2:-3.2940625 
-0.001 1:0.23007227 2:-3.1764375 
-0.001 1:0.22306445 2:-2.1304375 
-0.001 1:0.26711914 2:-3.2993125 
-0.001 1:0.24388867 2:-4.0931875 
-0.001 1:0.28783594 2:-4.0601875 
-0.001 1:0.15414062 2:-2.2021875 
-0.001 1:0.22633984 2:-2.71225 
-0.001 1:0.24400781 2:-3.856625 
-0.001 1:0.23644727 2:-3.2451875 
-0.001 1:0.29218359 2:-3.6641875 
-0.001 1:0.28443359 2:-2.0958125 
-0.001 1:0.23073047 2:-1.6185625 
-0.001 1:0.36822461 2:-3.207625 
-0.001 1:0.2292832 2:-3.793375 
-0.001 1:0.23611133 2:-4.131375 
-0.001 1:0.43701758 2:-4.488375 
-0.001 1:0.38616211 2:-3.214625 
-0.001 1:0.31565234 2:-4.6780625 
-0.001 1:0.19752148 2:-2.3913125 
-0.001 1:0.22680664 2:-3.8293125 
-0.001 1:0.17201758 2:-2.700875 
-0.001 1:0.30742383 2:-3.268875 
-0.001 1:0.27598047 2:-3.708 
-0.001 1:0.29252734 2:-2.577 
-0.001 1:0.27103711 2:-3.3648125 
-0.001 1:0.32322656 2:-3.5009375 
-0.001 1:0.22158984 2:-3.21225 
-0.001 1:0.23028906 2:-4.82625 
-0.001 1:0.17536328 2:-3.52325 
-0.001 1:0.24296484 2:-4.9265625 
-0.001 1:0.20635547 2:-3.31375 
-0.001 1:0.20316992 2:-3.5863125 
-0.001 1:0.34807617 2:-3.3745 
-0.001 1:0.23117383 2:-1.6263125 
-0.001 1:0.17340039 2:-2.8970625 
-0.001 1:0.1824375 2:-2.253375 
-0.001 1:0.22170898 2:-2.994125 
-0.001 1:0.2059375 2:-3.43675 
-0.001 1:0.18333789 2:-2.972125 
-0.001 1:0.32995703 2:-5.0885625 
-0.001 1:0.34518164 2:-3.089625 
-0.001 1:0.21728125 2:-3.6040625 
-0.001 1:0.24790234 2:-2.0054375 
-0.001 1:0.24279883 2:-4.3206875 
-0.001 1:0.16273437 2:-3.362 
-0.001 1:0.14829883 2:-3.12725 
-0.001 1:0.28289062 2:-4.6854375 
-0.001 1:0.29769922 2:-3.3219375 
-0.001 1:0.26974414 2:-2.4686875 
-0.001 1:0.41063281 2:-3.0335 
-0.001 1:0.27291406 2:-4.54875 
-0.001 1:0.33769336 2:-4.9349375 
-0.001 1:0.37672852 2:-2.83925 
-0.001 1:0.27688086 2:-3.00525 
-0.001 1:0.34779297 2:-3.0171875 
-0.001 1:0.23342188 2:-3.4863125 
-0.001 1:0.28263867 2:-4.5860625 
-0.001 1:0.3217832 2:-2.419625 
-0.001 1:0.39533594 2:-6.7176875 
-0.001 1:0.28213672 2:-5.9331875 
-0.001 1:0.32939453 2:-4.4934375 
-0.001 1:0.32936133 2:-2.6848125 
-0.001 1:0.32199414 2:-3.3899375 
-0.001 1:0.21166602 2:-4.4863125 
-0.001 1:0.28295508 2:-0.9159375 
-0.001 1:0.28249219 2:-5.382 
-0.001 1:0.37358398 2:-1.4289375 
-0.001 1:0.45644531 2:-5.909 
-0.001 1:0.28070703 2:-3.386625 
-0.001 1:0.40866992 2:-6.1975625 
-0.001 1:0.25119922 2:-4.5901875 
-0.001 1:0.35639844 2:-5.66275 
-0.001 1:0.29777344 2:-3.685375 
-0.001 1:0.21851953 2:-2.33275 
-0.001 1:0.32717578 2:-3.737625 
-0.001 1:0.28992578 2:-2.24675 
-0.001 1:0.35313672 2:-3.7525625 
-0.001 1:0.24664258 2:-2.0425625 
-0.001 1:0.38183594 2:-2.5176875 
-0.001 1:0.36061719 2:-4.7583125 
-0.001 1:0.24798438 2:-1.645375 
-0.001 1:0.26118359 2:-3.87125 
-0.001 1:0.16975977 2:-3.0816875 
-0.001 1:0.33693945 2:-3.259875 
-0.001 1:0.25019141 2:-3.5898125 
-0.001 1:0.29958203 2:-3.055375 
-0.001 1:0.23005273 2:-3.1355625 
-0.001 1:0.26474414 2:-4.135375 
-0.001 1:0.39456641 2:-5.40375 
-0.001 1:0.33640234 2:-3.262875 
-0.001 1:0.31878516 2:-2.9740625 
-0.001 1:0.19802344 2:-3.217 
-0.001 1:0.18999219 2:-2.8030625 
-0.001 1:0.48124219 2:-4.2619375 
-0.001 1:0.39850391 2:-5.1421875 
-0.001 1:0.29498828 2:-3.6255 
-0.001 1:0.22382227 2:-3.1024375 
-0.001 1:0.63630273 2:-3.811125 
-0.001 1:0.39998242 2:-5.83025 
-0.001 1:0.30944727 2:-4.920875 
-0.001 1:0.38100195 2:-4.0913125 
-0.001 1:0.19657227 2:-2.5599375 
-0.001 1:0.28523633 2:-5.0523125 
-0.001 1:0.30372656 2:-3.7325 
-0.001 1:0.34957617 2:-4.8681875 
-0.001 1:0.22933008 2:-1.4585 
-0.001 1:0.20953125 2:-2.31975 
-0.001 1:0.33252148 2:-2.671125 
-0.001 1:0.33732617 2:-2.0031875 
-0.001 1:0.24621484 2:-2.1268125 
-0.001 1:0.26848047 2:-2.389375 
-0.001 1:0.20867188 2:-2.972625 
-0.001 1:0.26129297 2:-3.4439375 
-0.001 1:0.36631055 2:-4.4484375 
-0.001 1:0.21107031 2:-2.5110625 
-0.001 1:0.24078906 2:-3.714875 
-0.001 1:0.36097656 2:-4.47375 
-0.001 1:0.22273828 2:-3.67025 
-0.001 1:0.21485938 2:-2.81125 
-0.001 1:0.15041211 2:-2.840125 
-0.001 1:0.26586328 2:-1.8378125 
-0.001 1:0.16663672 2:-0.9226875 
-0.001 1:0.33104102 2:-2.396 
-0.001 1:0.24013281 2:-3.9851875 
-0.001 1:0.29282812 2:-3.0000625 
-0.001 1:0.21201367 2:-2.6100625 
-0.001 1:0.25363281 2:-2.1921875 
-0.001 1:0.31439063 2:-1.372 
-0.001 1:0.32114258 2:-3.879125 
-0.001 1:0.34213672 2:-2.21525 
-0.001 1:0.31833984 2:-3.9101875 
-0.001 1:0.18915625 2:-2.730375 
-0.001 1:0.2424082 2:-4.52975 
-0.001 1:0.12989258 2:-2.002875 
-0.001 1:0.16420898 2:-2.2751875 
-0.001 1:0.35279102 2:-1.1444375 
-0.001 1:0.37254492 2:-3.54475 
-0.001 1:0.32970117 2:-4.3779375 
-0.001 1:0.32062891 2:-3.608625 
-0.001 1:0.23587695 2:-3.104625 
-0.001 1:0.20524414 2:-2.742625 
-0.001 1:0.34828516 2:-4.4009375 
-0.001 1:0.4075293 2:-3.602375 
-0.001 1:0.27020117 2:-4.633875 
-0.001 1:0.34442578 2:-4.14075 
-0.001 1:0.28167188 2:-1.3150625 
-0.001 1:0.33244727 2:-5.4505 
-0.001 1:0.25854297 2:-1.9469375 
-0.001 1:0.28335937 2:-5.64725 
-0.001 1:0.21907617 2:-2.309 
-0.001 1:0.20453516 2:-2.7575 
-0.001 1:0.24589844 2:-2.381375 
-0.001 1:0.38547461 2:-3.8594375 
-0.001 1:0.18537305 2:-2.150125 
-0.001 1:0.2485918 2:-3.072625 
-0.001 1:0.2670332 2:-4.2991875 
-0.001 1:0.32821484 2:-3.377375 
-0.001 1:0.27573242 2:-2.024875 
-0.001 1:0.27304883 2:-2.7235625 
-0.001 1:0.35416211 2:-5.13225 
-0.001 1:0.2853125 2:-2.308875 
-0.001 1:0.35437891 2:-3.67175 
-0.001 1:0.48145117 2:-3.388 
-0.001 1:0.27879883 2:-4.7460625 
-0.001 1:0.19296289 2:-2.1853125 
-0.001 1:0.27455664 2:-1.5620625 
-0.001 1:0.24530078 2:-2.4893125 
-0.001 1:0.31470898 2:-5.022375 
-0.001 1:0.37425977 2:-6.9378125 
-0.001 1:0.18386523 2:-2.3635 
-0.001 1:0.22955859 2:-3.2878125 
-0.001 1:0.20196094 2:-2.5460625 
-0.001 1:0.19316602 2:-1.945125 
-0.001 1:0.24685352 2:-3.0428125 
-0.001 1:0.24696484 2:-2.446625 
-0.001 1:0.26777344 2:-3.47225 
-0.001 1:0.25980469 2:-4.1055 
-0.001 1:0.17983789 2:-2.21075 
-0.001 1:0.44936328 2:-4.8013125 
-0.001 1:0.41378516 2:-2.7640625 
-0.001 1:0.3052793 2:-3.3136875 
-0.001 1:0.20828906 2:-3.446375 
-0.001 1:0.16669336 2:-3.11175 
-0.001 1:0.24243945 2:-2.4279375 
-0.001 1:0.55966797 2:-2.449125 
-0.001 1:0.27969727 2:-5.0708125 
-0.001 1:0.34248828 2:-3.007375 
-0.001 1:0.26470703 2:-3.743375 
-0.001 1:0.2560957 2:-3.5296875 
-0.001 1:0.21010352 2:-2.54275 
-0.001 1:0.33385547 2:-3.1575 
-0.001 1:0.22311914 2:-3.4271875 
-0.001 1:0.40074023 2:-6.8451875 
-0.001 1:0.16269141 2:-2.1070625 
-0.001 1:0.33954297 2:-2.632375 
-0.001 1:0.25723242 2:-3.903625 
-0.001 1:0.41551562 2:-4.2259375 
-0.001 1:0.2454043 2:-2.608125 
-0.001 1:0.16996094 2:-2.7726875 
-0.001 1:0.27501172 2:-4.4645625 
-0.001 1:0.33283984 2:-3.3153125 
-0.001 1:0.30686133 2:-6.5006875 
-0.001 1:0.26757422 2:-3.5734375 
-0.001 1:0.27630664 2:-2.03475 
-0.001 1:0.30235937 2:-5.8390625 
-0.001 1:0.24019922 2:-3.4763125 
-0.001 1:0.4194082 2:-4.9998125 
-0.001 1:0.28808594 2:-2.365375 
-0.001 1:0.3371582 2:-3.8149375 
-0.001 1:0.29001562 2:-3.314 
-0.001 1:0.29567383 2:-3.2821875 
-0.001 1:0.2689082 2:-3.412375 
-0.001 1:0.24613477 2:-3.1555 
-0.001 1:0.14553125 2:-1.92825 
-0.001 1:0.25189063 2:-3.2545 
